"PC_1"	"PC_2"	"PC_3"	"PC_4"	"PC_5"	"PC_6"	"PC_7"	"PC_8"	"PC_9"	"PC_10"	"PC_11"	"PC_12"	"PC_13"	"PC_14"	"PC_15"	"PC_16"	"PC_17"	"PC_18"	"PC_19"	"PC_20"	"PC_21"	"PC_22"	"PC_23"	"PC_24"	"PC_25"	"PC_26"	"PC_27"	"PC_28"	"PC_29"	"PC_30"	"PC_31"	"PC_32"	"PC_33"	"PC_34"	"PC_35"	"PC_36"	"PC_37"	"PC_38"	"PC_39"	"PC_40"	"PC_41"	"PC_42"	"PC_43"	"PC_44"	"PC_45"	"PC_46"	"PC_47"	"PC_48"	"PC_49"	"PC_50"
"AAACCTGCATGAGCGA-1-33"	-1.963735733964	-0.619768569820891	-0.363143242388872	3.20297167498554	-0.524246977463053	-0.837978966152149	0.471909834739185	-0.58348241415221	0.0321914076526005	1.97164933064113	-1.83606395279079	-0.237839988287686	0.815164363007751	0.536569270881999	-0.482384845903521	1.21943175122486	0.59087273659884	-2.01760126611517	-0.158655466620754	-1.41789356648793	-1.27444647380041	-0.318274192999611	-0.742107013880803	-0.00750836246934681	0.29098837660307	-0.296442138673959	-0.173079479714984	0.124601614988053	-0.35287244609779	1.35657970484966	-0.446015936635624	0.037133040917442	-0.663120474207756	0.386987093919774	-0.300299368001724	-0.396237296434842	-0.662767019905988	-0.533188680968352	-1.29063384535786	0.260819527333469	-0.469063600126277	0.41563966330771	-1.07735611701538	0.0731752809128389	-0.533259373482859	0.888637442785652	0.927789320526004	-0.684377211915555	0.0582850727822634	-0.438347620399814
"AAACGGGAGATATACG-1-33"	-1.50325706845078	-0.373808383339064	3.57537585916993	0.161846847159832	0.274969414218492	1.87909352747628	-0.823781290756174	3.09160276420415	-0.661646477301949	-1.27186901695582	-0.598171177472298	0.945726367154991	-0.211137461034083	-0.583084978418987	-0.446629575227252	-1.50540642890943	0.437905568078178	0.346130316525266	1.66718709047989	-0.790658407049695	1.13427132590728	-0.474718979201866	-0.0440918267867187	1.23111517094544	0.108545107559307	-0.692213607751987	-0.469001424726177	0.636999907254318	0.439148914819002	0.877012111312438	0.286735933435118	0.486346838983237	0.259960564846033	-0.254989908430946	0.166347568326877	-0.150222636993241	-0.287664232946235	0.356925700567421	-0.47078800367509	0.228974454815534	-0.241501640889053	0.138330844590608	-1.75954731842076	-0.221072962587512	0.584768145032866	-0.799887034853601	0.239491173274299	-0.761553367283924	-0.184334336154722	-0.129469753652586
"AAACGGGTCCGTAGGC-1-33"	1.28654281829193	1.26864582838889	3.45997001045435	3.36589315060125	-2.3041372059418	0.494904626418174	0.266470145897517	0.409502132042922	-0.108163031031862	1.21959441398125	0.549715549547149	1.54246015454532	-2.12534887638888	-0.699389149169962	2.16837681270145	-0.639235576350651	2.53179834771772	-0.0244694788967992	-1.22510064044414	-0.725523836654512	-0.0804666509877785	0.801969145337779	0.483808615941095	-1.1947494574061	1.5730587050528	-1.2635200961669	-0.910008527001799	0.593258700212033	-0.0894837017201157	1.26308677456613	-0.911155521698077	2.77600074150478	-0.132767968642894	-0.589089788131055	-1.92912644096004	-0.0837719484011471	1.12460971839625	0.966892826397107	0.60461437768176	1.35798929043398	2.14171375494781	1.16201815562261	3.1397697745921	0.0184227990221281	0.642015122931229	0.199517233248702	-0.00666737910744605	-0.372336100685807	-0.875698867892963	-1.09677961125096
"AAAGTAGCAGCTGCTG-1-33"	-2.7865526516499	-0.413720532670073	2.25143350915492	0.910740274806315	-0.4619228218981	-1.28904511758663	2.15670892039259	0.247236703490559	-1.94526418849449	1.59581014806558	0.738974499492688	-0.933219907580643	0.223382488544677	0.413910178971038	-0.0515964323705505	-0.14163455681923	-0.998995823900805	-0.473620604064049	0.00358731763263638	0.0057419490757854	0.711450210816821	-0.435327876970698	0.0207223677621637	-0.377806495698568	0.284317696537147	-0.533776729911245	-0.325415648225078	-0.363175833777865	-0.190035194581084	0.475331873621156	0.219461277664254	-0.475267129987489	0.589545194796394	0.176998966530812	0.443153989182577	0.440532861155742	-0.44462473350509	0.350555366904677	0.417833533273722	0.443055216802125	0.0457376676328785	0.00219624666333555	0.608036569278741	-0.128279945474801	-0.177544680873596	-0.189268664514712	0.473384254576016	-0.0308574994890376	0.0469463014631099	0.23821014462734
"AAATGCCGTCAGAATA-1-33"	-2.0619954440006	-0.953091769477191	-0.563554986049448	0.720898196518302	0.847086894398211	2.62639794420543	-0.537232611295352	0.772079340136225	0.529020424848091	0.276967820237536	0.70024046823389	0.712036918231849	2.49913952597471	0.769815306157558	-0.193712281551496	-1.27676132197762	0.222476388726044	-0.063623525179837	-0.532482004547794	-0.42087371763899	-0.850753340323094	-0.215491153569202	1.155111586538	-0.203617921981255	0.109820163213724	0.169592087251429	0.466222573381233	-0.825737136152345	0.137966297448022	-0.409675301552227	0.862677261261141	0.0563660460324798	0.340845056721627	-0.0996992932716502	-0.210481023341849	0.73419338851819	0.684482241323966	-0.649323553244532	-0.0290343570461925	-0.266362758166668	0.721674633481107	-0.444922365946115	1.85548756612298	-0.302122668479593	-0.414483510861237	-0.085074264092945	-0.890751244027115	0.429131928895832	-0.0307880159622769	-0.278489797869045
"AACCATGAGGTAGCTG-1-33"	-0.4538229719391	0.136365436917296	3.03025503871683	0.993649096665546	-0.00527562087169144	1.95519406360488	-0.370038866616574	-0.205122016443446	-0.00508554134743336	-0.79672839037167	-0.346087481143782	0.336847534879677	1.18223479604396	-0.282544478172456	-0.856667532211533	-0.141437174045902	0.779433200063425	-0.420494162197232	-0.337041375964847	0.211912177981954	-1.23324561823799	0.626327066530002	2.72555950378307	-0.15955583249153	-0.998140640755429	0.0262346118252305	-0.921078290992529	1.26102546877397	-0.612338649888102	-0.497057220392243	-0.114129601067494	0.52801602975175	-0.189077199295441	0.06680772644482	-0.0294171662822907	-0.239402578906454	-0.232600395393786	-0.156342046605143	0.589253216263148	-0.515161681252306	-0.837341879570783	-0.270816603104572	0.185606243338623	-0.00733750756253251	-0.817161392690134	-0.805108525498851	-1.11920314894313	-0.835053726340977	-0.517850739124611	0.270044063918182
"AACCATGTCTTAACCT-1-33"	-2.71793390424173	-0.405219262960103	-0.586200936010031	3.34284567008476	0.0300755638723696	-0.469412099588696	-1.3068976065493	3.45262298672808	1.04201202736644	-1.36944709749954	1.19364980996623	-1.68462022999177	-0.515822722520919	1.8553493806824	-0.335698705976309	-1.31859357191073	0.529242727309488	0.496028000329687	-0.740709486009595	-0.873561510043311	-0.51623065151113	-0.124985196816149	-1.06165277411897	-0.310754920758177	-0.235355477188557	0.316134457763034	0.518195047772245	0.315850488208802	-1.04758224207989	-0.0611808367122398	0.337124953048221	0.511352329159145	-0.482487478737347	-0.310560795168242	0.606874649191433	0.170794310742185	0.536103660715983	0.102350890205698	0.282742983123989	0.257061284996593	-0.0349565652769229	-0.575591944476418	0.507681528187495	-0.242880959721752	-0.31230168908718	-0.200458573426475	0.715983199038993	0.421698863626003	-0.401496012806211	-0.230847736646051
"AACCGCGTCAATACCG-1-33"	-1.60713767656088	-1.21842322023533	2.2891757349358	0.698731350627601	-0.386375407544511	0.291340094555602	2.43396495538547	0.224649620341086	0.846605858813565	-0.522542596666622	-0.536970016128159	-1.63369160520228	1.96227659887704	1.01746576398037	-0.560413442879137	-1.46163806696806	-0.803355414147229	1.44388759424057	0.444330031155353	-0.922405407680195	-0.872475644069297	0.840997673725486	-0.123867733957894	0.470742917240369	0.24924185900886	-0.758612600647936	-0.708626570250562	0.739976723235423	-0.417345759423888	-0.41978298660951	-0.262500805206842	-0.172256129945817	-0.308615434282758	0.00630021730382814	0.0676095562551247	0.244456124727879	-0.501666083025562	0.34341133487876	-0.0742046070670611	-0.193914054465899	-0.156300155024265	0.420336236318481	0.105759954302921	0.164820467680297	-0.582242930602205	0.378669443652396	-0.052237240227503	0.0734896438604653	0.845971845712513	0.219631242795279
"AACGTTGAGGCTATCT-1-33"	-1.28433957186298	-0.758933915008548	-1.60372670588709	2.62648546725448	0.254996635981108	3.22919017349002	0.773962153411059	0.479869777341875	1.2325225769793	-0.923969482526364	-0.847190434519436	1.31362512844667	-0.119511467775793	-1.05286424979642	0.0443925246109614	-1.3645055766582	-0.533471537538772	-0.168657623029581	-1.0125351815012	-1.24476279896146	-0.159956754174047	0.520629020117573	-1.97211931484585	-0.620146185916815	0.102987934361768	-0.0992813895397451	0.818189208542914	0.320832942665378	0.263466231502588	0.0728132836093347	-0.0161104286233793	0.547580582229816	-0.638037834776662	1.02305647295435	-1.34937618531574	0.885612198794043	-0.324994758155965	-0.675512174830689	-0.152993428554776	0.249572197315391	-0.737263402691996	-0.764538008841379	-1.26584349636579	0.687305889666558	-0.139091348632851	0.492768387129773	-0.115511550661368	-1.84636759322636	0.646542108554494	-0.317223943429042
"AACTCAGAGATATACG-1-33"	-1.88304554512076	-0.211956228935125	3.30310009426107	2.30477652588443	0.314887907196721	-1.76782657156082	-1.59746871666003	4.67607630820136	0.29198858866395	1.53130370917533	1.45967946046039	1.8377301518858	0.260184209727176	0.917833866160337	0.405273987490957	-0.213748175500876	0.728164502560777	0.794434039532825	1.31921376107357	0.316886816146092	-0.764862927070302	-0.475839610583162	-0.108005849518885	0.351818734951355	-0.101418939691314	-0.55263374340364	0.553167945004477	0.993240180773203	-0.192589721183643	0.499957363070189	0.539723802518345	0.826396108144215	0.060255095996375	-0.105030889386039	1.11425954981777	0.301459028134203	0.184887667646447	-0.504088083808826	0.301557709946457	-0.936236024505224	0.110416281282467	0.157908067420514	0.442572366290652	0.278737149050421	0.990282637592348	-0.039276861858471	1.16765336224023	0.217919882254405	0.937637736569224	0.815743624735063
"AACTCAGAGTTTCCTT-1-33"	-3.55784823921132	-0.797188412334183	2.73948313578745	1.26483624200454	0.330628226672013	-1.46834210115309	-0.148997423406235	2.24021962351154	-1.65493926286896	-1.13444235223602	1.96889598831682	1.69154135323844	-0.565452153965204	0.0187432525454098	-0.206880258518337	-1.24380437479388	-0.0440246330645386	0.391893816937794	-0.248042580683749	-0.181811776118386	0.780336457777221	-0.0457180115568087	0.109702427092335	0.372160800582871	0.262968517045185	-0.447376444115809	0.476859586648801	-0.471408946281105	-1.14606349382505	0.264786653992789	0.541153295573157	0.370778483885365	0.00127760015423745	0.359512035450691	1.16910521699839	0.370435934743603	-1.0198260482254	-0.421881505367516	0.232181120234413	0.058569982800785	0.655866110478677	-0.0768488342358587	-0.11982935428216	0.584757618787727	-0.510439561611477	1.08659592357036	0.224331148650374	0.416598292576923	-0.0998520176059272	-0.0209071655039744
"AACTTTCAGAACAACT-1-33"	-0.913736033772878	0.176402386968544	1.42691058884863	1.94322888426861	-0.222942644697319	-1.16832489485385	-0.861100835425833	1.32153654418705	-0.720383293093596	1.6118236846325	-0.391591206504376	-0.0296551280958946	0.0705995526662917	2.18701070224644	3.29181877656024	-0.332951367993136	-1.11272051543931	0.940959928544276	-1.37145320975393	-0.667100124029871	-1.91413835099202	-0.476556310702275	-0.297570876943744	0.255477235842638	-2.0917172759041	-0.282095486330642	-0.702834043004712	-0.762384597201016	0.919172900967335	-0.744934037608253	-0.972108021257028	-0.126969439152097	-0.137439552905947	-0.157468683773658	0.770544392535607	1.13437673791629	-0.143999814261471	0.0724069317883923	0.70208968270523	0.634133089463924	-1.65065604815703	-0.654163130656793	-0.877280783325208	0.126359292613617	0.564922110902708	-0.0837733099145127	-0.642664196623589	0.00230547134998039	-0.00165455592836878	0.47763163490848
"AACTTTCAGTACGACG-1-33"	-3.05204785925969	-1.46148712707311	-0.898186979326573	2.6933858115895	0.670021488571367	2.02734394893971	0.136032014225678	0.406135317194655	-0.70615538420328	0.712477916264637	0.096798098792441	-0.401721501543408	-0.211690833241066	1.33782916571844	-0.450346142305073	0.596927297551459	0.965748378496083	0.61132691893249	0.382922397011024	-1.60510878588097	-0.419503327554797	-0.554194102393099	0.172440768857231	0.636887058739077	0.422184996154101	-1.42408726781527	-0.0754256854279143	0.0686138086109445	-0.00472739758368298	0.354207543797567	-0.523737487299578	0.393930568931018	0.123302475931074	0.120308576776758	-0.00872082891018592	0.914368490507632	-0.319436490895671	-1.40266811753946	-0.00928927696051827	-1.0140690715606	-0.107040920265005	0.0243188651084136	0.206197800900975	0.0360909780501164	0.295689404231157	-0.254657701600556	0.127637257830887	-0.221800002296518	0.196630169884347	-0.0625800249637913
"AACTTTCCACATCCAA-1-33"	5.39494594634463	2.23789848740856	3.12195197054622	0.738157796990014	-1.60167210696096	2.14188081952117	-4.26210497346638	-0.622475659474378	-0.244494495048629	-0.573224051645955	0.486202240111128	-0.688666237047586	-1.81752529143097	1.14708641571548	-0.0499864674079259	2.54485763330038	-0.0376600268420584	-2.03314246980731	-0.979137648073534	0.317896933930823	-0.404825015180903	0.595685559098806	-0.409408631957437	-0.619620561215127	-0.781870273449591	0.587994209345703	-0.0765686056337404	0.372351232068461	0.290902826730618	-2.17235809969684	0.0631289768097121	0.122006603193344	-0.0785777799905493	0.852236742424629	0.156416976316784	-0.300549700399373	1.53712934935845	1.14379523638783	0.0927955212956814	0.599932816636057	-2.39170424901275	-0.666943384536609	-0.11983556069195	0.437163424917341	0.347490689296625	-0.583680045016349	0.32495554628983	0.566457913127115	0.102981090365929	1.61881154881178
"AAGGCAGAGCAACGGT-1-33"	-2.31715631779587	0.100335190363486	3.61069488396999	2.54683502479146	0.080438254028078	0.160614886362477	1.76119137845474	-0.151131308216999	-1.50168086475941	0.162782261848015	-0.234698890987271	1.73818572467359	-1.38725382259894	-1.25765164240742	-0.422699074724735	0.166820990532598	1.2747303081265	-0.806258951259199	-0.62274344586984	-0.487582817626266	-0.529537542488889	0.401086519810534	0.207444252360125	-0.0887210925666691	0.947468248822132	-0.515834617325211	-0.425895326232304	0.589716637145659	0.071169822541221	1.44241345155161	1.07658064316119	0.533359552845917	-0.649957401827301	-0.841250465580774	-0.132107294615136	0.276926982702679	-0.189994387144853	-0.311653067468509	-0.052553266299842	-0.734909106850696	0.209013355536613	-0.202813430901638	-0.303021766160573	0.533896706727143	-0.00723047099492223	0.948841826094874	-0.442111377514989	0.295628764815993	-0.00926910424821534	0.0687599138736436
"AAGGCAGCAGCATGAG-1-33"	-0.159309391486531	0.342747195298969	2.62143321910593	2.9177818702754	-2.11642995325744	-1.83790233184988	-0.168026835765057	-1.06219112264095	0.12813974144625	0.567023957678347	-0.332162156454954	1.47597047153558	-1.65701398129549	-1.16784467673507	-0.0116762252883664	-0.740904237582706	1.08793413828188	-1.39689468569864	-0.838765675628176	-0.7795961320642	-0.0431436569075183	-0.290349434320641	0.245316113293358	-0.898334440935835	-0.231486053244614	-0.594130534131259	0.510649695277469	-0.704303599358203	0.247565244397508	-0.803170733258061	-0.7571537712588	0.768311477093916	-0.332929880182584	-0.242890044467148	0.0594948794106718	0.00321551937658943	0.243234868356213	-0.125028813673511	-0.24782026401361	0.127035253539656	0.357672281910364	-0.633323138000142	0.392650136416262	-0.2256075470494	-0.835071771869853	-0.070098809808666	-0.00225392765680467	0.286728659133791	0.0186902325452685	-0.049110717051199
"AAGGCAGGTCTCACCT-1-33"	-2.59012346169957	1.6661495052652	0.572058468810506	3.07929905052897	0.101262545261171	-0.664229034854457	1.14485685956742	-1.10585344380259	-1.6891357512479	1.09869876617779	0.0124409294657183	-0.593420442904361	1.53687151467059	1.61923129569478	-0.767393547874394	-0.0432019702702629	1.41385444882026	-0.94426211020928	-2.44095137517997	0.674289394131705	-0.651968388171316	-0.292946766519713	-0.294639194415497	-0.107820701935628	0.662627995511653	0.857596564060382	0.0132623767242403	0.112360473493069	0.256147473615341	-0.713404119582928	-0.0656305158476649	-0.436997151470176	-1.03280427503576	-1.72058048338008	-0.0770545069484128	-0.483985763955391	1.04578471533836	0.739647503056084	-1.66784364065606	-0.695545590483291	-0.0384819958429226	-0.190496565726916	0.211582132728802	0.594495045839902	-1.12421570587632	0.205385086476354	-0.252590554078959	-0.0922151700358649	-0.333529482465482	0.660168798503977
"AAGGCAGGTTTGACTG-1-33"	-1.61914068765186	-1.32909203504193	-5.58369980293762	3.80181650985476	0.102025693193803	1.69912236739475	-2.03483506988052	-2.07788959027431	0.591983900111348	1.32554499409914	1.57396980799017	-2.1481464663222	-3.92288846794884	0.533449436974991	0.346083660453177	-0.947496314998259	-0.391256034469315	-0.88525230913603	2.89465489070103	-1.03616958438434	-1.3979428276436	0.198779315301392	-1.65630089418321	-0.152681117879284	0.26140805310794	1.52515317215435	-0.663002309667231	0.0311263399524227	-1.92061553720047	0.173784284492832	0.427637943034984	0.0332779714033911	0.768494978212401	-1.9154340905387	1.16542970394769	1.25674010230357	0.080842249898726	-0.351216288947552	-0.142568956619367	-1.37639971777526	-0.945505304267263	1.55129242733894	-1.43471386051147	0.163518963660181	0.0298330195434336	0.0341226815203765	0.789062263104478	-0.149507791052876	-0.996773424068991	-0.591146755347513
"AAGGTTCAGCGATCCC-1-33"	-2.63682677895248	0.614730622897027	0.21350392610975	1.84393937298238	-1.97554951375426	-2.26232844112018	0.880031384980643	-0.887751623312505	-0.736776825215495	1.42795509190603	-1.10404227440901	1.46777332021469	-0.387566804322111	0.469248606029571	-0.201696881251753	-0.558605282610905	0.0149093406811525	1.14451506767626	1.50806798289777	0.275958077090526	0.104184239509436	-0.33565228756888	0.847405407207369	-0.239830777836055	2.25476437645208	-0.875768623279027	0.21237469237984	-1.14155126898502	-0.515361240418891	-0.0189097493567984	-0.113126896627599	-0.0364325223086005	0.0434639790197512	1.01881889548634	-0.828428291492586	-0.506985205348736	1.20148202155769	-0.424184254119307	-0.399850242793406	-0.266543151601295	-0.0687895111843623	-0.560419514526315	1.06029683512166	-0.835867691756725	0.171364958132232	-0.240942032360938	-0.449022269243761	0.569557576463228	-0.665112996331583	0.435371998672146
"AAGTCTGAGATGTCGG-1-33"	-0.703207455874144	0.207712041516512	2.6125508857008	1.41814477175859	0.06389266814376	2.16505127205595	0.88648646094528	-0.360015810749591	1.23234446734339	-0.734434929928667	-0.241090277153215	1.18787149035484	0.0950574647379344	-1.04466486149548	-0.256465737133842	0.000910051384720164	-0.236607976448282	-0.18538173160128	-0.353256953654764	-0.274481239727725	0.144272601679679	0.416494277696136	1.03863351105493	1.08099158343319	0.706197170728656	-0.777593174144396	-0.775827741091938	0.816223003510256	-0.421105832502811	-0.0628138503168511	1.5347714163584	0.178165745779363	-0.604137246902835	-0.281625366467554	-0.334693785499143	0.432806180891684	0.114831455075991	-0.411640728021076	-0.343767131619621	-0.591110061433781	-0.162380082331455	0.453138553419523	0.0622120902276899	0.523840363927257	0.81918650575851	0.122465477481874	0.0841349443050607	-0.447748125774482	0.266731246140482	0.255509237115422
"AAGTCTGGTGAAAGAG-1-33"	-1.38154667760215	0.161295377410065	1.99113954357923	1.96064106249922	0.115601106041608	2.53435261126025	-0.496828460451806	2.67327309817248	0.104446114129712	-1.06474528995551	-1.81018222017731	-0.808717938288883	0.950774443853102	0.588957413427249	-0.469766544577315	-0.329526881719412	0.884633534988376	0.139886828781238	-0.606927753570529	1.12717653100345	-0.137180566385734	0.128135700373895	-0.277932466597593	0.803855251116821	0.154024050639934	0.806247637005475	-0.122556385177406	-0.110947232201369	-0.297364164313877	0.50317958636136	0.287434081430534	-0.988751742381503	-0.108500197678712	0.527394197576602	0.766797459042176	0.22466767405828	-0.79448445229625	-0.532901525579452	-0.426987948547543	-0.171142555277497	0.484693556117659	0.185559271429486	0.407974020345526	0.714169139393434	-0.9741895349668	0.128757634708894	1.03665324802531	0.0214516808433022	0.208831055218475	0.678472964088955
"AATCGGTCATGCAACT-1-33"	-2.86660157341183	-0.553958120746965	2.10650906213164	0.909864931485336	1.59351146711957	1.06736157346949	2.06330601204907	0.182461238692179	0.698204152259073	-2.42419955308551	0.27510305330197	1.31269874457631	-0.624114257197122	-0.0425045579081491	-0.85395473313628	-0.0606624457417735	0.971926324849324	0.559227220032852	0.0455175785263317	0.176267854133181	-0.992677659959471	0.630587139010427	-0.662574882784002	0.978823531975081	0.199469501934288	0.133496878274776	-0.367080773982226	-0.0157690778887612	-1.37653873976835	0.168107277049317	-0.171601148620584	-0.714709624522451	0.584129998243003	-0.200301490343195	0.301926198644837	0.593210044960957	-0.331660293692597	-0.569698051284887	0.12272592200334	0.0978307457500021	-0.2873892078513	-0.698843410203741	0.464211782955728	-0.365797353141855	-0.202790157958912	-0.117610128147862	0.530832218411271	-0.0895773252903385	0.273246877888893	-0.586727609897718
"ACACCAAGTCTTCTCG-1-33"	-1.2033805102605	-0.853421909816719	-3.94755421195025	6.52532458591529	-1.34021570195577	-0.0185377528461445	-0.191853426816738	0.942835308048786	1.06746847467886	4.02764332115196	-2.27212881327601	1.84926338691139	0.254104075998532	0.677730268284078	0.506433254583756	-0.533429302463954	2.01661191200418	1.13849273200249	-0.537967671908399	1.68006799769449	-1.81062585997536	0.548860758761581	0.604372424681044	-0.24061029529971	-0.0693846436401501	0.819719815435368	-1.0154423605677	0.192826628996548	1.83035367858385	0.302491073740933	0.0935315472869552	-1.34820374810706	0.270505893932918	-0.132437520029383	-0.116045935405997	0.487701134007158	0.0526516425698571	-0.268411161513972	0.0842343506155192	1.28386282836656	0.122257108982691	1.53170157844212	0.349545453172999	-0.142803427703785	-0.0400132480449895	-0.383510114693914	-0.0613547043793325	-0.215199919369317	0.400651749094884	0.471247159859028
"ACACCCTCAGCCTTTC-1-33"	-1.36675176832776	-0.992850053632056	3.17994581463778	2.17797663594707	-0.345232499228136	-1.2261250225312	1.06975774272308	0.618024497595168	0.0796119057965692	2.52974460659394	1.4937910739944	1.83690403080323	-0.500002797764298	-0.172602696647101	-0.330627222640075	-1.05109204241705	-0.379401655864	-0.0391373934999733	0.642134108927918	0.664265192421132	-0.0925799202307092	-0.278674913319115	0.207417405793512	1.17426804048004	1.41815820169715	-0.40230141839593	0.0863735059033848	0.427528202125859	0.761296240394104	1.02260431330996	0.735145951473117	-0.0496015364205499	-0.541324622346098	0.46186239916644	0.0653518813634842	0.601461502338041	1.08627956957085	0.530715600421159	-0.110654803462935	0.0532486791132947	-0.506514812647905	0.0990243411183737	0.886931729139779	0.241138916269802	0.236839864092461	-0.985480169894408	-0.0341875622728716	-0.363683847421992	-0.395269514026927	0.26317040180413
"ACACCGGCACCGAATT-1-33"	0.969478729710413	1.50543894596405	4.40538858484101	0.991510531097935	-0.136535774771892	2.29042877902662	-0.0234615574348385	-1.0233050669147	-0.0728621396986744	0.454402350374214	0.500364682648795	-0.671231726839944	-0.124136221819444	0.161503640275034	0.21084087247962	0.949932620552443	-0.967510994486764	2.38149725804928	0.991289063359718	-0.678201004506027	0.0817484246764575	-0.127366826623047	-1.85839598924623	0.0500316389829931	-0.0194172098557221	-0.227789380054765	-1.15809921911648	0.591576670706122	0.564235979942771	0.612037908159977	-0.0856187477831344	1.55122535249733	0.706189101589294	-0.721711864378497	0.315382873852023	0.77641690645197	-0.18718469442565	-0.290112340361275	-0.429684733178859	-0.0847347990490868	1.09989097326788	0.558454141214808	0.594911218489765	-1.66525321744436	-0.324422898906715	-0.136387174104094	-0.818285498087613	-0.0249362089549736	-1.16424580805496	0.143764871665521
"ACACCGGTCAAACCAC-1-33"	0.223667033315133	0.884243555941457	0.351307463194863	2.71931450206342	-1.44622910182457	0.801601624962705	1.14350795945771	-1.44319090281872	1.89919368705377	-0.814940170624437	2.34513740388191	0.723197178838969	-0.459153819930569	0.684722527613357	-0.945585010029821	-1.39420412982983	0.200572387312011	-4.0517187922192	-0.368158637194988	0.19979316616145	-0.394149526744624	-0.700832246711179	0.718567155117328	0.615245956521761	1.73620212299719	0.651162533988315	0.562305925418996	1.01952296268608	-0.666764302085833	-0.27941591325141	1.40170605666782	-0.11659557219603	-1.13637203567518	0.247018757962519	1.75139400734644	0.715409719663898	0.285788796958243	0.432326515341662	-1.27219923999893	2.12323506537688	0.163270098720452	-1.2594458943327	0.153441023184724	-1.14256151940948	-0.157457919648902	1.29921212222814	1.06941618802342	-0.955872043764718	-0.0912801000510193	0.355900318389392
"ACACTGATCACATACG-1-33"	-0.778306747092071	-0.974390537572583	3.02123688937171	1.98541012221887	-0.473121360212502	-1.34811269972799	-0.463442296235244	1.98265932116044	-0.597974267737865	-0.37345759231771	-0.037336067001971	0.877631727071135	-2.28593394316517	-1.09645801631097	-0.278393325411685	-0.478207495940173	1.32376631166097	-1.81377007392795	-0.696361602923274	-0.91446771556836	0.0223545519983446	1.07026356858074	-1.01704894747408	0.464457460429952	0.201502619774919	-0.680416606455588	1.58956233034451	0.985506823802885	0.320249302788205	-0.370394162317151	0.28257465977147	-0.28108153301085	0.058100667473165	-0.203470760861609	0.384817290660828	-0.478399920314094	-0.367811872167025	0.256167474226317	0.311536955603877	1.19845075171732	-0.25675928503624	-0.902537074518127	-0.83252133585573	-0.226550159136031	-0.442106709301842	0.439207016856262	-0.276657824442016	0.211099375801579	-0.16716394819414	-0.90879690279306
"ACAGCTAAGATCGGGT-1-33"	4.89008722778745	0.536158116940249	2.05445324438515	1.10000010521269	-2.08578924230711	1.80214094598734	-2.05844886098262	-1.8637327510993	0.286663462416984	1.0877981540141	-0.635745707036462	-1.28960511376143	-1.08933078330405	-1.28375255790929	2.79717379299443	-0.555619650232107	-0.303820060959564	0.888333992413486	0.552975439351052	1.23729159528823	-0.00971546396313806	-0.377757176840049	-1.81962827427322	0.789867392657451	-1.46142677966727	1.01172235322782	0.717065462555618	-1.13699246173552	-0.999060808564786	-0.325730702590258	-0.446687557948723	-0.804030423418823	-0.446321747847944	-1.83192107432012	-1.14511947726348	-0.772834460786859	-0.568770392935164	-0.714974436499004	-1.56119713810887	0.703738309360419	1.96370920611494	0.407108162627745	0.380202050328106	0.199405850372416	0.667097603031449	-1.29948168464952	0.00846277586888355	-0.394377614585088	-1.58540093283984	-0.350836393812737
"ACAGCTATCAGAGCTT-1-33"	1.53940709537814	-0.813733378014525	0.0921895681682964	5.10499219102688	-1.14819867353569	1.64362781343435	0.363873587933222	2.49456474611467	0.902211674300246	0.347959565519078	0.791860207949934	-1.56065992249165	-0.11490558092335	1.23181282146138	0.460914840002077	-0.595301227773962	-0.186279137780549	-1.3162784247534	-0.0132620839661413	0.717088948199763	-0.498831753844473	0.330814114100589	0.343632323075345	-0.136274992135004	0.416754100897735	-0.295812733936802	-0.490745422341298	0.258051995246323	-1.75360287776476	-0.362696355764219	1.40504662540237	-0.0890380870491785	0.358167348259188	0.984371553223776	-1.60008155765668	-0.559049400989914	-0.376768785304955	-0.0894774984923813	0.69091695573989	-0.712263417089878	-0.0385606364654048	0.368263631217328	-0.964419362420792	-1.38466756642599	0.297153046257543	0.760463519442793	0.173317021252546	0.778167514211846	0.489796704787272	-0.346072454711792
"ACATACGGTCCCTTGT-1-33"	-2.56029324466962	1.06432428398947	1.50260097316899	1.96141998120499	0.948807869441819	2.24656644646509	0.796541602396	-2.91599676612172	-2.60636473263828	-1.03236114697954	0.611538623625005	0.0938794988188531	-1.63450097864226	0.599039884399994	0.447082393921678	0.586253426263256	-0.338286196168774	2.31448868878655	-0.144095661652415	-1.57447126319007	-1.83575191173454	0.0448216752532829	-0.0947747133157685	0.453176857409604	-0.779290939026264	-0.0378137067504395	-1.00250922548311	-0.785783458683376	0.669073282063057	0.316409423168057	1.13123911266381	-0.870639008125896	-0.378835627923219	0.0525399878681108	0.536308004806763	-0.946725895213964	-1.60989296228351	0.912977735749395	0.643264099097008	0.291128009321111	0.530048070887279	-0.549769015947661	0.561127820689776	-1.03859963354738	1.00918288000013	-0.872022264613457	0.447446669250088	0.792310956174615	-1.42391811172922	0.530979064286431
"ACATCAGGTCGCCATG-1-33"	0.393707102884704	2.49485866897429	4.04316405891625	2.28051744213939	-2.04354621433843	0.422675981745162	0.661803627162706	-0.126299918810836	-1.42986860906768	0.618250183533276	2.56865776899678	-0.5993246696187	-2.31389495416282	-1.01869552298788	-0.199553842383721	-0.0673250616788249	0.253365729221057	0.0281754967601994	0.163267902934855	0.627725653732907	0.647690800589412	-0.309488105780712	-0.337192379325136	0.990072011510033	0.540392716098633	0.54977269599045	-0.13610761711777	0.754147688303564	-0.235814852490293	-1.2497491987796	-0.363948838541792	0.194603446898062	-0.33384337168343	0.857843585219658	0.355507078336988	-0.189645527840128	0.517640970692869	-0.285529838189058	-0.339823019691896	-0.426456048912216	0.285108698393562	-0.0511858442679527	-0.702034578457489	-0.408822292070579	0.146677817960787	0.985436081170438	-0.508041884597033	-0.255488106356618	0.15988118988776	0.184475480914234
"ACATGGTCAAGTAATG-1-33"	-3.51643484739099	-1.7099741074606	-0.987154353547812	0.747531098841639	1.31904886852992	0.408095805388595	-0.563279125985149	2.64942024991335	-0.460855443581905	-0.937083620304871	-0.338153653716167	0.121275831546783	0.31734268962592	1.42110638820259	-0.287427673810353	1.50430537924979	-1.25873804432978	-0.133619996290353	0.275595382736177	1.07798584017634	0.241200516878822	0.412668764442189	-0.117780601312324	-0.488330234583105	-0.324241464792601	-0.336083583886721	0.278128675400427	0.475784520469089	0.444615618744473	-0.373673133232627	-0.62429210982252	-0.258115307183728	-0.734414830354127	-0.30588147084323	-0.904819777923279	0.557865617612025	-0.154030132246254	0.646288236216512	0.121713291461587	0.660937242555307	0.192643809618861	-1.26142368039511	-0.2810832696956	-0.170122502035681	0.418346041062515	-0.225072541705967	0.435487464097606	0.101034196294104	-0.355894114721353	0.353853016044859
"ACATGGTGTGTTCTTT-1-33"	-2.64486511419794	-0.145805698388688	3.54362617525422	1.36530340412145	-0.237717879398839	0.495799235886407	-0.874605297063553	2.05100069518819	-0.717763296938396	-1.17934643093321	-0.644434985956831	-0.909427505080291	-0.403670101199836	-0.649920656188356	0.089350590704031	-0.75972030353434	0.325716520228592	0.678700480357374	-0.0946301703510625	0.152891334641271	0.0461831248289339	0.948387978525586	-0.256111520887999	1.34347379566996	-0.506835241841191	-0.829275954337564	-0.350566667187257	0.422820468702089	0.288400401522228	-0.330049259458543	0.629583596889525	-0.226693606648056	-0.947521309258406	0.208470016537815	-0.448339159227396	-0.309624380551997	0.251622201363899	-0.119326859982536	0.653953120234119	0.127252295303685	1.27002226099678	-0.0047143586696515	-0.0856314154530377	-0.347312582123226	0.0303288882576417	-0.423552204815032	0.28450291052564	-0.0621612490165707	-0.641621929229119	-0.202882206593456
"ACCCACTTCAATACCG-1-33"	6.07337712984926	1.82085330488615	1.55373244437782	2.60683231839859	-5.81739594943972	-2.33886069429087	-3.48141745742881	-3.98433074998491	4.62417331444285	-1.54426286821141	-0.207716053709934	-1.37037271410551	-2.67143607326465	0.666939745505791	1.68357338905768	0.0892081543177186	0.684675412277439	-1.81906979874926	0.324105365082725	0.000951867695480085	1.38542789939318	-0.695557546596423	-0.920826329628864	-1.42981849717903	-0.059260987863125	-0.259471674751458	-1.39946149037119	-0.456586278903537	-0.583007307462545	-1.64756239063169	-1.47797283692163	-0.443674321081711	1.77121444136809	1.00291615845574	-0.408881321169504	-0.485640294624267	0.103115825401237	-0.263759568881235	0.668986338897191	2.77789174887049	-0.00238936082913283	-0.172719561190875	0.893703585520936	-0.743252229158736	-0.277029028610495	2.24077150304412	-2.18867764291208	0.564311188731159	1.22695712960179	-0.784607115332815
"ACCCACTTCTCTGCTG-1-33"	5.77667405483761	1.74384549250986	3.0605684467605	2.74010755654847	-0.0683581905715629	2.1837591640033	0.11931276454593	0.164471069313974	3.60538025989856	2.86108299040237	2.17725422714919	0.395230232189385	-1.16207446095613	2.46247954451839	3.41543744667749	2.36269942285811	0.208771440879199	1.03981086778096	1.08492202314881	1.60233905850337	-0.613731631194582	-1.52946142300717	-3.09442896414157	1.29590581379585	-0.355473432241927	1.92844303763687	0.32294862061171	0.500922090546094	-0.221110478500608	0.148085201728248	-1.46057324466013	-1.35899669685064	1.19793273107079	1.23829986220827	0.54077018142922	0.95962473643338	-0.635390959610911	-0.0554788938352375	-0.966875735752216	-0.967391607820586	-2.19328263657305	-1.8762977879122	0.452297211026483	-0.60259337658232	1.60536212727174	0.272273632179572	0.568630715467529	-0.257899762761357	-0.984575390631747	-0.50803013815696
"ACCGTAAAGACAGGCT-1-33"	-2.20464988316171	0.191145808420932	2.05178109442063	2.9558466703274	-1.62143634238367	-0.939435893811395	0.222542986139602	0.854125145050659	-0.492589932519	1.78167445454893	-0.824854003641349	-0.0182031527525394	-0.199869120804847	1.04579047936484	-1.0100412257147	-0.816617791512527	0.332071658339309	2.03586774642887	-1.95261698723491	0.372980660846781	0.235414729433781	-0.385067549033137	-2.5290001269706	1.68677786313433	0.689407987719529	-1.08338687922527	-0.0719588526428745	0.899814551255484	1.53328434537903	0.4022504117066	0.349467786598625	-0.873510011162432	-0.245966787303053	0.361794593212162	0.892999411950785	-0.350184928840636	0.656089631419024	-1.56792855206844	-0.0226366451301027	0.0166128809345443	0.69450591177007	-0.252645192925982	0.834506370089945	-0.130227373567913	-2.04339897766377	-0.412614556160285	-1.1685926804386	0.593968980231	0.1857955449684	0.0741273359459968
"ACCGTAAAGAGGGATA-1-33"	-2.57084871455016	-0.888263439020817	0.590611216496188	2.29959646050659	-0.989835787687203	0.801066246216379	-0.513136096861664	4.79448534953869	-0.0557009119939428	-2.00190338542825	0.413377014168136	-0.383187238248261	-0.0350665486554646	0.863463597023385	0.45893854614524	0.415280875102267	0.736170535689871	1.10670613317977	-1.10506721491119	0.866062235333584	0.792709050468712	-0.488938462136842	0.114218498318089	-0.301749320275687	-0.227328622737169	-0.760856879626513	-0.280753763845463	-0.294736960553348	-1.32620134208111	-0.531147780528395	0.930969317994347	-0.0298387011404915	-0.977072841792596	-0.075578790073616	-0.0481654598139082	-1.0485186607214	-0.210182302841818	-0.380319868386132	-0.0772709618072798	0.263559521628846	-0.422257146198476	0.255160028590364	0.617657141329144	0.17177987690501	-0.100061965519219	0.487722592123689	-0.152354607308397	0.459541812771275	0.62296555916724	0.262964312907336
"ACCTTTAAGCCACGCT-1-33"	-1.01654473613448	1.07677277635319	4.08451550928871	1.46483566966489	-0.181159146131446	1.12102267644514	0.607354343602269	-0.986838308093536	-1.76130584884233	-0.0138830994985719	-0.779230594917575	-1.3211566583909	0.0303463925520537	-0.829598721081447	-0.543452651320214	0.127921582702947	0.236176454914881	0.181508443758229	-1.59581467068993	-0.628622092633714	-1.42403280653113	-0.34696857648903	0.177768260334533	-0.0860563881131751	-0.727786658331847	0.677818152272827	0.270714049727609	0.306031829900829	0.649456071545287	-0.526364935045919	0.174661765277647	0.465451981184007	0.291226473609397	-0.828627187539813	0.634781910421396	0.0299971252882609	-0.29349457482566	0.178783748055069	0.388785201544059	-0.349868278632441	-0.225619989370669	-0.244487307937407	0.722966066086904	0.768838798708374	-0.188259139683037	-0.0992490544237155	0.0273869504703402	0.503146752766652	0.294796796175334	-0.0158031527770835
"ACCTTTAAGGTAAACT-1-33"	0.0688633550664084	-0.480730089017694	3.17183735709787	0.775595797306753	-0.695166237919286	0.299738438929052	-2.39827025116376	2.99830715496	-1.93450938915072	0.526479691496688	-2.01260724320475	-1.59308600404756	-0.413552166292655	0.281300819977447	0.764338444698472	0.0761500296355484	-0.502107334022466	-1.315746818434	0.264385635363939	-1.54392660004417	-0.632933788282979	-0.895781016752269	-0.383807151070141	-1.17398294662665	-0.0376845871162241	-0.53009109638134	0.0956714059983921	-0.702131437877561	0.498880964350902	0.181946634458239	-0.575748361481527	-0.259369846634746	0.466893062305089	-0.880410950793307	-0.519292768908943	0.774339841229821	-0.0461755397583589	0.419049193811903	0.380786673573959	0.404592507805132	0.855239723929817	0.429716496727659	0.0693985169314536	-0.37441106470679	0.642442164992658	-0.273206051510072	-0.0421157035718756	-1.10191507854432	0.175836519028368	0.169607478005037
"ACGAGGAGTGGTAACG-1-33"	-1.37322667808197	-0.682542398684807	-0.341491248878874	3.63358289769151	-1.57663996625026	-2.51182613868372	1.09105736510338	0.483017644537097	0.0295065302424877	2.37081112171145	-0.880337942187727	2.09014315385872	-0.0803569377233229	1.54498229020473	-1.33729711888668	-0.143972601249323	-0.493515305644336	0.865405220002242	-0.0552854084795507	0.813544352307714	-0.314135987260269	0.47521185778	-0.333124275525905	-0.262976166030357	-0.117491948269779	-0.186974091026325	-0.354227793129512	1.18978474597136	-0.269348151808924	0.14434498156387	0.936542785315052	-0.240413508124781	-0.906027253592239	-0.469755517094679	-0.53405302479837	0.254626131697275	0.423176580453703	-0.0606652478423806	0.103002456238952	0.592053513551444	-0.466824563676588	0.518700743099268	-0.946194852428426	-0.205281970241243	-0.220930803044875	0.854278654451412	0.443598274585661	0.0854933950810759	0.698661402057808	0.343274216579018
"ACGATACAGGGAGTAA-1-33"	-4.17545627397582	-1.19968556782767	-1.45456532705456	1.2323232622393	0.428741634991919	-0.846540414604942	-0.526364010055941	2.76293709545864	0.388770217129826	-2.25714220594717	1.85791418463865	1.68718802104917	-0.902147818574988	0.896040207881644	-1.38295592766959	1.08668555846605	0.620582819239025	0.928043807701603	-0.428801974200703	-0.391161630310376	-0.2483032428811	0.700257887890345	0.0606685850866752	-0.232212816024604	1.66897236000411	-0.491048272681784	0.762618674862764	0.51487203399367	-0.480861061072899	-0.402785672114885	1.14900801314323	-0.128417770568518	0.202021333245271	-0.559318695864025	0.252576144674036	-0.186648082722649	0.220344753943963	-0.436346927799888	-0.356839319846276	0.266343184413353	-0.227823674345979	0.133493173075041	0.167742242093755	0.0939775662703761	-0.197572472821646	0.176223048902426	-0.371233661780666	0.624388872370754	-0.29490527732386	-0.707961784633666
"ACGATACTCTCTGCTG-1-33"	2.31581145724947	0.00869494364907641	1.4470801802576	3.67547885849814	-1.54639385488919	1.47276395532951	-0.576662490452076	0.615000030177452	1.50091592863674	0.00285577087623187	0.445859017294712	0.160252806036745	0.670075048732439	-0.909617473099775	-1.64499969166407	-0.717805947340557	0.341678375872274	0.51793155715511	0.714420948801375	0.150255447927043	1.61423605135285	1.90354402684062	0.510379806844052	0.816464395136881	0.651038521030292	0.617243024991998	0.835629855878502	1.29735286258711	-0.67876792458812	-0.768730631113712	0.135445320065146	0.359791630036483	-0.722542117360987	-0.0135980817778438	-0.560757075526062	0.768328651053962	0.285557675097994	0.0177467051469748	-0.201460315024156	0.262902209516882	0.159884349440394	1.34754153323038	0.29032659970604	-0.80070922137272	-0.0478174366468293	-0.0433386671870178	0.256195534922712	-0.341606602689452	-0.552282077579298	0.286223322469568
"ACGATGTGTCAATGTC-1-33"	-1.42075930661011	1.62658345991338	3.44792794073354	1.17056922231483	-1.24243863164346	-1.39387910222361	-1.25742922044766	-0.784585363452708	0.24916482024993	-1.45237323112444	-0.0411202839865448	-0.598787062937957	0.193006744948234	-1.59029355027144	-0.54579805678371	1.56552619606933	0.54134583369896	0.212775974625986	-0.438037000650372	-0.293522173172856	0.599885285027689	0.55611676131716	1.12774349890876	-1.23344831524886	-1.67405490072507	0.185444708480686	0.939198438493322	-0.295331881853464	-0.225736548466001	0.221432127236721	-0.437579381747195	-0.351834821715899	0.328435162594219	-0.694132714141795	-0.312777631190756	-0.148454874512079	-0.0989924736358497	-1.19613387790989	0.279667077196518	-0.36646349732639	-0.530714674655288	0.561620338197969	0.335858503855764	-0.462979264641474	-0.082708415118506	1.20586292593983	-0.213289088839549	-0.104322882690829	-0.0118805663186922	-0.279203468029595
"ACGCAGCCACGCTTTC-1-33"	-2.61825527500218	0.302370745769693	2.30375909221566	2.04997950813961	0.218746576986302	-1.61469177681844	1.60606216777658	-1.15655765261702	-1.46708463474031	0.725731635993916	0.15938672646463	-1.21308181351669	-1.22446318829512	-0.498952307995079	0.348025225789562	0.378660887001171	-0.835097706682086	-0.865582732166784	-2.04224385288918	-0.335756718908855	-0.757423467916452	-0.0669869386264607	-0.879425561243988	0.677102552112835	-0.185638981929163	-0.54897577791738	-1.1263201618368	-0.0352467336216048	0.193834425803692	-0.628365635118498	0.864058338412512	-0.184998436955691	-0.120428459762528	-0.632019049406601	0.585332078948738	-0.385466496705982	-0.000331330346185831	-0.227485106571437	0.0278844261045648	0.289579768960409	0.0325038499255087	0.0348440478941203	-0.527133802471964	0.678920893663673	-0.844245525682182	0.195750835178899	-0.416417321461146	-0.369985484059287	0.973106662596899	-0.115576621399854
"ACGCCAGTCTTCGAGA-1-33"	0.700022574438283	-0.579254715699583	4.17315359637082	-0.402554074258037	1.76305563660246	-0.256788674800911	0.313933537561069	0.0850534465546917	0.310946162731327	2.11129776354723	2.20576335699418	-0.937283823949273	2.4757092406467	2.1840213356745	-0.664237768791837	0.16485348507674	-0.982683152389763	-0.397925885232983	1.16944971049709	1.33657746506303	-0.0590392824998654	0.815065554699528	0.351308028136767	1.68849615495763	-0.101180990510553	0.866745219767054	-0.851319444040201	1.51409613913128	-1.18534141528767	-0.688364093577841	0.278028852989386	-0.461305583504673	0.0293051567139714	1.30189360315672	0.695383390084406	-0.101453611549873	-0.616063435423399	-0.35086416385632	0.318292594346676	-0.509194653877685	0.580325155228135	0.855071842130926	0.181997819368433	1.21014672452027	-0.268696489207474	0.706251307508058	0.0426036625792279	-1.46476012588182	-0.218276739759602	-0.869287974464325
"ACGCCGAAGATGGGTC-1-33"	-1.27934429696409	-0.585197576048432	2.89831074700626	1.89282565568125	-0.606876790831945	-0.152479430999754	2.22320727256418	0.559766620385053	-0.0209609104102839	0.862412979778184	-0.450673888293668	1.19198026609866	-0.304756502352429	-1.5769263457509	-1.01675395492393	0.10661611994752	-0.497011088666155	-1.36027125972844	-0.706323560954419	0.158382216882523	0.716580232087765	0.738547988596375	0.90759464055473	-0.446905645621934	-0.147314018123038	-0.615362838625837	0.74783333475209	-0.423716068782972	-0.468715671400864	-0.274998472865817	0.898738488230125	-0.0403091489049448	0.129229567352975	0.537947567217564	0.869349077480244	0.419817302411071	-0.0142341878400065	-0.526826849530589	1.130146956502	0.0946626314797448	0.469703551329691	-0.296102576194657	-0.0519103554538849	0.965288265260287	-0.21851331172759	0.161046624354331	-0.271031263881451	0.0222184571011715	0.0359720849195235	-0.492274890617204
"ACGGAGAGTCCGAATT-1-33"	-1.5968707285872	0.0582733257572524	-1.9600111632165	4.29571297301373	-0.76584149959616	0.212427344836297	-0.285116578791329	0.0440263188022378	-0.485797909822985	2.86606216009591	-1.17948963021933	-1.21344831064621	0.29588761734187	1.86664199813159	-0.627512381226194	-1.1248384665196	0.521089272241469	1.70091015775635	0.0595326618396869	-0.023074418892828	-0.82438492153701	0.481434442087974	0.0402771230599078	0.6884953516347	0.32357609804615	0.657747266144109	-0.412998372122147	0.671426746392436	1.89864233981382	0.0495847388809023	-0.120106237863258	-0.713246587287374	-0.292492780749563	-0.957430908691047	0.265847262788641	-0.659671220957642	-0.14660766776387	-0.772335624429715	0.560499759090667	-0.1151336991112	-0.200590178700171	-0.025561207615862	0.551131855576916	0.0949738709100112	-0.172221264295639	-0.207344129909653	0.299740137222536	0.0497225622842321	0.0523037835587206	-0.213082945916851
"ACGGAGATCAACGCTA-1-33"	3.31675589882159	0.158508025891991	4.62963922626834	0.50714290144195	-0.479693964470343	3.59920041011531	-0.767958115695407	-1.51616235258385	0.898474024851291	0.476102865249187	1.16986089851336	1.85707420830192	0.940802354750775	-1.40738698866343	-1.15190742405533	2.75061718155734	-0.939793532173403	-0.615667516812438	-0.251514644557809	0.271553518822096	-0.601647994825601	-0.0390514883095788	-1.24081518452845	-1.42359461823667	0.466060391997071	0.120949318270924	0.388284309030179	-0.254481010832249	0.506279808826753	-1.12900599250538	0.253369088474884	0.0914862739280789	-0.851484685670272	0.301545117930716	-0.0975372608322746	-0.545012701534896	-0.125368413684819	-0.0744120491989855	0.883835749485819	0.0195788308200149	0.0616414648099446	-0.421318501204472	-0.512872109666885	-1.42511738381585	0.718356081536558	-0.181758627025726	0.213691233321851	0.317515450019777	0.869816752939258	0.171384760777142
"ACGGCCAAGCTAGGCA-1-33"	0.953323460217281	0.759207767149378	3.63190970851144	0.296824984438238	-0.455103234908209	2.56022978702154	0.178463817085951	-1.43091783589173	1.32716005970061	-1.72126933633565	0.774413902009178	-1.21045713808842	-0.0606440028174327	0.65023708081986	0.549021288552778	1.03051529709189	1.55251478896499	-0.663718418852531	-0.0507058372032416	-1.25601253399907	0.286223955323615	0.450606399930129	1.50466216185838	0.899776369683604	0.914811702633715	0.378125343620452	-0.541609272672034	0.386264913336774	0.500625164295376	0.193873925107574	0.472214061160395	-0.0293090095153022	-0.799190245777493	1.00794338661135	-0.262685371215073	0.64479425887137	0.165967109602809	-0.297147294347775	-0.78738255761419	0.187487973107924	0.830697246291381	1.03615645830135	-1.4594313377099	-0.32111508722329	0.451852277802956	0.388250090749406	-0.528513949858753	-0.644783526928482	-0.890966558626604	-0.374869124738677
"ACGGGCTGTAAGTAGT-1-33"	-4.73479274609469	-1.36138248241612	-2.39159089843703	2.70667072609469	0.311940499662968	-1.02503580493654	1.75946362521229	0.959576697303215	0.831466530147644	0.237856786671088	2.06149951863991	1.5933018861836	-0.475220582659807	-0.333552440915425	-0.0776884318683483	2.00764734330996	-0.969192414028676	0.164570796550151	-0.683114079753326	0.303426944694166	-0.606857281208425	0.0985382782589168	0.331781326125665	-0.62116402093268	0.154992414482353	-0.804275830871764	0.671275711413879	-0.91636703135226	0.0131988110011941	0.229163499323515	0.939960686264281	0.0119354577199992	-0.247311744766935	-0.401910410858613	0.17756344647066	-0.382364053100595	0.333585817251178	-0.430066324310307	0.248200178195474	-0.284600987039355	-0.243833075178564	0.269664011097664	0.0335881345478832	-0.146874309732663	-0.0684119407632102	0.590377917917883	-0.94031906876161	0.391904245786143	0.381126637939554	-0.377029113632344
"ACGGGCTGTCTAGTCA-1-33"	-1.95506566824759	-0.409982637877837	2.6917142622768	2.14518167851216	0.364699317520775	-1.93486724440874	2.35062449268933	0.283177418874146	-1.81388197108176	0.0197795503197472	1.00431586833988	-0.340509513677616	-2.18920989765687	0.358512869140709	0.359966496681405	1.07425084156002	0.359156570088317	-0.19872009112381	0.39557518606346	-0.516727690804233	1.38491654922508	0.838529137162587	-0.272842743018251	-0.112676256949551	-0.67381666159742	0.187472966407154	0.165201610761004	1.00386283957377	-0.543580450330966	-0.54035866353958	-0.0678742848837644	-0.199019935322726	-0.858752046700696	-0.00351134011711755	0.269650052251851	0.142363409870618	0.272612734495283	-0.00399982862309171	-0.187628419821771	-0.00175182429409416	0.0192059001677924	-0.215193271344352	-0.292018841430893	0.644589785048437	-0.199361537819534	-0.0870359040844643	-0.282714631213529	0.70974469067989	0.27849653998282	-1.15085606616968
"ACGGGCTTCAAGCCTA-1-33"	-3.0410604253522	0.569996847743381	-0.894734935072909	3.31311564488203	-0.0426657153968174	1.1910474805999	2.1719809159806	0.408311011295835	1.7831491502973	0.605430179143183	0.665454184865303	-0.0262308735447218	-1.62077743516787	0.704539838579818	-0.370804214096526	-0.417252912693902	0.12543952319169	1.01914188230853	-1.60346310651479	-0.364202639733711	1.07629010210853	-1.50052368978357	-0.185651001774563	0.458768569131988	1.43907905578677	0.648381052482901	0.251023719721586	0.589055757812623	1.1719230190373	-0.383334733745486	-0.477637408753628	-0.510329018907436	0.507322918769205	0.641651812970229	-0.286346299222786	-0.232887992402489	0.714806726558292	0.637816405573004	1.11424319458675	1.23004495297396	-0.265840320160124	-0.734675118185243	-1.24116946354223	0.271065732666189	0.828316601053742	0.890384008508127	-0.670617035511701	0.89848314029406	-0.760045123298842	0.122271424044987
"ACGGGCTTCCCAAGTA-1-33"	-2.51427806902133	-0.626259587363084	-2.42796918728515	3.71971703369413	0.695839490414723	2.58150786440581	-1.2318355882891	-0.882131596367694	1.2949241933802	0.00554910768970985	1.27962145272228	0.144578324815209	0.0286993447498679	-0.77122213973166	-0.970143229395038	-0.989541324864144	1.08668073980887	-1.1593469920137	-1.35119291844293	-1.58041896880934	-0.619664102345981	-0.926684036599085	0.665107110985716	0.0452876958385711	-0.286952017804876	-0.373505562342584	0.289997732540108	-0.238578577937548	-0.314211880875318	-1.14912194742403	0.361332210491636	0.946055085889432	-0.184389858352033	-0.720815048093059	-0.475292373617781	0.444094113418401	0.176719942720799	-0.526102265839449	0.103815451956352	-0.757128654762857	0.0206437017721575	-0.78465536610275	0.160190695554006	0.386307729462948	-0.585955896789162	-0.363273557627223	0.179244428211321	0.10745939553254	-0.624445780494172	-0.513222488320429
"ACGGGTCTCGTGGTCG-1-33"	-1.44132766116176	-0.226728065305245	0.199847897892691	2.42879434557561	-0.472826867668432	1.79706246138905	1.25893442406881	0.572613887645123	3.57378146855437	1.46407399588885	-1.48496066411573	1.53214335272124	1.7458921648635	0.970807619229181	0.10062976791989	-1.51834474667311	0.165176692849898	-0.484721286519521	-0.412172298119268	-0.530054269380994	0.710051673355705	0.136387641572418	-1.33834262852714	0.0545594945643276	1.44206013830735	0.518739284182554	-0.864738898997507	-1.30643911689017	0.298948334426208	0.881436612205624	0.072542480421379	0.880853418070762	-0.757061820974096	-1.89541291417349	-0.0484340739081497	0.578969730995164	-0.332215724192505	-1.11323723206727	1.69565148768368	0.67370702925911	-0.228569151461554	0.0873906613288016	-0.368735752269572	2.63344252702712	-1.2477394296241	0.397981554483517	0.340012579638862	0.05859017734035	0.1472015321718	0.402224706666084
"ACGTCAAAGTATGACA-1-33"	1.59908853109769	2.34741197489367	3.07211762837881	1.04621590434835	-4.16488872264471	-3.40811380361821	-4.42974190491378	-1.22994493449748	1.84629234845389	-2.47091841641823	-0.339771864746663	0.412639244536841	-3.09493198608181	0.191737840888278	0.196929783142858	-1.22872948534195	-0.793784329714856	-0.361559110700203	2.54849639594709	-0.710408210314859	-0.226102040704873	0.412470407662865	0.403709830966348	-2.02598188129785	0.65023769878705	1.51378667553155	-0.17831934123769	-0.028942204760275	-0.77026495688949	-0.911993168464175	0.955477138079589	0.678593160922664	0.0990317860698377	0.783334213976224	0.554657120734341	1.24377896229521	-0.148422890526481	1.72669779377881	-0.207256172202237	-1.42933737293256	-0.326585157801427	0.582772802260713	0.0682497458658683	-0.0834737896973457	-0.917615629189274	0.79261361422809	-0.59260430048369	0.0285000777353057	-1.28747928752272	-0.0197594267171896
"ACTATCTAGTCCGTAT-1-33"	-0.108053735327112	-0.509846202622177	1.02942742333072	1.24026923891414	-0.680329263138211	0.323538626436043	-3.03130846039726	2.02583744779619	-0.35505233760949	-1.01080408114974	0.623690875131602	0.0128850390794971	-0.146858666906586	-0.888941337336027	-1.51664216849261	-0.327100424868556	-0.668747502128009	-0.565745704685303	0.110810578006543	-0.0372425059624419	0.121089684096584	0.56080358379778	0.448222901424924	-0.0450496919142173	0.334784503312728	0.00803358775896031	0.0749640445301863	0.419038902006047	-0.444901644122747	-0.277788301114703	0.107823715486057	-0.292589341308001	-0.543161589024732	-0.482891368466293	0.281577660057689	-0.858254954074483	-0.0206701494083515	0.322162201161976	-0.277421042945886	0.53648279712828	-0.39449922968728	0.223064501291756	1.13627349790287	-1.05259159353753	-0.199406670974442	0.38997846619449	-0.594857582653523	-0.461584000046685	-0.467387370877215	0.178080880512075
"ACTATCTCAATCTGCA-1-33"	2.77828286243886	0.832106853330743	2.92959749152549	3.69899033459387	-2.94505499359197	-0.484075577231229	-2.43907640676612	4.23275961367694	1.79405094068602	1.39674665811124	1.8253344751814	1.0213202792994	-0.90364528043373	-0.0300796864897131	-0.0365774970523595	0.556576006784701	0.999564053249535	1.04865759706134	-0.328984955618091	0.737525559332803	-0.0461824687809668	0.95398399405368	-0.751515248532343	-0.240087702372088	1.56063052089259	0.373197809110471	-0.378791332802481	-0.825365866065186	-0.0817369924684435	-0.164685999674444	-1.64390795356461	0.466192764389991	-0.236633218570638	-0.197395496928804	0.00863443358242176	-0.0681126622777388	-0.321426032574743	0.142035042981836	0.633858242044904	0.189809916971529	0.105819916560169	0.87448910429118	2.15808963341608	-0.223411663794489	0.256952764187077	-0.867774450859981	-0.680540558840575	-1.1157491127096	0.0689296690708424	0.566766963983365
"ACTATCTCACCTCGGA-1-33"	-0.0643388781426681	0.10660944213507	3.52801754284738	0.333996197494213	-0.286748049279488	1.33001371562145	-0.140709736903669	0.581845070321305	0.469982914068778	-0.29864923095386	0.158001436539178	-1.65463014262929	1.50057350994516	0.382776714827132	-1.54863760632158	-0.201152773435013	0.0867496360025086	-0.150110345746918	0.190620775516568	-0.36680056668595	0.436142812724258	1.05359093962715	2.17643293828796	-0.380298383001771	0.797372513898861	0.769613586738569	-0.474336893312124	0.566779320672921	0.0302947264561764	1.8452959183598	-0.312104139151389	0.868923659810154	1.25241173451628	1.27553568180036	0.578621061747072	0.181103978765781	0.0342655689822154	0.450790866238087	-0.0742219129507776	0.762472209272589	-0.395680498745757	-0.0365909490554495	-0.0842034005928593	0.782767126339636	0.208829565309975	-0.611110237687924	0.0623893675798339	0.344073433965895	0.366833646462689	-0.874194778696862
"ACTATCTTCGTGGTCG-1-33"	-2.95789916611961	-0.46548393885594	0.0157100311904699	2.3303233577221	0.492047955423847	-0.334736953689191	0.598307624924426	0.289676750550074	0.0979598652052208	1.57775165006652	0.758738027616162	-0.525777876170707	0.633276233278881	2.02038015567566	-0.0829773462189544	0.931068447167508	-0.819465736235001	0.186867687929834	0.428114279041394	-1.56258630157942	0.11040666236114	-0.488342855966904	0.428195526423265	1.03903386324637	0.12872981672878	-0.848340672831367	0.3047467512954	0.244981044735637	0.0259691939664821	1.80309639431177	-0.0750561382008568	0.00919575434645189	0.188812046778655	-1.037332269624	-0.204521536813859	0.228754954501153	-0.115777149787828	0.334986816715673	-0.591562549014663	0.201473397869805	0.600468575400415	0.120986954023476	-0.0602623770282584	0.0455622959421524	-0.0528964826894126	-0.473611127592985	-0.127147137243488	0.343067080429258	-0.61843874027292	0.605891750322031
"ACTGAACGTCATGCAT-1-33"	-3.13723362967052	-0.154043205345087	2.20671549479822	1.80360498108828	-0.477669558430931	-0.332947193161649	1.34299896794927	0.57514446191642	0.472425075106779	-1.42421510074892	-0.0538083482322485	0.126069945822475	0.5748342498031	-0.516995537206846	-0.497559060982714	1.33601410796819	-0.521468452400615	0.00709646211467785	-0.751768156343034	-0.175326280141375	0.575152141976952	0.215255125052989	-0.519581225146172	-0.352488805534306	-0.674738132523812	-0.532565112472156	0.176183802326203	0.423250302938182	0.236680136290031	0.800748279388508	-0.316377332555639	-0.327831908904952	-0.962169545957289	0.532024024857222	-0.390896592938564	0.258323228928363	-0.48884579423823	0.301548294969226	0.135894558019699	-0.370154482876317	0.38599881018934	-0.0138397058297899	-0.603180405893453	0.918439994723425	-1.1083683900133	0.194979431493997	-0.145078405670721	-0.0862334148779095	-0.100750985611938	-0.416308226140171
"ACTGAACTCTAACGGT-1-33"	-2.93026549704283	-0.808001179697843	2.19971504624258	0.605115446307853	0.359575403535471	-3.05765091517316	-1.25354438162648	1.75252074405819	-0.942726583807254	0.852144895340802	0.912750591643212	-0.521093211857508	-0.679907760495801	-1.44292966408365	1.33241084947653	0.891404440933072	0.173991670678816	-1.02020691665203	1.15815266875382	0.50013044355518	-0.24749985256617	-0.839401442660607	-0.728388723944054	-0.549709784127621	-0.983911025956925	0.085341305008619	0.265913923640814	-1.42972885647933	-0.84568055509957	0.385473085503871	-0.420819473256996	0.749653208191832	0.0832928978110533	0.418790820291569	0.689106017730071	0.861127900997283	0.407951652498045	0.548887442773238	0.512108844269249	-1.62641811943302	0.307369366889943	-0.0175718087269209	0.411276429832891	-0.529166323942858	-0.780926635859192	0.258649541303419	0.648316105647576	0.158933679951605	0.327798088407	0.544817175102716
"ACTGATGGTACCGTAT-1-33"	-4.16367791553429	0.741514207181523	0.306726852436381	3.40939453137403	-1.30715668399441	-2.68085906461739	-0.195104690822367	2.27268674675399	0.186415232636568	0.876244299232852	0.428330316851401	-0.275576903554281	1.11167477872909	0.665297643912005	-0.910157086559898	0.514623526847821	-2.07918786786092	2.24236155731572	-1.4182597245609	0.497232724184308	1.9206403887028	-0.307925940802147	-0.295930118156313	0.421792541741885	-0.443468170113912	-0.479645877736033	-1.57590717728346	0.88552184107851	-0.0527107387943771	1.08608607829822	0.465205613204064	0.104375570134975	-1.32013260876722	-0.377050954888628	-0.387688846522989	-1.01226050094611	0.344136960441625	0.923211611156792	-0.352414738801074	0.687119668608153	-0.551746447117089	-0.0267153778033598	0.0808630706745581	0.103693502389812	0.192977697881781	-1.16594735453601	0.0458964146820504	-0.729802965307682	-0.244941448063141	-0.184003531579607
"ACTGATGGTCTAAACC-1-33"	-0.216275897483928	-0.238493997647129	3.27829815005908	1.83809447101567	-1.38586252468601	-2.56081580540188	-2.30796319746094	0.763009703236335	-1.01779759116647	-0.589274470217696	2.85471525395587	-1.38539981536912	-1.40874668398941	0.0977942747986535	-0.807743639042106	0.426330306826234	-0.217638067061741	-1.7059541759211	0.020544979620876	-1.55916363921684	0.88539480914339	0.73281885536485	-0.196321452606027	-0.606460184185844	0.139053022307267	-0.201530176074889	-0.0806806162282381	0.238476461209098	-0.747749059870778	-0.522722706039722	0.0651537957623657	0.571213958812448	0.301650237000711	-1.64224354591171	0.560728386864414	0.294825045356143	0.557181625204573	-1.0489239255972	-0.0943440954311831	0.519663252849675	-0.197248878740136	1.04706333461697	0.97708671937795	-0.472762887699836	0.327596493479568	-0.254097250707762	0.764812265664464	-0.597949863343959	0.465583985867378	0.658178060672885
"ACTTACTCAGCCTTTC-1-33"	3.46074595712879	0.7060865955789	2.21992248346212	1.92231868200281	-1.50288575839763	-0.972669750515848	-3.03170033651206	-0.911742769622754	-0.113793848775367	2.36779120470117	3.3605398284666	2.04827638958349	0.440442282161755	-1.41979541970847	0.659687096775773	-0.851515207216497	-1.71919569778537	0.0800082894331794	2.17935146223453	1.53458142369202	-0.50809657527129	0.0285032986456224	-2.67699118652348	1.03635682292712	0.496379632459185	-0.272374038099786	0.736906032857411	-0.436484766235837	-0.859107739234811	-0.368622269116893	0.740492938693644	-0.276526145591004	0.0448254503168318	-0.987660749927491	0.269604499221659	-0.530826809599481	-0.122789853476263	0.161034253867367	1.66691282824329	-0.529158648706968	-0.667152434922286	1.97388003063951	0.459459985170928	0.517202891364067	0.504576474082118	-0.131425240676067	-0.0754117675444318	-1.01519717320415	0.728601727009013	-1.65098397293761
"ACTTACTGTCAGCTAT-1-33"	-1.49986899016778	-1.29230251100302	0.978544409042685	1.33760799773153	0.44390439214916	2.29597305009969	-0.881675800082555	3.10848347895688	1.17668218490045	-1.88074808075847	0.525782066231309	1.24888607505532	-0.359559782222481	-0.893398565730745	0.233460492142873	-1.05558800157411	0.452227906637637	-0.655418145966609	-0.594445291687786	-0.611039751648114	0.0406071951021329	-0.420312924137536	-0.322980551275181	0.926748247199568	0.0362571758079458	-0.328264344936016	-0.767605228807291	0.20537996131827	-0.108471906667556	0.985158334983238	0.174037195211698	0.431041945026444	0.924821704100457	0.355285855762634	-0.678004806259693	-0.531664753417928	-0.738637639921345	-0.258117133853817	-0.953092206109095	-0.00424858201691893	-0.578198764643907	0.358243219675775	0.37890527792601	-0.043048891997957	-0.819507309997817	0.483671963901151	0.170111485456	0.209890100149499	0.208864601548494	0.28060646877486
"ACTTGTTGTTTGACTG-1-33"	-2.16308458409422	-0.88599234594017	2.08882017102947	0.197064420130349	0.260951757351685	-0.244481696670035	0.831814141051699	3.472984170879	1.06389955631292	-0.854248892968506	1.17324584632465	0.955286933607026	-0.584609650403204	-0.129795674989423	0.813715312868482	-0.433821054216292	0.283826237135179	-0.100730421389834	0.28821447519419	0.0838446774489898	-1.24642259088169	-0.696911028207347	0.914856358099269	-0.662273228177258	-0.940516568600036	-0.255439098685997	0.17946459139716	-1.15975025862583	0.297550039808276	1.13627632107641	0.81339694823454	-0.0143619977775913	0.0454548896704043	0.158713316286082	0.597707209080782	0.00926015001619135	-0.91991065864025	-0.553472213569287	-0.58599656433332	-0.674642380154766	0.00400150472854358	0.307738140426969	0.603098251142956	-0.301273657930063	-0.542535938924607	0.688626744259665	0.333034844611308	0.744625588960446	-0.141253658883444	-0.402353488989569
"ACTTTCATCTCGAGTA-1-33"	-0.557425079063657	1.55060410261301	3.3646640216605	-0.704726976262695	1.46548762066116	3.24244732439551	-1.70654333639708	0.620974983136199	-1.21848073430211	-2.6344953089758	0.209567991769215	1.69859071832522	0.579710794815382	0.011913241870234	0.407701230380027	-1.06903266544381	0.826674393394472	1.05374845926588	-0.189821323663927	0.421148473217196	-1.85753161489154	-1.46045187421727	0.536360931931426	1.17803337993102	-0.0332170694458289	0.903559996483668	-1.05616495631691	-0.278706117518524	0.266140385696345	-0.324993192434418	-1.67432247041133	-0.874098143673134	-0.100265343274342	0.58765296597895	-1.13022412050855	0.790320367833544	-0.22119225116005	-0.567886013930025	-0.998506626219826	-0.988939920213858	0.88492154400009	-0.774775983833832	-0.709036887125204	0.467326567549022	-0.520372679358849	-0.156977349847719	0.499727739823685	0.262326049627224	-0.249559172394973	-0.183202672738711
"AGAATAGCACCTCGGA-1-33"	1.45213954627432	0.168594253690769	5.42740035066528	0.0043324547920398	0.416000419779462	2.97786502230165	0.218966260462797	0.496271798048973	1.40804810832903	1.28063331409137	0.817958662043023	0.855043631305861	1.56239922233279	0.634249707799254	0.422722989371695	2.33781044584248	0.0632099435246179	0.601096008144852	-0.0310341196136639	0.505035544988973	1.03688259026981	-0.908313765102078	0.902331833745303	1.08545682484895	-0.367751637277184	0.0314818886603703	0.053927577068813	0.451389407622352	0.258256075463548	0.53614925716646	1.4172332800201	-0.993277421707756	-0.0419429080681205	0.0422837403379682	-0.449790945989768	-0.276589811810211	-0.351197613969142	-0.947769067025168	0.973796727018479	-1.14324480793106	0.561296983820531	-0.135517591194235	0.871696515858688	0.354688386760901	1.2333807992769	0.545547403988958	0.00420762227903828	0.0100965526498776	0.216155603762144	0.868394077966127
"AGAATAGGTTGGTGGA-1-33"	-0.524474847707294	-1.97168123749727	-1.94655653651916	1.35420301814587	-1.77709695817842	0.648620868163418	-0.421636332348447	0.20454823895418	-0.464942283002599	0.680968724833115	-1.43698569519301	1.7261179590486	-1.6570007376114	0.35091472442761	-0.739128108672406	0.0463063009213877	-0.463041187754973	-0.0928162713347808	1.65397602833594	-0.643820402732939	-0.993464692993213	0.401174992449671	-0.377902033346168	0.0978977607535859	0.0787485017292306	0.39848244850769	0.43144730008142	1.51392465865456	0.616573479400057	-0.0386038682706821	-0.270514253525781	-0.30504899348624	-1.266237539137	0.232640675564653	-0.130890765477402	0.180781704049223	-0.323105360528571	-0.769494249176721	0.53122941715749	0.4696431927128	0.428962964412005	0.21415568391132	0.11705543576071	-0.542489246867658	-0.219222917652346	-0.293580172599543	-0.199501153911039	0.541647362155658	0.301161404742177	1.14813146210267
"AGACGTTCACCGCTAG-1-33"	-2.96816085508674	0.728912177504706	1.81904925110739	2.81759836297315	-0.845637217971738	-0.842939077463914	0.399735148423201	-0.572862586713948	-0.968108584139809	2.01284548795815	-0.729293755835814	0.558493536591098	-0.208775262899169	0.255466689411463	-0.043225663951	-0.528732172885899	0.503189724944469	-0.4099262459083	-1.61577699524096	-0.241414287335589	-1.10228469264491	-0.375718789798941	0.72010362528396	-0.962897975120552	0.822629418380565	0.20888105526351	-0.930465038528785	0.163567639936916	0.38953966853098	-0.0782733119040318	-0.943505887267754	0.610384697101044	-0.505812530486959	-0.270866404600089	-0.563246549376428	-0.199220340564701	1.05655094551378	-0.0482300478038368	0.387509446275706	-0.373530512450994	-0.0428209953164561	-0.529782554207975	0.0200000618483642	0.0508386751577351	-0.059284052258583	-0.504313416203405	-0.71286163227436	-0.508970462359372	-0.237196278493134	-0.370149746337523
"AGACGTTCACGTAAGG-1-33"	-2.09845038046291	-0.98950253560279	2.95843151997914	0.777340897794568	0.35563673134289	-0.521898970570234	-0.36957382166115	0.572901301490077	-0.130620169159455	-1.17279016424494	0.949143816114598	-0.0485848781422801	1.05621591711534	1.07478306143326	0.0604820976075179	-1.02781642960927	0.373485660000438	1.22448516222156	0.660146361367223	0.379147364513214	0.573525135426296	0.249037492617305	0.102255599941904	1.63235409973937	-0.545217544873195	-1.12508515278574	0.312161113131719	0.639876109821327	0.733590201603579	-1.29936604960426	-0.346558249954866	-1.52958547799742	-1.26635968958746	-0.33880142156859	0.0472796161788197	-0.0215186814540305	-0.531505532826069	-0.217017534650129	0.173961799283806	-0.57436058897122	0.519852099857486	1.26063427286892	0.0702322054017104	-0.0988058046859169	-1.57541516047049	0.0914493166989517	-0.0387915739320314	-0.657776449229782	0.725751254157835	0.433149078611355
"AGACGTTGTAGGCTGA-1-33"	2.79848409807789	-0.437775950728052	-0.221668952859811	3.2485212298492	-1.21417166297371	4.01085621263027	0.606658976272214	-0.024955368415462	2.4135493805589	1.20574278382525	2.05037524353243	-2.70816334709283	-1.2848546182836	-0.806675054034077	1.17446722851864	-1.44912719609614	0.437954410031256	-2.55046050754264	3.59347979274621	-0.564309722546323	-0.812026446234995	-2.2950676862425	-0.152280677315116	-0.439205573862589	-2.05996365627392	0.98210399554447	-0.306173102289389	-0.0203365702341032	-1.85903689801581	1.07259725566317	1.37951414462722	0.527090682090009	0.0917159739950524	0.505158934798365	1.84217717091681	-0.167166045610129	1.33185035653639	-0.203536763570769	0.0535170658699443	-0.697292369815868	-0.729030094086047	0.438323738653581	-1.27648734481515	0.262995095308447	0.85576249136007	0.02915163873868	0.256063822454966	-0.820882538519433	-0.697497079641825	1.16334775302699
"AGAGCTTAGCGATGAC-1-33"	-2.71708209368745	0.0994929296625049	-0.797120989585826	3.82552261457113	-0.644972950363571	0.168857969028793	0.0565206685886187	-0.773278885632827	-1.09416913939745	2.88361354185439	0.140748996571423	-1.45234837332809	1.15726995668979	0.253576503655414	-0.419575037397598	-0.327749378742312	-0.72490213423132	0.418013799127497	0.311474711979761	-1.31348046386549	1.03920206410121	-0.215096781562251	0.844029893863182	0.63605041845116	0.469081190267592	0.422717032309845	-0.702465465171129	0.164333656827805	-1.65001647440814	1.68192145338032	0.906632810262895	0.598971163399067	-0.263047974298804	0.205121241191089	0.431811894262631	1.23061901459652	-0.721842750653353	-0.11709342962573	-0.394577611503196	-0.482600142943775	1.04885733384606	0.238696284308442	-0.128310163871354	0.119991956628559	-0.00716993271239558	0.413655257379663	0.580558300325797	-1.63269851066266	-0.0297639027051643	-0.221901834511099
"AGAGCTTGTGTGAAAT-1-33"	0.686782653414742	-1.32711833573946	-0.00578039590479113	1.91717112152355	-1.11408759266064	1.05464690976307	-0.542483537948081	3.08419045698226	3.05489886698122	0.603822287970141	0.634993342064181	0.00728064863227784	-1.26826876554753	1.11112815914898	1.53148641920059	-0.481447722065244	-1.17641744118106	-1.45210135693057	0.706451797187997	0.453122574354386	0.876709258727122	-1.28595380302888	-0.978166389580379	-2.06320227572356	-1.26600410637241	-0.228800461099264	0.428440902727803	-0.379229364395563	-0.0685474939144028	0.9692122645483	0.736239653794627	0.197551276451252	-1.59898910952528	1.25497562795732	-0.38385867135353	-1.22773945543306	-0.467736527503614	0.378221996979479	-0.0567330263077572	-1.0036212356903	0.81311191898996	1.07632755700272	-0.689093690028841	0.860832149986062	-1.58267271855113	-0.13483463195597	0.170104470998242	1.66646725278909	0.758930013839325	-1.53960179898778
"AGATCTGAGAGAGCTC-1-33"	-0.519869594905405	1.07903409102443	4.66614100674182	0.492911988502613	0.391238253490352	1.96249590136417	0.336349678397513	-1.59641906519953	-3.54192730738766	-1.5222451477692	-0.97939540178585	-0.898750384882321	-0.527785630325915	0.320130539557301	-2.09724264066772	-1.29985259708429	0.0931442822949387	1.49711812512978	-0.248395192574325	-1.76868961601592	-1.09663803785783	-0.607851301684135	-0.650865360853755	-0.761995207599293	-1.6233422816284	1.71664113156387	0.645440954382982	-1.62316568503896	0.339792371778236	1.28474337284018	-1.563607850783	-0.725679628205665	1.12166839048865	-1.2875153252681	0.994234314194563	-0.44968298715246	1.6232581310564	1.18942964746569	0.828063355266968	-0.823049130446583	-1.19817490780641	-0.838208534964625	1.21682285435236	0.0139387444802095	1.53087031552346	-1.04587523962201	-0.911012385022552	0.566007795760613	-0.249901764343216	-0.740492752448716
"AGATCTGAGAGGGCTT-1-33"	-1.65044873450989	0.0738790939040155	0.0804470326736927	0.880309804101726	0.853850330285031	1.94662468875139	0.826466843763775	0.227737783921171	0.861780568045978	0.821068051124417	0.416748107265785	0.943760127424717	1.11997575525857	2.00449223672531	0.528089469138418	-0.134793355722733	-0.161816463349724	-0.804581969196853	0.0601705735321233	0.348773321220533	-1.06885717773445	-0.11789551262614	0.501608876866491	0.224174780814181	-0.311777699152019	1.57212883395036	0.633172029938235	1.13439847949734	-0.992159335013235	-0.984797746507687	-0.509842345688434	-0.454996071655949	-0.42529096907627	0.76739517351347	0.179740821876055	0.334949310061469	0.476041289011283	-0.755773916026941	0.00367902645366795	-0.869287166609261	0.376461568462858	-0.306211070269017	-0.212425360341898	-0.701599144104947	-0.866136312809319	-0.685571541379781	0.417805609985323	0.00210602963461395	0.415301404299925	0.306085758296922
"AGATCTGGTGGTTTCA-1-33"	-2.14871541932628	-0.918396443019961	0.310777210218307	2.55449868771081	0.339486730623943	-1.010096294339	-0.77643492503882	0.0492899384691792	-0.757004409628924	2.93819424217647	-0.415259205503758	1.67456887222222	1.26952336189082	-1.95769515111222	-0.423358347673274	0.103024779519171	-0.802958392400758	-1.26438189811805	-1.24509178880625	0.821371937251503	-0.54867876859963	0.755217429822667	-1.2657942386998	0.0842077024566985	0.251939447316141	0.627285897348057	-0.0160348894153835	0.354488683620773	-0.288617048326136	0.672982038878832	0.584451884773911	0.128657794123799	-0.53307825512025	0.58674546800567	-0.13127767445575	-0.221687687748645	0.422387582684909	0.0696739195159288	-0.45604855281964	-0.419040551927115	0.0953159151855337	0.409851966029228	0.899059419919431	-0.288399482573905	-1.00066181204252	-0.749606393259384	-0.0576896221234655	0.729574204155586	-0.435485712807277	-1.47185808480272
"AGATCTGTCTGTTTGT-1-33"	-4.01880452792161	-1.11915591075401	-3.38287597936908	1.63944162589483	0.331589889638319	-0.916809305531582	-1.79083106328042	0.401374231428129	-0.208628094244297	0.526284694125014	0.00606020686127202	-1.13884333096217	0.874046129958093	1.88564525222434	-1.04930739734487	1.34569292656749	-1.92784017831649	-0.0302886660873443	0.14418092224753	-0.822120383495423	0.667918606231578	0.617171459612695	0.973806462653901	-0.0346041052900152	0.371801911476192	-0.254359560855716	0.00163498251638946	1.02776235133436	0.0279516377187472	-0.94559431405011	0.270416920594495	0.990062400287615	-0.61687199149103	0.22002972594912	0.129397037894414	0.147813212291394	-0.0239857286317181	0.166984424985607	-0.450804760288073	-0.395600814188095	1.25945995229622	-0.842132394132211	0.138483251959204	-0.617750345639461	0.27242223262432	0.413034733791668	0.261059553457821	-0.320391740947942	-0.541674877459527	0.291688119255727
"AGATTGCTCCTATTCA-1-33"	-2.43574397746607	-1.46331086336232	-0.245827963271346	2.32897707167225	0.122032417164023	0.663506290893645	-2.23621096381501	2.91004862831279	0.163573388884953	-0.908956701926014	0.903754692119247	1.09031980604105	0.761237726438506	-0.174102553819261	-0.748472371392746	-1.85577327206131	-0.0889367136969489	0.0298205795134231	-0.00134796267283033	-0.749573771650517	1.02074444323636	-0.50548960270693	-1.14000607016702	-0.502480511796967	-0.0898794590313345	-0.686264115421344	-0.366506426401453	0.232472849498704	0.248579368158405	0.318454287065457	0.323888278572847	-0.242096932564961	-0.302197024513307	-0.0201527544259975	-0.107114168566726	0.303212978647213	-0.495215328533182	-0.0894595178623089	0.0492367569534459	-0.489994163762922	-0.0394621742048515	0.0759097928558035	0.309886087272681	-0.0399610937775897	-0.637711045656579	-1.10473934439542	0.421203484543707	-0.0037196495036415	0.22947250336746	1.79193064046566e-05
"AGCAGCCGTTCCGGCA-1-33"	0.750193780978273	-0.13817461448737	3.30005449358885	2.43107314742014	-2.10979607426682	0.548575122918825	1.16733991638799	1.28101862574572	1.08508674790062	0.690026053397472	2.06709826680899	0.854952038297814	-1.84974012008058	-1.62484979843854	0.161696899523473	0.460123537592401	2.2128621962903	-1.37459925144096	0.598913080862958	-1.52546365385062	0.551041627831882	-0.174636712582103	0.797413693018646	-0.133763099293646	0.578206645112399	-0.30248325320006	-1.0117620595855	-0.827263844619641	-0.463137402430717	0.265171624264235	-0.280874015327362	0.224823596036102	-0.525019396146155	0.503813590870259	0.652480546922906	-0.220513186957027	0.214985563568554	-0.529786851202744	0.02051436543086	0.687265766757511	0.200466139058343	0.182547350891061	-0.00278985424405831	0.301441377385412	0.130338787076615	0.0579644320601204	1.27436726924846	-0.590609713929014	-0.275450343772437	0.195798524703089
"AGCAGCCTCTCGTTTA-1-33"	-1.49402654199923	-0.0240120415818597	0.735477266691889	2.45662077331456	0.623637158357327	3.10357904638424	2.22180211097923	-0.726985434417155	0.0572691166902814	-1.66762275133689	-1.75330525689202	-0.247339873182555	-3.00409223971899	0.352245948008964	0.471547249734449	1.33899581759616	0.517610304356659	-0.674244553245129	0.0462036413991574	-0.324247953114758	0.352302224154433	-0.106091612204216	0.391143216431376	1.34789101142404	-0.827732461274331	-1.32802735347153	1.15305329138272	-0.478431360462341	-0.440183229251303	-0.220523480762357	0.731131594732736	0.968679385928857	0.924330043352147	-0.0350315234687344	0.192739783103784	-0.776880921713952	-0.85169783812322	-0.0936487158855821	-0.371957077186788	0.250468846815715	-0.0495731357680417	0.440665569112136	0.626939336194537	-0.393186353895323	-0.378503319738553	0.145689632954627	-0.582755470027053	-0.567782423303762	0.404107670293469	1.03660192557356
"AGCCTAAAGGGATACC-1-33"	-0.242925982667651	0.640335319825433	3.01791131687032	3.48249465118902	-2.43095177084634	-1.19331554204334	-0.868482634749815	2.03530828243565	0.561663156978175	0.737520457880878	1.56825864977754	-1.95002015719054	0.219277778810485	1.14734848956202	-1.61870100893765	-0.824614257458267	1.10771507826708	-0.236937988901204	-0.376469265648099	-0.0412452312089327	0.833036439775944	0.429793228073059	0.956213125310787	0.65565273640006	-0.0300138301941168	0.00489435975223565	0.187289777538461	-0.20880821246966	0.571591748864108	-0.936815297981055	0.429789801313714	-0.643301675127749	-0.101170521391041	-0.0640716936944795	0.718946049457073	-0.207875626531026	-0.375532617839245	-0.870081307303602	-0.326963505495739	-0.0996202446391077	-0.102638725335516	-0.84058684059238	-0.320965309911511	0.612908066916966	-0.577117165222879	0.265919608401738	0.48732323209572	0.0424100881102434	0.424276634554794	0.424048879122872
"AGCCTAAGTGCGGTAA-1-33"	-1.41216655275966	-0.774316956497743	0.691205322038538	0.564212195765339	0.773766782876825	1.82632249902812	1.63548772588478	-0.294222767833291	2.15130121443042	-0.759265754360852	-0.230631740097845	1.42536196714839	1.1355404438464	0.0727230087230955	0.387054747457824	-0.843404456282838	-1.05863263119784	-0.764653819462318	-0.220250003374987	-1.9077339251266	1.38021045279004	-1.02234681296141	-0.8797206861806	0.737779536138401	-0.561450525010843	0.634851894650739	0.0384727337757382	-0.710004326293023	0.61629513313834	0.974481458507596	-0.259074361030875	-0.588563859470772	-0.461715971312936	-0.0752575073335894	-0.462568562065942	0.093832138364591	-0.728868037958449	-1.06655053755921	-0.516308077977207	-0.792467910694614	-0.188652097690346	0.397137281709956	1.06048563177487	-0.0343910255969055	-0.191034452684455	0.916231772484202	-0.651222177966366	0.446383553496296	-0.268055491055532	-0.28468056218238
"AGCGGTCTCGGCATCG-1-33"	-0.613473768047776	-0.734707969140572	0.390260734428657	1.62062456584895	-0.431987118324158	0.48992855639347	1.21772315676636	-2.05520117138646	-0.808376243460925	1.37607075794742	-1.16372541821137	2.28146977388214	-1.45690779129041	0.719902417702171	-1.0717660870309	-0.478115037916023	-0.947875027605034	-0.846136065443693	0.578200801787472	-0.873662550266934	-0.779028933987566	0.651043863815597	-1.47704916473441	0.766400941643774	0.0480283145105016	-0.784496840118765	-2.30713742497539	-0.607478451633589	-0.190233384961742	0.458956982061768	0.791021652910205	-0.150357440342389	-0.498890379867137	0.47209023327668	-2.0425556822504	-1.39631176139878	0.272366360309325	0.276349077716082	-1.3833876395035	-0.443485238366475	-1.61929193901675	0.339215495880271	-0.755637128758378	-0.362208535704373	-0.199824248562843	0.772869092171134	0.245415332273239	0.707922028459706	0.840256188233313	0.559585229446787
"AGCGTATAGACATAAC-1-33"	-4.11428650465963	0.252105379613952	-0.535156143716468	1.90306510303343	0.137079984778568	-0.819789215616798	-2.75197979727156	0.289535058816832	-1.33068806493411	-1.4267777943614	0.081645111201505	-0.0057096853763104	-1.29737339310652	1.99917000614867	-0.184836888939423	0.94760690853131	-0.470203548474782	2.33097653695804	-0.225026467335864	1.25537872510547	-0.774061995813121	0.744795132375678	0.536599153043572	0.809470326001923	0.00749852502966223	0.528089381256371	-0.466997932670257	0.782194384585119	-0.286311818312051	-0.244165248224724	-0.555271737169991	0.333395612695529	-0.923574342739646	0.307316005278276	-0.560578870949113	-0.190775841263641	0.500160765039944	-0.195654864884256	0.32708036759181	-0.612810419926871	0.558467652857666	-0.423012908665594	-0.0727947462091964	-0.684700051936911	0.108547206040185	0.0453008514725271	0.577931610733301	0.739176441221344	-0.632524920560281	0.701555158102388
"AGCGTCGCAGCTCCGA-1-33"	-0.409216456293444	0.889780183352769	2.98573998813336	2.28499459051218	-0.672045636198725	-0.666553632683541	0.901267706783755	-0.941601306876547	2.32935781230231	-1.87060708540254	0.933116140294771	-1.46609682590608	-2.47528821850018	0.149053251609359	-0.184394730742036	-0.736392123027064	1.77409102828758	-0.607648046487066	0.801838967220336	0.843547752610978	0.862146881796447	1.11192057070501	1.1067597121169	-0.293391049961127	0.252838960878915	0.358659011578834	0.378673727648587	-0.262038820830112	-0.203381245152157	-0.0295975501025582	2.43303268307412	0.243904653792527	0.75892214545994	-0.798648561200026	-0.38553971817674	0.657849447184955	-0.312514416620554	0.333740190530093	-1.75679457146579	-0.642729663189327	0.858551862838759	-0.0385636155583056	-0.802199830569804	-0.851062900448574	0.590188439368774	-0.61393649765466	0.475936230731184	0.723518585775966	-0.213616506039722	-0.524658140856684
"AGCTCCTTCTGAAAGA-1-33"	-3.35762074019767	-0.684589398322582	-1.88803571821581	3.49919585152027	0.0726720419901127	-1.12573649840721	-1.55093582194446	1.74818028649373	0.52549645366819	1.02697685339226	0.22137212595012	1.88669163971575	-0.0482912634651393	0.756053922100428	0.49545605189013	1.14487459556082	1.07206223878463	-0.0683926111985007	-0.426996098766598	1.44731877540375	-0.355055935767769	0.146395109416413	0.517461896797394	0.470313085308297	1.09780260116452	-0.0107937258550524	-0.708489627284991	-0.55288363008308	0.0518785369870494	0.307122996841119	0.636436584659048	-0.0917717770608978	-0.521860881806718	-1.13726136165638	-0.0121831338536782	0.222115179456205	0.472424468634359	0.413426690161894	0.158374680680249	-0.838623343025181	-0.520912984108766	-0.40991461231798	0.362807749505412	-0.767118522692513	0.301710181342568	-0.181017670737122	0.336670791187954	-0.0197776719457351	0.041062387772832	0.000403450914760411
"AGGGAGTCACAGGTTT-1-33"	0.925087837902384	-0.995909949421292	0.618622890853227	2.45290794113582	-0.509665140928138	0.300433945984635	-1.98995632673	2.04420217746464	-3.47107657963852	2.09202380653712	-1.09985341159291	-0.122843998058812	-0.479836893449828	0.253244953554173	-0.800375571139001	-1.10501583237159	-0.217968043056375	-0.219599785223614	2.26576758173586	2.03916046161934	-0.0857170994592355	-1.887668693513	-3.08222822881185	0.389760123517509	-0.00984743813456549	-0.569141469620611	-1.31740548572888	1.34809481303654	-0.423648920611514	0.0908835206359338	1.12397434279195	-0.907365362368654	-1.64244882882994	-0.28906258563242	-0.271122171038806	-0.295790632127961	-0.414107766332782	-0.0606112302043666	-1.07023636283953	0.86557349544176	-0.883312812558682	0.580193217390546	0.0918553931602184	-0.837704707786957	1.18186487653985	-0.131574098503258	-0.035281501009861	0.00761067771571769	0.179893245489304	0.914520678985192
"AGGGAGTCATCTGGTA-1-33"	-1.929258726394	0.836002457555885	2.39769551230108	1.79818471373626	-0.220897817738947	2.95867750022237	0.997559337678403	0.141127430526799	0.13968643775991	-2.52251379833894	-0.433252920527096	1.07442433850494	-1.63227887769812	-0.677483721851924	-0.519305816889236	-0.431721380130088	-0.786880382849715	-0.694073199343178	-1.29830963745812	0.181110323541114	-0.0837483723930447	-0.777308613158439	-0.0263503883336121	0.6735194286202	-1.52262753352753	-0.891238091765998	-1.10508352074487	-0.21948879559652	-0.780099570509446	0.015160785210183	0.0834028781487004	0.830908959577757	0.193385235868988	0.963692333688884	0.105136479561341	0.29323380173308	-0.456870643113188	-0.069061254411986	1.3081539909192	-0.184026044909965	-0.902932282880338	1.14343851161912	0.840396413542386	-0.253291612406952	-0.459280815054064	0.384665031490594	-1.02932078109394	-0.570513608925157	0.113625720366666	-0.808758375979466
"AGGGAGTTCAATACCG-1-33"	2.64854992373625	2.8377862863595	3.62042783467685	0.846724541907308	-3.84719211889357	-2.12794803665641	-2.96955393612509	-2.70223974178354	2.56307117735883	-2.98283639996443	-2.10524489285883	-1.1896779949359	-1.41845932825433	-0.183050808936832	0.0367497842576534	0.365268796245455	0.247549310867917	-1.03589830863517	0.829324656920489	0.0724656265202717	-0.0537205189563207	-0.534956506707549	0.174355245165891	-1.58016790326537	0.133027403837801	0.0512895708592061	-0.119484556318082	-0.383112985351767	0.25448056957872	-0.550019615551483	-1.1301659492558	-0.179935073382958	-0.35457138521329	-0.402102097932825	-0.00275659108029759	-0.510285949728444	0.451680347619483	0.667857638361596	-1.91132607287035	-0.503850666833541	0.668587168938691	-1.40451114703468	0.837907241446393	0.0032384876250888	-0.675534263009126	-0.56426135171962	-0.794177661096408	-0.451514220876795	-0.22596903476836	0.0963550095552649
"AGGGATGGTCGAAAGC-1-33"	-1.68204647876043	-0.243762548513793	-1.30660187192834	3.57017422868222	-2.2622030488356	-0.318049089589157	-0.498763842154051	-2.34442537807667	0.422951002106756	1.62551152121967	-2.05825931565398	-1.43876802895412	0.78355973333095	1.10658893265277	0.535199194927077	0.637619444853306	0.410543967077027	-1.09120028208041	-1.50107325574815	-0.246967805613154	0.406702157488398	0.563504149943678	0.215997134739456	1.37498896205121	1.25938404401043	0.274468638822161	-0.36070557282	-0.95717732617239	0.714908301211701	1.35077236760213	0.378818442637062	0.181027309959458	-0.440895560980123	-1.00116903067391	0.884182310664629	-0.120913953147104	0.511077578894081	-0.215916015079961	-0.138465455453551	1.07815030186986	-0.529182980154463	-0.214224587420799	-0.275318657445728	-1.0329256570226	0.709568682742341	-0.40746757046744	0.537957346083203	-0.676840535151186	-0.221572379243417	-0.584993632553624
"AGGGTGAAGAGTAAGG-1-33"	4.51646001798866	2.3328781135377	2.41408596644726	0.804201255723057	-2.75454584205683	2.19693012989488	-3.63009420262577	-0.0870553481370592	-0.0461847491280249	-0.653549001680224	0.959344289334544	-2.32470633215968	-2.16649517961296	0.663585399326993	-0.472479004971146	0.591497100938229	-1.80864044213746	-1.68335240783003	0.65433343359243	-0.407131474748475	-0.830451211973959	1.83294283854372	-0.529301367472517	-1.82734045621687	-0.344658140515642	1.2740154102812	0.324207174871505	-0.37919062232875	1.28625657444261	-0.272531173416307	-0.515889599044503	0.956924029045084	-0.294981419114972	-1.11386601055036	0.737336633669038	-1.16046088641686	-0.130858270124373	2.15891259164906	-1.92594744619745	0.422576564771875	-0.400344425043066	1.09086753707966	0.319889508639783	-0.244661593314285	-1.5972512224394	-0.49990008533339	-1.05559140977448	-1.1857149997211	-0.935111848913535	0.900025089622011
"AGGGTGATCCTCCTAG-1-33"	-3.57789657638931	0.231791509809575	1.47513533465144	-0.09916059086771	0.481286323683761	-0.699037451519786	0.388534434638319	-0.508591510663379	-2.27363685187885	-0.617261829511087	0.860089866707596	-0.519119238243347	-1.57819259524466	0.918356210984562	0.507219200307908	-0.553671719771602	1.08137842463519	1.00728214754451	0.566366598218703	0.215371306179293	0.278644686303266	-0.354445979427764	0.583121721098288	0.119252752848365	-0.0286189704163788	-0.936152339364563	-0.159535587446216	-0.371377472545331	0.00798839025746812	0.511457248303122	-0.303546072777292	-0.0056769593820642	-0.231451255721114	-0.392083238443732	0.456150371453561	0.0732411296472393	-0.0605934688401009	0.302020049157121	-0.703203572952649	0.191018639007312	-0.119439921857287	0.831975272985095	-0.686260255893176	-0.0348684245141157	0.0675569855120294	0.303225443751339	0.0390714607733639	-0.342226030256841	-0.48571961792103	0.218648410732525
"AGGTCCGAGAGTTGGC-1-33"	-0.312435543439825	1.49684843482706	3.85197146322024	2.11534991290508	-0.554004396365451	0.311225416600843	0.661134623281888	-0.484941826815137	-1.04845612857287	1.74295512651921	-0.624336804103191	1.24449857348371	0.911478949959353	-1.89504991099074	-0.573614337661088	-0.392477847317239	1.94345553250593	0.0839959746992119	-1.61373453853039	-0.894074974074137	0.181290927295433	0.312752392596676	0.563874953571236	-1.11612841093297	-0.547368374789086	0.379894870486426	-0.30795673971308	0.0264126943263333	-0.866080796426878	-0.561338997040382	-0.531515697929887	0.0552555911473324	0.449064885493087	-0.238270966250366	-0.385115186541624	-0.442578232094226	-0.671082398327556	0.297511030142721	-0.0874089157067586	0.599179859105929	-1.06812466893098	0.816849225126578	-0.339897428689887	0.139974092815085	0.319120214209086	-0.274509018229723	-0.333756823989214	0.182824190083819	-0.101400167145731	-0.0489386963973945
"AGTGTCAGTTTCGCTC-1-33"	-0.795202475995045	-1.07381262606159	2.6226842467144	2.93298342705521	-1.14502389414584	-2.02743611627751	1.02181992230679	0.821615967295852	0.945420508174402	3.05435084831619	0.803232005159223	1.38281785510857	-1.45756999606296	0.408174081193718	-0.304361001850908	-1.48773792631516	0.764272565972474	-0.428049659245675	0.0775842703052808	0.194701064013282	-0.015856757964646	-0.933914190203515	-0.749112851800011	0.0204520938259725	0.594558907602021	-1.54689105930599	1.00759124882968	-2.09645167511364	-0.587027395452475	0.85553857369994	-0.588204676358989	0.373717938393438	-0.269189491347936	0.289153902584053	0.318488463481646	0.852450506561371	0.334693457930432	-0.651288012423806	-0.869592041267483	0.304998483265863	0.603460921607409	-0.487734992394403	-0.832161039261634	0.4161323875118	0.300753849266797	0.0203581323690639	0.44290410976722	0.669903394264554	0.931135704499501	-0.0152604924053695
"AGTTGGTCAGACAAAT-1-33"	0.637657117322655	0.627691983985592	3.24425526322862	0.916284492157485	-0.87274409046404	0.82410168275298	-0.573354780218155	1.87946416827671	-0.557777927557191	-0.819548753402748	0.748707610468048	-1.02231371797963	1.0414075861598	2.22619738969392	-0.813548121752184	0.560379536531023	-0.736406339749338	0.470088385794711	0.164904720103727	-2.07649854911425	1.47656109364794	0.233257038241716	0.8341065569135	0.936676570030505	-1.45042299525771	-0.945273687935258	-0.67366849244512	0.814796104097376	0.523364479463483	1.46742163114173	0.974319963237258	0.205965396258367	-0.291111644066768	0.285241384282638	-0.701287599444223	0.309847967673384	-0.0697718116475179	-0.4268791634573	0.267332723349471	-0.132324400021663	1.04731258253372	1.04518235734512	-1.09470969256235	-0.399106492186508	-1.15053532983893	-0.520640304844381	-0.435431936297562	0.148207957975976	0.313191926373651	0.178734015678812
"AGTTGGTTCTGCCAGG-1-33"	-2.91812405758522	-0.823914319775958	-2.1782289143541	2.78885222336521	-1.62965312176638	0.603701951975252	1.22938366534065	0.487592641368093	0.859859931127845	0.42508025665507	1.73003480157873	1.3396734587017	-0.0656717176875058	0.986966140622841	-0.210905004665752	-1.11871966807452	-0.120006334434484	1.10634969163152	0.918841165716634	-0.607199715063124	0.31453655167957	-0.609917123163565	-0.0324575415049441	-1.05694625707823	0.763466402059749	-0.324453061051968	0.9611003541822	1.00109858559959	-0.00357101193723795	-0.931844310820461	-0.875340520948402	0.0398552836253944	-0.191211544856788	0.425288157416486	-0.375843101340062	0.723034495266888	0.485242867386439	0.395934271983078	0.715419366802258	0.260034924436533	0.822563581123166	-0.609401206006043	0.0360170974431754	0.351406602091681	0.276203977979071	-0.251766085871432	0.911316686890467	-0.20306474434301	1.15435550903181	0.0428362560761003
"ATAACGCGTTTAAGCC-1-33"	-0.331182852225962	-0.309726508244164	-1.93056039168721	2.13055418131421	-0.371653734093385	2.94342491326605	-2.63841104481065	2.06537357871261	0.668451790898536	-1.52902163615396	0.18144221738163	1.391165245501	-0.50813710294629	-1.35468713017652	0.0191428187242002	-0.972439810848887	0.638338414873821	-1.04094695000314	-0.319659890931328	-0.165070993712915	0.984049391475319	-0.415953785845959	-1.0073355608208	-0.916879227399408	1.38798860870896	0.806496124223279	-0.224021669012978	-0.424421777606679	1.18139868641999	-0.471726586569376	-0.272823298756734	0.323045223919848	-0.311463475019187	-0.313681379766604	-0.546870699199163	0.280524792940426	0.652124022399156	0.590102783882506	0.38638342736295	0.843486361016522	-0.0815426485276984	-1.0376931816612	0.21886623575053	0.130312310995688	1.57788708512348	0.426555322192019	-0.337556967543817	0.37777718077773	-0.667371715886321	-0.0487081850619745
"ATAAGAGAGGGTCGAT-1-33"	-1.16472153517556	-1.47237105887394	-1.72751539981153	1.69629995042964	0.0961763087574571	2.23377365301132	0.271345058503821	1.35680238446602	2.24274113547813	2.0648638017355	-0.203806609094273	1.37526998811449	1.27136836849581	0.229566689138649	0.677833762727972	-1.0309680367253	-0.413781116017656	0.870856602801015	1.72554670943823	0.307752178057886	0.18200551013509	-0.201424115136858	0.0268169269030293	-0.266674705475908	-0.511508281282392	-0.978965778077811	0.510929395741586	-0.899458795678493	-1.09742601478173	-0.0284103976457095	-0.50118397598467	0.289249161648433	-0.173413434703834	0.211227223118295	-0.149175757435282	-0.579952396201806	0.766025450460277	-0.119551715786752	-0.126354611596634	0.0606505207139717	-0.870672527664434	1.37943455970991	0.7721098834473	-0.522016724041971	0.0137404658266215	-0.319677899354258	0.863019375051867	0.249441417746339	0.470394764417739	-0.330282554120565
"ATCACGAGTCCAGTTA-1-33"	1.30491278968124	0.846103373574018	2.69998487104555	2.66989303841285	-0.119673817884662	3.10459029860223	-1.45928116578933	0.0509302839189129	0.0173691437627391	2.68814798302957	2.50732572764994	2.1954038097743	2.99839156399708	4.24218407851066	-1.1372454258796	-2.2078833687677	1.08227682149161	-0.300355749498795	-1.49043764538157	1.90633538372238	1.74655607466	-0.38467055180887	2.61826446545137	1.6930009960343	1.00404129000573	-0.888089490978618	-0.292648070117225	-1.04994484082493	0.99042068419087	-2.41171203796374	1.03442002653233	0.114110844231474	-1.59490812485417	0.0771455113885105	0.401773849332289	-0.777436309928587	0.293498271092591	0.0867032605027239	-1.19141956112744	-1.62889532305661	0.767128991879807	0.25051361501601	0.285872653817981	-1.2792886388497	0.571218245117394	0.32898931170861	-0.221167072007555	1.14939404188781	-0.316598111227923	0.133016011471826
"ATCGAGTAGGTGCTAG-1-33"	-2.88345360685369	-1.01320260276856	-1.39734298001222	1.90718316184683	1.39202928264907	3.7750078628937	1.91936935945477	-0.417677604043994	-0.738746505613006	-0.0377972616042373	-3.45571091070313	2.10769518728407	-0.132405056229496	0.232756869938377	-0.0935404000407228	1.00908577187932	0.921985758345597	-0.153184430457325	0.0318527632809228	-1.21981278509852	0.768444830500022	0.884066781726804	0.200388200982909	0.546698047749097	-0.951750763184535	0.70291506299979	0.48815458225943	0.307189272479473	0.209855605075445	-0.711679381713661	-0.387061450918513	-0.281667136796102	0.473803716752288	0.0354093641921588	0.320129633186302	-0.0374525457444901	-0.11996204882925	0.922684343005758	0.0612445848992061	-0.120987197123023	-0.583312574853942	1.35973423669133	-0.591922557499634	-0.263955567069207	-0.433485180823401	0.0969807791677395	-0.696602041620975	-0.628878485209056	-0.262014982303711	-0.419931002692127
"ATCGAGTTCGGTTCGG-1-33"	-3.45255978318914	-1.14810112635885	-2.12063262612564	3.40806690354029	0.165159597938762	0.113499750639281	0.771303563557532	-0.522128158101025	-0.017022828737581	1.81670270961641	-0.863615853699759	1.65177833649524	-0.366976280801811	-1.17863520348049	0.145271755667136	1.26719574417953	-0.251789786948853	0.106674266217895	-0.503556153469666	0.320541325548958	-0.986181154913397	0.755931441126878	-0.121780950216894	0.0617108945214749	0.229666614066459	-0.652942440497591	-0.653363235777248	0.345990249695343	-1.3463996152661	0.111351756591899	-0.961477589219875	0.0736219364141744	0.189859702272385	-0.947177390198901	-0.124664266748931	0.566985949514815	-0.498543951704093	0.484379339059143	-0.00688416963823954	0.27455133136685	-0.795019109245667	0.482972189276498	-0.248812362091011	0.0988936990795391	0.125411370136722	0.585188316440877	0.620457425148304	-0.247524667501946	0.531419939109264	0.760008306501003
"ATCTACTTCATACGGT-1-33"	-4.07626579649747	-1.86812428121938	-4.39004977032702	2.15624697401716	0.64855908991556	0.303696504072348	-3.53976568319489	1.59939470127843	-1.00736350122081	-0.386825979948804	0.514013500683482	-0.506984334553279	0.334846478010409	-0.478516435130437	-0.4679420841138	0.428362537303146	-0.188292609350603	0.886629228619147	1.33321837934605	-0.513931971361226	1.03939906433233	-0.917791939086221	-1.21158582666793	0.755609932893472	-0.982432359642541	-0.257063796633384	-0.380328126569426	0.135576860789591	-0.236340740464737	-0.449228076910273	0.416959335704392	-0.35278107539631	0.190830565195416	-0.442399202773902	-0.547168961129067	0.768986449622745	-0.678343829854857	-0.579185686976133	-0.331297361414518	-0.171896041092983	-0.626587141366477	0.0129357609935916	-0.450027692591219	0.106755827283298	-0.211013763122223	0.735437187726199	0.303186158021984	-0.406637815460326	-1.04998007261681	0.0777975211863592
"ATCTGCCAGTGCCAGA-1-33"	6.95980761408861	1.83809724142638	2.25326042223554	4.45022822978669	-4.79974735714985	0.404705609125383	-1.25057333421275	-2.04428792906737	1.48078799411498	0.780829387612887	0.523223273571571	-2.89976922599443	-0.615596885328936	-0.339226140367919	-2.53633141501193	0.692522120179328	1.01682055645166	-2.67044462363384	0.277694509098618	-0.384694258694078	0.514038847394091	2.70700538087419	-0.428298749367417	0.701463604170947	1.31191935260822	0.892214004225628	1.91751133448061	-1.47668491907793	0.17730293513321	-0.125268466753071	0.182874837804458	0.71381486580528	0.205773761550431	0.841185265310566	-0.56214919495499	0.703802186982749	-0.35870837382061	-0.0631685117733173	-0.5864799407738	-0.867021367792675	-0.420454155216572	-0.0538145765249301	0.26614928243724	-0.802560176390886	0.315115785442527	-0.230170924981343	0.220907158643305	-0.172647929107583	-1.23325491784326	0.296724401249453
"ATCTGCCTCTTAACCT-1-33"	0.109382804925305	0.14796626692725	-0.185856520018988	5.95993215091003	-2.52851412520219	-4.73126180990209	-0.913760144902966	1.91974420292366	1.67974664442587	3.75965530624848	1.77330180162844	1.54534757016798	-1.15311839669322	0.552198705488737	1.49437841061924	-1.80712519867841	2.38095833656591	-1.44229626131404	-1.81122209603658	0.708471310598035	0.72379751299079	1.10463200253138	-0.379244787118879	-1.03465121271024	0.316093504880378	0.677984149800718	-0.159903841207521	-0.519539078496935	0.446556526597415	0.00189842223415074	0.219914400586741	1.6253824470733	0.341480969171814	-0.705086725158273	0.579665438071374	0.756817326481369	-0.000665285044086248	0.912629872376155	0.543360905160885	1.00479955427391	0.0367195114225639	0.483603649825991	1.00657845749774	-1.39838092662119	-0.0168946543291525	0.195122256221064	-0.640382442549945	-0.657045626042217	-0.373508643390184	0.254279191767192
"ATGCGATGTTTAGCTG-1-33"	4.99329581476762	1.82757535127912	2.5398300855564	0.883226819287928	-0.832015272809866	3.5929532647207	-1.28254408226515	-1.39754786890648	1.24819595612658	0.0301761807812088	-1.59350004337962	-0.583496791238686	-0.314944593358423	-0.870790198219049	1.22441496450116	1.3153043071649	-0.291077070370919	-0.060818383110843	1.98474359619305	-0.209927647564421	-0.994168608408857	-1.04402066524486	-2.4180925273432	-1.15678993386694	0.330921429558751	1.48413608798844	-1.32148714756182	-0.457517011381918	-1.60997821545446	0.32491718656583	-1.3080627995435	0.530995377582524	1.44182723507859	0.541812009824244	-2.44927631059967	0.895083088478077	-1.55386792238653	-1.12784723032637	-0.218574424463948	0.49581124864463	2.63718835478963	0.251967066145344	-0.410275185687907	-1.5681630798654	0.201924124664623	-1.56887032229522	-3.18030457289879	-0.770387884133449	-0.0567486687241722	0.461879353298901
