"PC_1"	"PC_2"	"PC_3"	"PC_4"	"PC_5"	"PC_6"	"PC_7"	"PC_8"	"PC_9"	"PC_10"	"PC_11"	"PC_12"	"PC_13"	"PC_14"	"PC_15"	"PC_16"	"PC_17"	"PC_18"	"PC_19"	"PC_20"	"PC_21"	"PC_22"	"PC_23"	"PC_24"	"PC_25"	"PC_26"	"PC_27"	"PC_28"	"PC_29"	"PC_30"	"PC_31"	"PC_32"	"PC_33"	"PC_34"	"PC_35"	"PC_36"	"PC_37"	"PC_38"	"PC_39"	"PC_40"	"PC_41"	"PC_42"	"PC_43"	"PC_44"	"PC_45"	"PC_46"	"PC_47"	"PC_48"	"PC_49"	"PC_50"
"AAACCTGCATGAGCGA-1-33"	-1.58954237129859	2.89603387600179	5.3892238896948	5.54147001406039	0.967746266103793	0.204581972295089	1.36588554296269	0.437300549736318	-0.354112685210133	-1.0699343558858	-3.96681427694261	1.27875332932018	1.77293461348792	-2.40341769660957	1.8008951837258	1.09908631906504	2.39272917752503	-0.0118806384433105	-2.62112340786328	1.88166695316368	2.09041745677591	-0.0952486188724478	1.81120518372714	3.08649689024768	-0.709403325698154	-3.17050673024198	0.0400487622238199	-0.262177825651538	-1.89709219580452	1.58635069247868	-1.2400480270773	1.96345281007317	-0.332422690471799	1.62674266816102	1.38794217054758	0.608312469427562	0.649247848281291	-0.472884236874672	-2.6115792922899	-1.21468473141305	1.522430396521	0.386407136464627	2.53420929226219	-2.52547569070099	0.963487663227478	2.05410877566552	3.61352196351404	2.11719658633737	0.898713400364257	0.534552956522647
"AAACGGGAGATATACG-1-33"	-0.978197558996841	0.353092291548018	2.08740220702463	-7.12117674726246	-0.700769572065272	-0.126258415998603	3.51761464989663	-0.634743863985706	5.69806623323297	2.26549415621271	0.331451827964881	-2.29538197131669	-3.25795213624958	2.65062131703263	-0.584366857345403	0.550109718265138	0.131948422733955	-2.88207968678566	2.57098639263626	1.37723590067136	2.7575316952515	-0.969266815632006	0.47628544260456	0.476982587141127	-0.426764833755095	-1.09241677787194	-0.683630334185201	-0.195032257542703	-1.20400261852083	1.81917429250533	-0.539877704239973	-0.675130523701525	0.641579805888556	-2.33372339199356	-0.731335300683005	1.45468205971312	2.76528705312213	0.836150569305517	0.450108319478512	-1.54698134032196	2.80627271546624	-1.34650553273829	-1.13935973196146	0.680406539680421	0.0369518999592947	-1.75553828168544	1.23568588801195	0.107329166384227	-2.50508852057139	-1.40642885438299
"AAACGGGTCCGTAGGC-1-33"	2.75362725067972	-0.0136453952743961	6.63729787469464	-4.71721028793391	-5.41391322687762	-0.364406732476544	-1.80898999566385	2.0689988960306	-1.67156138920109	3.15580719097244	-2.06727855425954	-0.181483085116104	-2.68110110759651	-1.34690552549549	0.527219156560874	-3.15676930949653	-2.55502950277733	1.00167522513247	-2.68702119983285	1.62416804194943	1.7639527746497	-1.74568145115219	5.67916158980745	-2.7296929732482	0.168147208895642	3.07370029421853	4.16188573524863	1.36244980957766	1.71688396531342	-1.60571911684568	0.462775420646554	0.643921478657843	-0.374272647487681	-2.0464801050729	0.469601612389811	0.501785945834792	0.734189686163277	1.04827663902197	-2.02823961970474	-0.0709423677383216	-0.0511395545154856	0.176300910783385	1.00038451158769	-2.03524242108919	-0.862715543533581	1.60061319565862	-0.0166407119215238	1.35174132776432	1.94535831077132	0.805224207700951
"AAAGTAGCAGCTGCTG-1-33"	-3.6053437001388	2.01471241369338	4.11200336456633	0.658512402898408	-1.91293430437972	2.65663666636141	2.23692855592502	-1.30920108954858	-2.81333632689959	-4.93945338567488	0.0704933177345933	-0.861984741107454	0.130336222948864	-0.85154787403108	-1.40116581539413	-0.120838992631135	-0.904171667125225	-0.279289016314464	1.69323807496971	-2.42452098956344	-2.78532625711707	3.11002468203455	1.8171934510767	0.176357527231711	0.729638645469732	3.14986512096345	-0.423511737547896	1.04186157592759	1.40113116391018	0.464254871849529	-3.0617782638796	0.74930133749579	0.496950157017215	1.24145722396369	-1.15114118883594	-2.18356167456264	-0.392120360618481	-0.716608657986954	-2.20754504590389	0.0284659566676905	-0.448046396851063	1.79874211089904	0.616965321030895	-1.64181929232132	-0.324674206469227	-2.45579312043105	1.14231654471898	-4.78309300469148	0.207206934774834	-0.00646840998640872
"AAATGCCGTCAGAATA-1-33"	-2.23562058912006	3.84389804682505	1.21430937800845	-2.980582117934	0.202182865916557	0.665892078046056	1.74740041659382	-0.638401011947343	1.87605181862965	0.786221479724931	-1.3832240583918	2.49327147313208	2.4555231263069	2.14749426768455	-2.34161475861374	1.63995228480776	-0.284811854670123	3.44645505236023	1.63944285506375	0.0905891783761218	3.14559511781397	3.86701663241465	-1.71572364453994	-0.358596730054963	-1.27073507552973	-0.445153654663821	0.218273870633177	-0.640310449021049	1.85509889505582	1.03462333573373	0.935056579937979	0.528897473894472	-0.0418164237075351	-5.57608425154661	1.95040683555567	-1.09791971471094	-0.74261061209559	1.78557627106254	0.519713699681263	-0.0354905377751564	-1.91367352128753	-0.487822185583788	-0.988787214939904	0.728009176048585	-0.18970712964799	2.33458147864737	-0.81473066282017	2.28794498830861	-1.73077394693296	-1.60412022854844
"AACCATGAGGTAGCTG-1-33"	0.609690971280362	1.10873410466091	4.53821506503466	-2.72332657166438	-2.63464590883232	-1.49748574080427	-0.529605196896219	-1.74836650487532	-0.410126490259458	2.5854153829195	1.21395512421122	2.16918843513909	3.71753499472955	0.414399098019599	0.897443042216748	-0.321071854474076	-3.13064849633058	1.03975984650818	-1.87803295192889	-2.93779575238971	0.893820164915052	-1.78938746976939	-0.0342651891502145	-2.11165371292504	-0.0530157008560887	2.07751970347616	-0.428799889819866	-1.21609684803772	2.19731684879946	2.01988126393069	-2.08893731485888	2.90311940808105	0.272657590234762	-1.4171451739308	-2.46719844322077	-0.970813540535365	2.77229628898389	0.480084296524899	1.73349694761113	0.614170182514156	3.15921402551212	-1.09442526404715	1.97444525608004	1.0049046021861	-1.95934229061547	-0.530425751600176	1.00349155705526	-0.31519059605295	-2.71142076633839	0.00508931160770236
"AACCATGTCTTAACCT-1-33"	-0.884574913613821	2.35195937319797	6.56608835596079	2.50967570000669	-1.20014099068475	0.330784935545892	4.22046424285343	-2.29741373347973	2.97343838702387	-2.38233855526177	0.421127889285283	1.00516084945522	-3.49064960270303	-0.296660045609302	-3.59928100556481	-1.04253042677517	-0.240959395158433	0.920563648156235	-0.467391148648315	1.41209721955749	-1.61496476021014	-3.92052382864188	-1.60033814591935	1.21908829232912	0.670574732958927	0.799765877970745	0.357012728532446	0.807800208868992	-0.900859689232799	1.86081402367151	0.291558107668842	1.19383489907538	1.68956727646792	-1.23616568345758	-1.85149007511792	-1.24348861724543	-1.79701869414413	-2.35761092834765	1.64535039896723	-0.484279248120203	-1.35739422270996	-2.0174388667506	-0.945770295536136	-1.40589296957046	-0.940243176622506	-0.429949905498373	-0.198250394425129	-2.51430956274149	1.65520404538396	-1.51614082022875
"AACCGCGTCAATACCG-1-33"	-3.76184899675528	-0.114852682895042	3.19875527945075	-0.0838806991605043	-1.30438877911792	-0.54715729531912	1.42634427887629	0.332542944942881	-0.703199886902528	-5.53513787569337	1.87676867722475	-0.541679389620557	3.47405943805503	2.96840326588223	-2.87449117990375	1.06364145500824	2.82480855734092	3.5976663346239	-0.385280179711054	-1.48989211456784	0.355829011140714	-4.23748197692229	0.156910942486173	-0.358816463956432	-1.57467029734203	0.374380098730164	0.902292993694375	-1.22602517561655	0.919990401514879	1.03564340671574	0.316912232768694	1.50220328279573	-0.932376460420159	-0.560112417711555	-0.548929268631004	-0.603294084408398	1.50627907888293	-1.84047403824177	0.804971276853283	0.318377516898609	-0.806578856700903	0.641341050945174	-0.298337364308966	-1.00508265983054	0.546781125623183	0.391013962822569	-1.78668823526395	1.61318665334494	2.13365536323046	-0.123084033599387
"AACGTTGAGGCTATCT-1-33"	-1.20887986774079	0.992496107061927	6.31108942445216	-2.22797921957005	-1.74583181495927	3.13211129937789	1.47492018128636	4.70969722869412	0.0374331278218767	0.941447028057926	0.629022357424375	-1.0940263951894	0.475748403768251	2.21519148546543	-0.11360244002925	1.77918110040028	-1.46737949200538	1.57822191538139	-3.01860224918027	-1.08150282187593	-0.411948690821474	-1.55627692522958	1.65795064608151	2.68318595951839	-0.658189980570756	0.484258738650098	0.886273387649987	-1.39644327836965	-3.79647052424846	-1.45790576465575	-2.2719141467675	1.35812890104524	-1.46524417759842	-0.635755660795576	0.287032262569275	0.204973345879014	2.40336535572908	1.43647826420415	2.34306897345693	-1.84164246581825	-1.91142587334219	1.59416444178476	-0.447886961716663	2.16417987005355	-0.705961350716458	0.272108825719719	-1.21613877307315	0.695186884553457	2.82615661788278	0.00516193207287798
"AACTCAGAGATATACG-1-33"	-0.819250468866153	2.10883219710914	5.11466424971393	1.97776423365298	0.483974266390434	-1.22053150869843	7.05749260910651	-3.54229480222825	1.98755910134732	0.910598530581096	-2.09131656336227	-4.31508893634218	-1.17152201462082	-1.03537980453714	-1.93822031022696	-2.10478771253685	3.55008848968	-1.11991348032573	-0.999402945631036	0.22351697100265	0.990265099304773	0.435995162655858	0.0333940413914643	0.298430877541456	2.01212312906141	-1.40734636734903	-0.016111972006504	1.71018592801145	1.50448352084738	0.127338311232732	1.81497383430971	-0.669408555406672	0.364186237512914	-1.33649698232127	-0.322791429019256	-0.89869752188593	0.314000577498638	2.24231977376448	1.74225364636748	-1.54118627172952	-0.325413000904191	-0.0915594637470974	1.26468792554104	-1.13701351224592	-0.218449048218915	-2.87778437606466	0.496949858270163	0.953175978025329	-1.72905399195535	3.020091443094
"AACTCAGAGTTTCCTT-1-33"	-3.63422051806024	1.10354842584243	3.67099442941146	0.831507085043093	-0.502609759637581	1.28722571949619	2.81274730491192	-3.25432339921179	-1.97312959401123	1.50535790506759	1.04244629102092	-4.36730589017689	-0.441540190561501	1.0544715749153	-1.88579617821207	-2.2502474654191	-0.839457932533827	1.73103807148338	2.0890425461077	-1.43514207578338	0.537373708559885	2.83695615269564	-0.166008285876119	1.21301939473456	-0.222632297818688	-1.85416683266117	-1.66036094065394	1.73438569670909	-1.11889745699465	1.78817427301028	-0.00680092402758746	-2.60520473760403	1.41761570165261	1.60787387138054	3.39509079762888	2.00811931376675	-1.74432677020574	-0.865366004412153	0.141524179670145	-1.05265955174278	-1.61417439598151	0.860839277219203	-0.897648377661778	0.350102869747406	-0.249466716960029	-1.37543843649049	0.0857521165677406	-1.99618854869724	1.19525082899451	0.0562612563285193
"AACTTTCAGAACAACT-1-33"	-0.10428263739266	1.78683397197753	2.12596146305751	-2.05800802297086	0.583367884897278	0.322011410673225	-1.81564198101092	0.558247400816552	0.0480062091120942	-3.75606448056153	-4.15617055454608	-3.42936959111744	0.148166984806437	-2.8500025979353	-0.582006295644308	-3.01885866391951	3.38266713572743	3.58356322871062	-1.95246045244063	0.0103455155272981	-2.271256200502	1.40922164796367	-0.777115102865203	-0.325994125219106	-1.11110545840188	1.99147505876835	-3.56467885040618	-1.42396946000739	0.988767566685967	0.85763763144265	1.97159202150272	0.582454909154536	1.52008676310785	-1.37317621492509	0.285289718398679	1.83331275854765	2.45654476467055	1.52594426701918	-1.97363336391506	1.21373555870724	0.423609507810601	-1.55382085564401	0.129081315497986	-2.17914062308222	-0.107106555151594	2.6450576764519	-0.65351296650831	0.122732174258408	0.369618883268562	0.207287748434426
"AACTTTCAGTACGACG-1-33"	-3.00723046392812	4.08838198888856	4.81229105242704	-0.420116917965737	-0.352618183216089	4.42495093169791	-0.918403985801871	-1.33973034536082	0.463345916229618	-0.662527590837167	0.0762470634546578	1.38513310172059	-1.41570171067337	1.67774928299079	-2.94028303726349	1.43522837286913	-0.796811646532807	3.69304939138216	0.366319315403012	2.6444155443148	0.777496042030188	-1.12268642471911	-1.53771290921746	2.63443131036045	2.25269385131462	1.18313562094347	-0.54678384119213	1.21052720420992	0.644626627238431	-0.938191460971243	0.534661929066123	0.249574810627433	-1.42985766003293	0.891863294086617	0.19551119235732	-0.884332918019305	3.16349247118349	0.0315799973619191	2.55372490483088	-2.80775278535198	0.510259897217685	0.169289909853023	-1.55666078430521	-0.345808407369051	-1.97467262966384	0.281901823830574	0.942057538537218	-1.97144273393382	0.647820736839897	1.55996800971295
"AACTTTCCACATCCAA-1-33"	2.03582398308503	-2.8147062752236	1.80889318874102	-2.26293282377074	-2.85434972036034	-3.3995907328046	0.0794815323108445	-1.52033406245369	3.55843863139446	-0.375943761492494	-0.321879378396889	2.83783247037853	-2.35554015958585	-4.30638625731494	3.3299973103576	3.23390929688117	-1.80071129695436	-1.48601796763431	-0.171549184044906	-1.83785120524007	-0.145836093768938	-3.17222479764179	0.531093361462786	-0.886711212859537	1.16197711543766	-0.969904466445369	1.84079256334377	-2.01553238045903	-2.98406966550062	6.28262715748951	1.17410176440843	-1.09680518170502	-0.876985245852198	-1.30557060051561	-2.8057898170753	-0.445982349975569	-0.682449249504481	-0.560388697281095	2.45914869327311	2.77594950357556	-0.324984225732506	1.8868790728639	-2.09101152403769	-3.04339612793567	1.42469353725942	1.76904427153034	-2.38684966127105	-3.10351692846789	-0.938069298139847	-0.510616692073099
"AAGGCAGAGCAACGGT-1-33"	-2.16660152365534	1.06903491332216	6.35992077297104	-3.18888280823683	-1.16626979173456	0.501215002121906	-0.465400710531269	0.0796633301703418	-2.38774564956485	3.13382739511275	5.86988802790047	-3.03310951603894	1.26208489352471	-0.65942459808788	2.05188895683139	0.289351910468097	-1.01503220105373	0.33542092929452	-4.27510951889413	4.09300721027207	0.64839764335936	1.5011030275272	2.70299634341959	0.766080512470954	-0.327311113798122	-0.255978480901178	1.85909091460663	-0.19778163274459	2.11691883620113	-0.885391152963964	-0.636479757408214	0.746688051436366	0.224000787524516	-3.63786931573328	-1.56566572233658	1.04373633977324	0.510498267055964	0.559977081618741	2.43017663036863	-1.96461642274969	-1.40983790870102	4.47675937784299	-1.14616267361174	-0.0399954987830867	0.144775816638198	-2.88863234147259	1.73838518742602	1.1043463978723	-0.151329840848459	-0.0909817004083137
"AAGGCAGCAGCATGAG-1-33"	-0.63512815538124	0.707656948432061	6.42326149902996	4.02218915444533	-2.11562176724531	-5.12674864309929	-1.57413712521553	-0.121756505363142	-2.30613178901056	3.86510423800772	0.00293207045822921	0.151289999136396	-1.77938951493484	-1.09364445942253	3.29185964785029	-1.0956359203703	-0.899031417178678	1.98324090540125	-1.3201849978292	1.32375124134012	0.690369059345809	0.771412510080754	1.81213563536502	0.181222264004714	-1.67169619756389	0.460763616478199	1.44874250392942	1.9392641373695	0.81759788052076	-1.55746566426061	1.68236222364819	-2.34217893725623	0.420421948598251	0.112210198967349	3.24689101815506	-2.83722184589024	-0.879490836409008	-2.05105195312822	-1.14431966409604	1.60827118720358	-0.813339879173947	-1.49473521068251	-0.664944571162859	1.21862053145671	-0.12879862385662	0.823555135251248	0.55305920328673	0.0621287439882031	-3.60081640790369	-0.629693516348984
"AAGGCAGGTCTCACCT-1-33"	2.39525655517716	2.1876638717548	7.31533505810596	3.29988743532579	1.0405904411193	0.851506049452063	-1.90541503650971	-3.51100316770375	-0.721438485190995	-1.06016604541996	-0.233499784803005	1.62254589542213	4.1599758969912	-4.41287904699106	0.225815660749584	1.97604858142425	-2.77333118427325	0.214152055326264	0.217398449466857	0.608887586250329	-0.0554055036822863	-1.30389707697952	-2.05888317728182	0.733988504362285	-1.9961314680129	0.482363172517897	1.01704820441927	-2.33766175804077	0.115068827082384	2.14958314941659	0.959604430257335	1.12370183171178	-1.05432748111114	-0.121891801854318	0.995467617962952	3.18039483147761	-3.94168337629795	1.16640340217709	-0.228713978491198	2.32618019663101	0.880665064146187	2.18679092638887	0.16470083881649	-2.16314414917782	-1.08964717870299	0.159210677720247	-0.217238445692634	-0.84434567312404	3.17601740356467	-1.67406574386762
"AAGGCAGGTTTGACTG-1-33"	-0.474220988700626	1.46471123597361	4.46312965087624	1.93740131149293	2.88979717318552	4.94202964867493	-6.3275486684303	-2.85273052508986	-0.410122318599938	-0.498590341976351	-3.02728118030168	3.2587758961916	-7.22037974602966	1.71920405105274	2.82492767483233	0.211229736772046	4.56989909558684	-0.681775263881075	-2.5617517228991	2.32866583653042	-1.05564107857016	-0.877020916727966	1.15973123795132	1.38777209943215	-1.34844017835868	-1.46832338321988	-0.573902778972691	2.10681612153609	1.42806400996028	-1.13627773682046	2.8822849989835	1.30475730705745	0.265477624450701	1.83371552219633	1.05018172629093	2.98878678438353	0.698512283522611	-0.0215223893529284	1.32157943509571	1.1001008559222	1.52267741664222	-1.15867818381073	0.671930828755547	-0.920469252459719	-3.11236375851511	-1.26566152278357	-0.778310054397737	-0.625355061725474	0.78672239194235	-1.13920208290632
"AAGGTTCAGCGATCCC-1-33"	-2.03338115495524	3.68744758419068	1.67931350287154	4.45786328506491	-3.35905943916076	-0.623477470698638	-1.22280438967692	1.17480531575799	-1.24901305738272	-0.127855359609773	-0.343252571743935	-3.39583149338642	0.666362676957474	3.50768998787345	0.53657490215105	0.84733912277221	-0.32446827493677	-0.321036773416797	0.323029997878279	1.73866933285606	4.0529765114041	0.557660295837077	0.274400908576605	1.89645898422815	-1.1012623702539	-0.922874360100881	-0.315979601573307	1.77479811385548	0.45514496976195	-0.764694271717607	-1.0671847295614	-0.439431471813122	0.150599324874446	-0.829985040870811	1.74823364448401	-0.972017505240708	-1.50172974090272	2.70818600020852	-0.433884756454755	1.89475927476887	0.265905092907256	1.3599230197594	-1.28013150398825	-0.361564412489036	2.31873572191146	-0.861519817130259	-0.455385094429946	-1.54889350694337	-2.86021268190945	0.944680317562869
"AAGTCTGAGATGTCGG-1-33"	-0.0556249474853389	1.72109447651866	3.88536159887331	-4.2347948069878	-3.44372665310379	-1.4636533899538	-0.644742520658996	3.22699416913413	-0.834411116926351	2.9160081619596	1.37177118797331	-1.695910138702	0.652569869231336	0.56435425174025	-0.472491995895478	-0.481115166650602	0.780114988307085	1.08744227620531	0.214446278850858	0.0351980793724086	3.8164312439875	0.653850330415055	-2.3417967186795	-0.574621535401272	0.666517727678852	-4.68905649332933	2.79253567115993	1.13204240649707	-0.959962312781276	-2.80330964318728	-0.376889188022193	0.291301941241032	-3.10923468346995	0.518243349336562	3.95811151717486	-1.87198366981468	1.86668064272651	-1.69787253846385	0.376542809419954	0.626349278689652	-4.89500368941449	0.390795759017145	1.1857612149072	0.99726123372092	1.30025192717371	-3.8931737588816	2.49508472861438	-1.04955455131306	-0.160420687160869	0.868727671042107
"AAGTCTGGTGAAAGAG-1-33"	-0.455388085312017	2.08388369516471	5.8554832297468	-1.52067244715423	-1.90809868186196	-1.48484029322629	1.03321570832396	1.37867686178562	3.76023585630149	0.153146793468662	1.80375829904495	1.00603323810753	3.04650522040046	0.0701355725244712	-1.5355879799756	-2.14033752358884	-1.5713492825178	-2.13197422035763	-1.29716800676526	-1.07433687989925	1.55272719003131	1.66174532833776	-2.41816024184469	0.209136389321114	-1.47892434457218	3.69654817576884	-1.00054144085678	-0.811631692073204	2.68733821246188	-4.29278930966382	-1.17277857743303	0.732009830818325	-1.13596176411534	2.23432076571646	0.373462345316914	0.724488502493044	-1.80949498507692	-0.00517440200108465	2.2841618433053	-0.355980896369618	0.589284787347114	1.06470292658532	1.89278840934306	1.68711951756567	1.47846139221216	1.29452880718137	-0.533879117730466	-0.468795044261935	-0.553850988720326	-0.66467541204493
"AATCGGTCATGCAACT-1-33"	-2.39370974709741	0.83915678079046	2.71212399474635	-3.69782053701272	0.721230466599976	-0.414863475611392	0.316480315904156	0.288108145150391	-2.85422862462659	3.1272195909415	4.85088832484961	0.172145059763942	-1.53416714539566	0.168779765548394	-3.68272187245145	0.124411455773981	2.47147699044336	1.25612208103998	-0.51156219354497	-1.26563010116806	1.57274092705694	-0.147217949401521	-0.674339841011442	2.08265851641087	2.08691187781275	-0.428276191333866	1.66645845115473	1.84191080514717	0.938530089056412	-2.47846669866116	0.139143621912347	-0.610344867810488	2.32298292031905	0.766412434630338	-0.646645722490473	-0.554641802228295	-0.499224747437051	-1.95227136667888	1.53379718605232	-0.0114856728761897	0.130476205159383	-2.47719648864629	-1.32962877153875	2.07888375966446	-0.429642335099866	0.131474695498399	-1.3514098925358	1.54610326748235	1.03211819744285	-0.277634192363284
"ACACCAAGTCTTCTCG-1-33"	-0.353558340905105	2.80577237951439	9.29635681910905	5.23608486880725	-0.00746161142184328	3.00012816014715	-0.0594462465563598	1.70830452492521	-0.884929560130764	0.736942508220274	-4.57015413527026	-1.58508503789345	1.63907190163122	1.29130638599281	0.705523453794295	-4.4049705689296	-0.612313058580582	1.04094150734434	-2.98928082488828	-1.92117465244387	-0.0992964096087529	-1.01170798945927	-0.137807997277381	-0.301309293968409	-1.48985781130101	0.0835186171416367	-0.0594179165321504	-0.912020952713165	0.875718060017781	-2.68698888444929	1.82277587721768	0.188281137862753	1.64448658595643	-0.631001191411814	-0.602093795757382	-1.56968816238746	1.02733993060182	-0.370403520659246	-2.24001792767467	-0.230314128431473	0.91112593720652	2.35221654027724	1.21226661728488	0.260160645663737	0.486966606732467	0.477879814739597	-2.67685834812671	-1.73608381586291	-1.96115555603006	-0.253022290209178
"ACACCCTCAGCCTTTC-1-33"	-2.35512364926458	0.313265517055958	5.43907152000298	0.355408989165721	-2.48035374580218	-0.606073340312532	3.44102470730965	-1.57933840901379	-3.17946248660176	0.661933296972569	-0.905945394839389	-3.20203000917992	-1.41051802218118	0.919733769440162	2.00616573353145	0.273927002912125	1.67634498432561	-2.2994470075007	0.0848422122158167	0.366238431991633	1.89854015720755	1.44377913672394	1.78205936000504	0.739225972278218	1.62244124555571	-0.0951794876926888	1.31486379516312	2.25408181165379	-0.0328674864854401	-0.231681539148683	2.89370848455085	0.241623464530312	0.229907502192373	-1.67582311050599	-0.455235670167172	1.52895153385845	-1.00231695237754	1.25204404856713	1.0123831893861	1.23243142027177	-0.929501139214019	0.754001242342414	-0.0640487349284902	1.8371246767524	1.5296309465635	0.477508116001012	0.385328211900988	1.43439410144356	-2.87868110723738	2.75286025258743
"ACACCGGCACCGAATT-1-33"	2.36072950686105	-1.71989383013128	3.22587275857787	-7.96314069339437	-4.70433432522473	1.20734099263766	-2.26415588367145	1.11070957214613	0.648314149428864	-2.26703614815488	-2.26894082464324	0.176345606447889	-0.943132928340982	3.67727057174055	-2.31165961529311	-0.202345642359619	4.60197735398141	-3.10004992292273	-0.340783371916522	1.72559020821664	-1.96540028703521	0.0571556300753256	0.702884354143824	-0.521324417421764	1.11491721510481	2.117546198168	-0.870005606671675	-0.591450524974014	-2.99591400271269	-2.2283220411037	-1.84105277582799	-1.82105450697733	1.26660036309699	-0.537986349520613	1.58904074656599	-0.321581723035083	0.195735659063238	-2.66112099667455	-3.03398524990664	-0.815885365133551	-2.76488133321296	0.529693141337101	-1.38841545350113	1.45107974890565	-0.0801076507143789	0.159506486254842	0.511372460093844	-1.9009840526479	1.270760083354	-1.23818493150936
"ACACCGGTCAAACCAC-1-33"	1.32714439925361	-0.649357693179753	5.25392884614614	5.35267541262643	-1.04385286274703	-4.4494453002821	-0.142411853382668	-1.24185701049387	-4.05441766572802	2.62930077201267	-0.993550505294411	4.47278167825785	-2.69564886964528	-1.83613742476075	-2.00632355160432	3.98757888805372	1.66747003800516	-2.1677283475357	-0.650106423479637	0.531862677562567	3.72823122538446	-0.133314311814526	2.69191008831067	1.75434062713456	1.35318419746287	-4.21237631687386	-0.887643656266096	-0.0171880322744029	2.04057547203037	3.37285073689768	2.33716699303464	-0.32604235393475	3.04428187810216	0.13277219364011	-0.0507254961583384	1.54994483339764	-1.57701505222379	-2.91888489796701	-0.996031794512606	0.45666035562139	2.80755143753563	0.0831869789020744	-1.15739998334688	-0.279537371683132	-0.997595068202508	-1.57691645327089	2.23968872601248	1.03387961985339	4.03564317205705	-0.722284248507592
"ACACTGATCACATACG-1-33"	-2.64205990424537	0.345774174035238	5.408572400361	1.27828792702032	-2.00394804381373	-0.897523495410407	2.65430783956998	1.06597801846171	-1.10391678160864	2.60448625997172	2.07807391504131	-1.3846841069443	-3.1450594093787	-2.78426587858149	1.22093683419087	1.358036579617	0.129100251618229	2.16111598523524	-0.742564571746922	1.87946191909351	-2.58573217557188	-2.00292782683974	2.11419298665678	0.046743586040069	-0.688687184418343	0.600502258054313	1.12927499800438	-0.347445317377184	1.12023129036338	-0.809384456343088	-0.323122390914225	-0.12848887572402	0.411934870932831	0.300022736884628	-1.27838169581221	0.517887395488064	-2.35873129153842	0.654222119929613	-0.105324867461304	-0.669047770241349	5.40922579898984	-1.22407250211291	-1.06030491209196	0.735091084761983	3.22451000138495	-0.490788679729084	-0.656664072015108	-2.46344854020521	2.47925812667377	-0.193698842930188
"ACAGCTAAGATCGGGT-1-33"	0.615547619186472	-3.20555476438778	1.69148524583529	-4.63964583871522	-3.63445273428639	-2.03116132349072	-3.00892530010044	1.74464773030448	2.25722457287604	-1.44279280399989	-0.464523335624351	0.895181858896638	-2.7580571161125	0.137024041024328	2.25157388801175	-4.23525973603963	1.38954449357953	0.456278659482763	0.459036840554158	-2.25415385712449	-1.61083968343781	0.0552366061300632	-1.3084142084373	1.65006907763607	-1.13386093342276	1.02471172032992	0.963581885895902	-2.51844868783841	-1.16784900444119	-2.17955892511969	-2.0716678669344	2.5528607201016	-0.318599066883768	2.90983196698198	0.403386850963412	0.942522404681859	0.81095865221701	-1.95821917336604	1.5162917739044	1.28502523831232	1.30768530779175	-1.60931330459124	-1.22804336871801	-0.210634976289944	-0.652032157925701	-0.342233717532825	0.870040952883457	-0.0352037323858621	0.946660730126909	0.916707202431122
"ACAGCTATCAGAGCTT-1-33"	1.51282128416133	-3.61661071355608	7.87385169558796	0.0395540062591343	-2.30522911865624	3.75748406311063	0.706344180406121	0.375940031670347	0.491085350989148	-3.59684705334267	-3.24773207518819	1.85977388065908	-1.26009651894468	-0.823839241624149	-1.06687519495094	-0.458564632021045	1.28371694444447	0.711486998498411	0.868636029232162	0.530776384827087	3.21839859104422	0.446666094620588	1.34165728687877	-1.25555958662218	-3.2847628442479	-0.834181401275673	2.3682256297939	-1.14191431328565	2.51072022730218	-2.97612575104347	0.656312252163355	1.72576050218274	0.699365303645138	2.21494519017562	3.11978090933312	-1.30335836406075	-1.82172011340805	1.84207564317601	0.773184949221284	-1.98152839405251	1.38778996952484	1.28590909463127	0.32210734884772	-1.19863337291818	0.245647384335243	0.0272667249155708	-0.557433169102746	-0.817165960917909	1.93381625893472	-0.0444703487581121
"ACATACGGTCCCTTGT-1-33"	-0.0802455083994808	3.17788493552678	2.66764543077458	-7.95446106696258	-0.873457636230326	3.55060970009625	-5.2831340605363	-2.33024300182209	-2.1517996310207	0.306469144519284	1.79403479878809	-0.702066242742881	-0.296016441254651	1.56024151125818	0.449169768786263	-0.936980824488551	3.81801703529193	2.91108489749303	0.344038416119475	0.208906448092734	-1.57181764614175	0.946033936555867	-2.40824656533132	-2.04417257853676	0.944715071558266	0.569748880718452	0.441783303171971	0.677538497548556	2.65282765388354	2.22011555059145	-0.147221433313841	-3.11697852676465	-2.36035193231331	1.59473021914222	-0.0463372360624279	0.0963416156793809	0.87913192018112	-2.22938582041156	2.71940092711572	-0.946088922445591	1.90690467220395	1.28604689277747	1.16639909797499	-2.94449551548194	0.331268625535544	0.552310861850335	-4.32041158005068	-0.946995413834244	-3.17938434102818	1.62745589138426
"ACATCAGGTCGCCATG-1-33"	3.11767889265578	-0.326960646237892	7.63558739562446	-1.66442954843	-4.05742597220955	-0.642616903610931	0.555634449999451	-4.09147446346401	-3.05838712791898	0.537817415430647	0.0939519146492749	-1.85926970231427	-2.14161223813375	0.192515065551339	2.49253171813035	-1.64333299161245	0.216662626973495	-1.59013277492458	1.433166895635	1.35686142991529	2.28267610780585	0.836713980218263	0.614510014713926	-0.640060924552037	0.131578580951887	-1.14260479015392	0.145476034069484	1.08278000640913	-2.2769162866239	0.327029851412667	1.66781038777482	2.58893974866153	-0.989447237295163	-0.357171001450514	-0.745733369507674	0.643339900583414	1.49194711065964	-0.282356177513117	0.2813234719461	-2.1285674415403	-0.37432472186001	-2.02487211655881	1.21350128636528	-0.81976344945699	0.956461183966099	-0.501912477898613	-1.53800485904083	-0.667505182776222	1.20887618324109	-0.045307307420489
"ACATGGTCAAGTAATG-1-33"	-4.60675335366938	2.63417211734906	0.994290888214236	-0.160596256704141	1.71956795946651	4.76326506362235	2.39455944818159	1.72688908725461	2.81259934354865	-1.77059057616377	0.986979208692108	-2.3148546490975	-1.08396042929358	-3.03588562477167	-2.28950219426749	1.58183204984178	0.22002038062145	-2.65286397094247	0.977887932734463	-0.929870376584447	0.339015840578567	-1.99925281513335	0.548096272980963	-1.13033851907549	0.470148794020303	1.45059144224702	2.95541973122619	-0.223635191369714	0.170768806696632	2.03705750385698	-0.388779162781524	1.45132127696248	-1.61801745592484	-0.0524377595514345	2.52842485199723	-1.11034784746771	-0.0885523275504143	-0.381657409375696	-0.508093663709232	0.0480157241162414	0.178069432339107	-1.24899887056454	-2.36360507937489	2.35794975310394	-1.39245604138145	1.52414164934284	-2.87540963146374	-1.96723083495528	-0.273603715801443	0.484508708471804
"ACATGGTGTGTTCTTT-1-33"	-0.46085258145401	3.71268154899655	3.10780769804845	-2.62215698100384	-2.26181181800218	-0.409096626774065	0.82708657419162	-0.547475520126017	2.66404144718847	-1.01330103239066	2.73724465824519	-2.07436191400649	-1.39607651360122	0.709147674240618	-0.0555089996261627	-1.44144198676311	-0.329016921937567	1.854167521605	0.159930239214206	-0.166410253485771	0.0416468071175125	-1.51111105857428	-0.161843333685669	0.909056493014241	0.718222242206135	0.610444511756625	1.17969504995166	-0.745887646529573	-1.69908948605593	-2.12184374910258	1.14941070657774	-0.16511233677174	0.74374585557618	-0.0165698585548236	-1.94013090001516	-1.17356772203187	-1.92245140835201	-1.7126598008994	-0.0277559657421034	1.56092177764044	0.542831600892836	-0.949030417057112	1.31913781732655	-0.0329190030471579	0.892705553710979	-0.715110221858998	0.675092971329275	0.0777920621425511	1.40034938059194	-1.75266613528726
"ACCCACTTCAATACCG-1-33"	2.54388238639117	-2.99673437223543	3.18083149857727	5.70658837819206	-5.55255808461503	-9.32020646734259	-3.83223131521028	1.67406686562076	-0.470785648357764	-0.0548979689678636	-1.49059671716627	4.00329197459902	-6.68189998691292	-2.29041673817288	0.625509172509603	-2.31440261370282	-2.21651649505431	-1.02001579152022	-1.42712849793145	-1.48614855812712	-0.54042028488558	0.960697304439276	1.47484092472798	-2.09188878647604	-1.5016830661744	0.203408971176647	-1.84915450882629	-0.56241410013614	-1.88150217717085	2.37660227165396	-4.24938166982004	-2.59642716648152	-0.745951981662073	-0.091777645140652	0.455054798526302	0.260711672651549	2.1504837589526	-2.05056651230054	-1.23037253900843	-2.59287595324952	-1.58523062514043	0.760514636497694	-0.513416349258142	-3.07497187219697	4.22856454628343	1.24169345434193	-0.605446322305527	0.371481009764591	1.61078099441499	-1.81901528722092
"ACCCACTTCTCTGCTG-1-33"	4.0885287599106	-7.34320353324406	6.88975804420406	-5.23918801964558	-1.99703143784572	-0.557562330795469	3.84500951383556	0.231469176489251	-1.57420366432593	-0.552282678980829	-7.72791403067259	3.20486331516953	-4.68956610978265	-2.65436963121289	-0.297782608769349	-4.2507560152927	4.88550381151612	-7.69948284242696	-3.16149370212212	-1.04001604587904	-2.18230920155387	-0.840314247274844	-4.5541773282021	-0.549967583965788	0.339979703355905	3.41803535424568	-3.4405261477805	1.41955402829241	0.392146222130037	-0.767400275370708	-1.47488140355839	-0.0726877299492898	-3.69439716855798	-0.191268124852437	0.167532415530878	-1.36312386695647	2.84395817417712	0.82700385115048	2.27084710670433	1.26598023799294	-0.753500309461521	0.867357800330717	-4.10733131785747	0.934270113361549	0.20298886542676	-0.916691432179322	-1.45123358932679	0.418004828301325	0.131177743862669	-1.18235008730371
"ACCGTAAAGACAGGCT-1-33"	0.0840471371630064	2.22941711234205	6.65246974647388	0.272302218750028	-3.23346625307464	0.27137280209361	-2.94935035052867	-1.38671214565692	-1.70449019772901	-4.37914750611787	-1.51406719433522	-5.84810555995563	0.120785584974288	1.44357000362584	0.668839108362407	-2.51556898960195	-4.2625671295584	-0.341714477530096	-1.80781907185665	3.18309927746992	-1.41774633302517	1.38386970113169	-2.39396737787747	-1.16383892944415	1.21108686853899	2.45003716373503	1.3742376706577	-3.09910587390553	2.14349458358722	-1.24250152385731	2.1289507871463	-1.6931608226518	0.0511836854657032	0.000157786484801467	-0.164223483900927	-0.401347690877962	-2.25233495523779	1.23420146938687	-0.325342868952908	0.586542827157172	-1.96795412046595	3.64804122144329	-2.34623038917562	-1.49743832626998	-0.198655018081868	0.251007637193091	0.862377309127367	3.76484654679403	1.35421768204329	1.43185581507142
"ACCGTAAAGAGGGATA-1-33"	-0.409701440306422	2.89331901523686	5.78558538329592	0.398776939107396	-3.05513062988263	2.93421291418342	2.23194059739086	0.966438193670171	5.53339057683837	-0.343160139863075	2.71047272684479	-0.753964964665276	-0.661348312668363	-2.14081768501683	-2.10891724883047	-3.01370249299089	-1.8794296810074	-0.129546938091799	0.84081485784511	-2.15623106503053	-0.896819692307574	1.21384041802928	-0.145905150532589	-0.351379957195571	0.469701189253061	2.34437508482303	1.38675087645961	-0.983447663791212	-1.66725092176931	-0.637184097819204	0.749643605716556	1.32269091402725	-0.142183953240297	0.40283184562637	-0.235287024561008	-0.489439284694058	-0.411725230675366	-0.262222141107459	0.117358107751331	1.01048633931709	0.132189871752503	-1.42235313244252	0.169135561924769	1.03520392106857	-0.181301246620409	0.625788293124414	0.99484683212513	2.16556853132542	-1.33832226288144	-2.06720438048139
"ACCTTTAAGCCACGCT-1-33"	-0.240511968630837	2.69577860332946	6.43135137572028	-3.21609627514402	-3.69847779374704	-1.19340782368018	-0.861983205165498	-1.951167052972	-0.841246331948379	-0.6099967104559	3.80313592724976	1.45244538530093	2.25199317561055	-1.48750547473806	2.29132350398636	1.17012572346353	-1.47453772975204	1.63329231641564	-3.92136988310363	1.14169374877559	-0.674497617762265	2.54107899929697	-2.50434985274251	-1.97110058680323	0.520056457091733	-2.17890524120876	-2.03736689527762	1.65498148807361	-0.391720919912901	-1.07974986535139	2.48782013869895	-2.71289918699476	-1.77654716206959	-0.794494758250341	1.76840454254823	1.14420774023328	-0.269295699732372	-1.19999608573103	2.11827715882991	-0.00162814863020829	1.18569724125654	-2.73078684179856	1.02983445261797	1.59233272265971	-1.06323455065377	-1.17236988395614	-0.802072685069068	-1.8429609943186	1.33901043208021	-0.325671390430211
"ACCTTTAAGGTAAACT-1-33"	-2.14189905283675	0.37092702671724	4.06452293653322	-0.605327214578373	-2.78760133040107	-1.34148556195186	4.18273646346794	-0.87594987821393	8.07547085328411	-2.97387271235968	-0.135822107276943	0.679982844212707	-2.00091370804549	-2.81719545162849	1.62631525857964	-0.0343398586945105	0.148304648625269	2.68504254776609	-0.531370088869085	3.15059998627298	0.987155737186372	1.85994074940047	1.87831798396235	0.640447220997535	1.13792932995197	0.570251136950681	0.104084956173713	0.960995183407347	-1.22938884641736	-4.10166620581071	-2.54549081735734	-2.62944171892393	0.894257320374328	-1.48568777367272	0.32142770059956	-2.00262605741395	-0.0881857134660909	-0.920766454500499	-0.661744318425734	2.58625949873742	-1.14503832037891	-1.77023489455887	0.0761181181826071	-2.52867270092548	-0.726100817367813	1.24679484465853	-0.801600700500629	-0.620766837900794	0.544270062572942	0.449474255329621
"ACGAGGAGTGGTAACG-1-33"	-2.07154943948552	1.81539262250869	5.8526168165035	6.28431798742152	-1.57000778856254	0.136009627580033	0.450756107468604	-1.76363186949585	-3.31182254557378	0.347624787380674	-1.51908274687515	-5.32824650530581	0.562529773217884	0.0462293150665314	-1.04202015377294	-0.156336654493079	-0.120826339387124	-1.5377163330478	-2.98552157557129	-0.2354589105031	-0.356153651955656	-0.364641072825271	0.934509112459861	1.19021441540048	0.509286366912907	-1.80120763115228	2.83333148866645	0.227808977924798	-3.94071305317449	0.152924315714444	0.792206747145261	-1.77534003356727	-0.511488942414608	0.914985316778791	1.75219978564413	0.398673769556723	1.15950516241743	-0.175944493180878	0.0071435478194614	-2.1779656561729	1.0532941894045	0.843606947532975	1.69160834781883	1.4873035701319	-0.594802980697857	-2.24433454546827	-0.384967666933571	0.189918203085894	-0.339504888691393	-0.988393260776484
"ACGATACAGGGAGTAA-1-33"	-2.30733995646422	3.79603037869622	2.35047674522439	5.1494628262685	-0.711049683428902	3.01156762822919	0.808366793136632	-1.17673786858212	1.48977480154848	3.40196880321411	1.88767652922683	-2.48268287154837	-2.62446533297701	0.00682209725189213	-4.39116856372119	1.37956142156065	-0.862962088594618	-0.192983237879652	0.635999570727917	-0.252802682316256	-0.704086390611494	1.99464227864225	1.07005596576918	-0.69728106502936	2.19711817477538	-2.62511625719838	1.21732446296084	1.98496774225605	0.515206552845705	-1.29280917534102	1.23414747920791	1.00753224458515	1.8329636839977	-1.66479737950947	-0.249255052673358	1.18896827163651	-1.47291087104576	0.52698750184051	-0.168019001002845	0.283245024736424	1.97417307613618	1.32165474009381	1.38551575672353	-2.02453712548989	-0.59122704171987	-0.870622184548253	-1.34320581152695	1.57669336308283	1.04789458099036	1.34220743100067
"ACGATACTCTCTGCTG-1-33"	1.31254343209117	-2.5234046106845	9.18015301585804	0.08123020862427	-3.23941487852946	-1.12996692659361	2.41575566647869	-1.24463954925502	1.15384585648659	1.23020190800718	1.27859170795203	-0.867507583950267	0.318754650210202	3.01499123258526	-0.185522114521004	1.23584850216394	-2.7237870627267	-3.0684796791135	2.2019953594279	-1.50946862215501	0.583603514810319	-1.11381618313053	2.69614353392417	-0.730894836749444	0.928605563377257	-2.43780148605992	1.05551619696509	-0.949871794166929	-1.39066439091008	0.484896777950509	2.51915819782258	-2.22731012082721	0.31545927789711	1.02146282413844	0.235055888238894	1.85137198279049	0.145221850343337	0.600570863974274	1.3590235585894	0.420179216512792	0.572268584504145	-0.10664238173031	-0.492809574902432	0.553208334607854	-2.17789694663636	1.5623521785957	-0.0772543027457085	-3.12674609146359	1.37456475324814	1.6019602847985
"ACGATGTGTCAATGTC-1-33"	1.88830254013584	3.33202480377195	2.54893207409769	4.06403001519804	-0.921117345144505	-7.31748898844631	0.34523591196009	-1.47752075738565	1.05536200312891	1.80312383505869	3.8889440716756	1.80075295431649	1.68932099683589	0.111988451107935	4.82656557578042	-0.368165183784001	-0.935398736056063	0.345547710419966	0.654025719164725	-2.03719889087196	-2.13611840719656	-1.5640582903621	-0.188095608645735	1.00448412220068	0.200766815862307	3.37903863977972	1.15114396642692	-0.399045702761473	0.92323229679564	-0.835897147271229	-1.11180069109222	0.981097545772292	1.41204564926382	0.569821842275583	-1.22985267450491	0.988705034386773	3.56512917230286	1.15395677943702	-1.48948209498586	-0.532137064257176	-3.14194845790797	-0.646762092803998	0.438158765270912	-0.641643402943228	0.56533162074101	0.393703886059271	0.367673014113328	1.05749110444981	-0.319822906778623	0.458701869924949
"ACGCAGCCACGCTTTC-1-33"	-2.196922514154	0.323336949177849	4.91836388777202	-1.04584547063023	-0.608242430827779	0.38562635742607	-3.14745488441475	1.30258682586468	-3.07079450139526	-3.30562890423707	1.13187929713204	-1.99639056675538	-0.409964300722546	-2.87513120883209	2.19794471514397	1.24404607441142	-1.23600830527435	0.906900061008273	-2.72899561300996	-1.18248079635321	-3.4456891631469	2.05397989397416	-0.721775829305442	1.02648474010027	0.34373874459897	-0.481977493742731	0.907560415190531	-1.42796235576409	-3.33898481213659	1.50921882211006	-0.0273180080496333	2.4515783966429	0.630089998850797	-0.380310504433602	0.659386543816105	0.0640060573006688	1.96647475580787	-1.63928647061199	-0.779529939718273	-0.946353538404102	-1.02137037378266	-0.783077531888024	1.64359945775437	1.8100245506531	2.38489758098939	-0.708423364086062	0.612738188622709	-1.39530780184883	1.86603575624115	1.7138485656387
"ACGCCAGTCTTCGAGA-1-33"	-1.38303438657897	-3.15156150978247	2.31235811057817	-3.47337348673573	3.09419548440889	-1.93970413180875	3.99606113670131	-4.72362408847029	0.228302141983508	-3.86655307312517	-5.57900796090231	-0.537627318225884	2.24454030690988	-1.49869380318199	-0.697421593249863	3.67233439117541	1.65008459034576	-3.50992227004528	1.44931845594817	-4.45747538621019	2.52418196962698	-0.765385592767369	1.7348198448801	-2.53920551077036	-1.97423085502074	1.060724054289	1.10127385955901	3.37863381256256	-1.63231312689408	-2.81719379777038	-0.616361194868668	2.67013615909596	-0.67119563270474	-0.167461175718728	3.28650551575185	1.18326886469981	-0.230622748679332	-1.03542782637851	2.80164263927279	-0.327564414855152	0.731011747015716	2.57329111810882	-1.84063450565832	0.435237486522525	1.30623922639197	-0.103704384540902	0.277295397669688	0.88497272100858	-0.895742250301574	-3.24420099890129
"ACGCCGAAGATGGGTC-1-33"	-1.59906433494101	1.48065290327488	5.37441017783716	1.47322881325399	-2.0245667453628	0.439309150408959	3.27577301733557	1.88194137222864	-3.52276497659134	1.68683219221837	1.46227626297239	-1.08413782999894	1.26818762414045	-1.18262707433334	1.56775920661076	2.34955134165566	-2.01389278265089	0.238981370745902	-0.575796745354676	-0.889604618520637	-0.523374700234328	0.827239233033635	0.920415873036797	-0.64290142667925	1.06607652074423	1.43942344237823	-2.69962865515506	0.632212946262015	-0.14036594019928	0.718131747880417	0.342513492711418	-0.446062827855408	-0.295670993878634	-0.139684617863919	0.712381889972909	-0.0919347188119834	0.252502088055557	-0.688509479625866	-1.89183301823508	0.359554363140361	-0.570467862993008	0.407939558357094	0.125397461459876	-0.293075357961445	-1.39705616305785	-0.619410972114064	-0.349305079594243	0.112689104185099	1.29957550242827	2.52030381292975
"ACGGAGAGTCCGAATT-1-33"	-0.643443217017069	4.69210419705706	6.10960649377531	3.91785587826155	-0.106108338996984	0.893498391036524	-2.28090217716528	-1.1239745633587	-0.153890542308053	-2.99927358362616	-0.996095574329389	-0.772156773607072	1.61306580560302	3.98355805078974	-0.537957130749107	-1.38616183062311	-1.14453305848354	-0.746671392246381	-2.6392791830526	0.991240999186816	0.808004513324923	-0.625575807969656	-1.97306119979168	-1.78413422411405	1.08968453484075	-3.33198071569119	2.35446753506293	-2.91631141054859	-0.0472810346489781	-0.184501302338332	-0.453737259671559	-1.74782738784343	0.206176996037208	-0.373209849902364	-2.54275280648813	3.14687401611327	-3.18318258454626	-1.45418485813881	0.691816479179318	0.776073244063944	-1.12282051061809	0.459440493818459	2.04161194364065	-0.232491292321805	-0.76377882177693	-0.722939875942176	-0.9729146828207	0.193189672099934	1.46927157450233	0.239424978557439
"ACGGAGATCAACGCTA-1-33"	0.0834515736287461	-3.63263337794839	4.18626487592287	-6.24520746116172	-2.19529346939305	-2.94012186297224	3.82777813918841	1.26871876215372	-1.6379353166711	3.35566278789901	-0.665895658673705	1.32961515840599	-0.165277798276871	-1.08970946630797	0.804637763844999	4.8572379771036	-0.381847191669722	-1.24107519024221	-1.20141806593068	0.055763200148438	-3.15678769797622	0.63125599406304	-0.202227895889014	-2.25307944021535	-1.11025490201723	-1.25698753853176	-1.67978489814327	-0.942769016236541	-3.12627236068122	-2.43942873840804	0.0196878803545913	2.30901694485063	-2.81683875404222	-2.08564017915409	-1.16003717494978	-1.66231869403958	0.377108119721919	3.46571566901918	-1.56376812973314	1.00278711249198	-1.80254216766027	-1.42078584531713	-2.08934864771638	-1.17859040022609	-2.3015467486951	-1.34031348401628	-1.3686579638925	1.03139318899903	0.147440692254842	2.42093589650592
"ACGGCCAAGCTAGGCA-1-33"	0.18504022140305	0.101629889074803	3.78225386566721	-3.28521724856058	-2.0097963122623	-2.92869143436528	-2.08547547874919	-0.935142620406989	0.729289546637698	2.89224031819879	1.57944258993087	4.37838325276285	-0.291502814837925	-0.632101761536766	-0.641466649857178	-1.23539289217855	-1.89519810831599	0.67196956943695	-0.727549788979223	-1.37310513013071	1.57070495025195	-0.567253517421708	0.797086778245142	0.720552663867471	0.058731949876576	-1.1015339446918	2.22591590751452	-1.63750063872877	-3.22422530474924	-1.02685758448171	-0.0652638795928687	0.995635713346685	0.214138719831423	5.22224612578625	-1.05601591064401	1.29965463113608	1.32626564445197	0.832729943537919	-1.85475792564243	-0.511361292839057	0.00240347615220596	2.08650909888119	2.05793719688447	-2.3783658852172	-3.75392932132029	3.50732866139975	0.988093313842912	-2.65676084809002	0.511558753220408	-1.22915816095004
"ACGGGCTGTAAGTAGT-1-33"	-2.79256143903852	4.01234019224839	4.97904434392435	4.35207945833942	0.427380591952746	3.75991149330234	2.26565184468031	2.0624709560808	-3.44191460284979	2.43240337578654	0.452151093110237	0.00623109044041994	-0.416022236907131	-1.16125958440205	-0.751646092779374	0.320814035737722	0.30831406539048	0.901281769894594	-1.4943907552258	-1.52657945467301	-1.64977376375946	3.72908249087056	0.196436963797752	0.868683141711915	0.714580677346003	0.17446694126311	-0.393561414822291	-0.127973807592244	-1.1597597641297	0.399291538464112	0.263353239825806	-0.221369037259486	0.977921126501723	0.324004780821822	0.437477317641696	0.787139328827646	-0.938490740298711	0.334576795448781	-1.47431187077117	-0.18174287703474	0.286223791746366	1.1124368990919	2.15279182522916	0.683560796124894	0.630038313030798	0.842610496049458	0.607367619043725	-0.237188609392638	0.396703025827647	0.698881030543278
"ACGGGCTGTCTAGTCA-1-33"	-0.279231517550505	-0.972793412361613	5.51646669013433	2.20832893400079	-0.619132585214421	2.25615877435129	-0.182680768353337	-3.12675060754044	-3.87391851821122	-0.82875369473478	1.8504858678051	-1.59625921435537	-3.09289443178593	-2.80368328640258	1.29843390159841	-0.779559091129199	0.458379773550323	-1.6555399235915	2.14503017770243	0.419109747146197	-0.422539255780036	-2.61825349173162	1.45326563278897	-1.77359453395622	0.362352244943151	1.39444809807016	-2.12109913196403	0.0933047813076188	-1.17053381513207	1.33529667814896	2.48437602060325	1.77543883747299	1.78917211060667	-0.912913265697314	2.70629123169678	0.329574012592051	-1.67912759389088	-1.42707972914509	0.810106288954728	1.44191232782361	0.741980351078	1.23718376681664	0.484387281443432	2.14872733213426	-1.55716245994489	0.648891374706495	-0.533144512904388	0.194808867551403	0.640303549310405	2.1401732727079
"ACGGGCTTCAAGCCTA-1-33"	-0.839470183411147	3.58678084267861	5.41174086739727	-0.329597203973655	-1.11953130467929	3.57502317692098	-1.70169718780951	3.89224204371581	-3.46051953210507	0.000554537421985096	-1.07966527126378	0.483454148759612	-3.94000516846058	2.33951607386811	-3.15962292080222	-1.06192440728562	-1.41024417082696	-2.4657634797606	-0.658539654198019	2.45974141325052	0.755767994960707	-2.45836045446709	1.80730946690252	-1.21719056260377	4.0056585977363	-2.78313107837438	-0.789958164292861	0.783572177736641	1.46530145650804	-0.749674637260282	1.69817408985034	-0.274364938369626	1.91341801708612	-1.21318022087732	-0.0431231954431751	-2.13347775949498	3.65553462859168	0.778511010223748	0.0413785464973285	0.825752131502668	1.86992067107681	0.307866426346085	-4.52701097775058	-0.0329830469541188	0.645239359636412	1.00548337793345	1.35215085863611	-0.479648433851081	0.420064573089899	-2.61925128726666
"ACGGGCTTCCCAAGTA-1-33"	-0.608779738703276	3.1816261077235	7.45575705144442	0.698444832341065	2.46565685990987	-0.536968555574889	-0.420072915302285	-0.817888988610966	0.158994797833626	2.79833274052737	-1.06361865268271	6.01395303890431	-0.262336952469357	1.17242927273023	1.67939183171561	1.6899528632504	-0.591164900047574	4.87731192213493	0.661867000344161	-0.87115864953257	0.490057957631007	1.67312811007275	-0.768244982464573	0.154144297997691	-0.148484891176857	-0.468094401330142	-0.209147321664844	0.575000632657128	1.01085727648037	-0.949355606271975	2.74454740485121	1.17764167375126	0.0400211170459071	-0.764595501687779	-1.27028747252821	-1.13628408703962	1.77647066247516	0.940762397552196	-0.0352738121158973	-0.133094420735972	-0.619446259489576	-1.19798080718438	-1.79632735567822	0.547318230459352	0.0691471352422818	-1.24880335385652	0.430862456822971	-0.926231906302334	-1.335515361161	0.617960775703169
"ACGGGTCTCGTGGTCG-1-33"	-0.092907362718126	1.9859674163353	5.82025451382457	-3.1461141700976	-2.20721153579128	-0.535778342246765	-0.0274773764219821	5.50573623377972	0.266226665736473	0.552690389512555	-6.13975013013516	-0.341533897258577	3.60248183317113	2.45026147054873	-4.00520746054092	0.22744910863759	-2.40858988172687	-1.21185734419223	-1.93500013028826	2.9433742490096	-1.2217064798956	3.01833991042304	1.52638251509264	0.353041036241216	-1.14460966190254	0.361016450121354	-3.62699551705493	3.0090096709877	-2.85090402294431	-1.05791793270876	-1.79028355011932	-3.17372165450732	2.03648348058084	1.25512396134449	1.29055525185243	-1.3866460203994	-0.633238679127009	-3.12306863072919	-0.19864380618936	-0.804239006536126	0.71203742384876	0.688991672269504	-0.427373077160082	4.05727326257727	1.54980200368263	0.10260568413798	0.701775966476038	-0.288013983696247	-0.974311085091201	2.32181460969556
"ACGTCAAAGTATGACA-1-33"	3.39472032388854	-0.155944453121579	2.50023110697683	4.35592035500667	-5.19720466992355	-10.1909192251995	-4.21907658005452	-0.930455481243758	2.32836423006017	2.52093167112064	-0.237226589975344	-0.96604066301863	-7.61627479507369	1.18412784551357	0.74902343550355	-0.503338441872006	1.5486136008774	-0.255751291790685	1.61203591579981	-1.46639016209169	0.837869112800406	-0.96433801081323	0.770845375339454	-3.03517710379925	-1.749525532945	0.573524981155453	-1.76475064412099	2.81331423689589	-0.461880342337232	1.88914025797326	-0.13566323759764	0.380820468393304	0.75249661254586	-0.309051082733123	-1.81659013000054	0.635873152971005	-0.603228075078012	1.06712737410282	1.12134050834373	0.645266561632028	1.14945544244963	-0.760803532829091	1.66177347392933	-2.29855361880983	-1.73480674384253	0.890688592512116	0.768703945120222	-1.10190097035218	-1.75301971978077	0.244274688784525
"ACTATCTAGTCCGTAT-1-33"	-1.0162941784968	0.755935482174926	2.78915880926274	3.36030348180028	0.317428574855285	-2.56776626548091	3.43515436964658	-1.32692481529703	4.80164360959505	2.01547937359755	1.31372153570071	0.122297249268724	-3.48800247135864	2.56858718379105	1.68061168716496	3.10430041872421	0.511658815969922	-1.42304761039369	1.77482278867066	-0.696158187002662	1.12065443363226	-0.521649918702279	-0.811602991828066	-2.08908625339456	0.993924174848518	0.436462648502047	-0.981637135381941	-1.09137913405995	-0.155090943566115	-1.0346842316546	0.801885615068269	0.65171654335785	-1.0229465245218	-2.915652367129	-0.358621857425063	0.337652963891737	-0.308450358725531	-0.296577564213272	-0.188291538937356	0.981951553553802	0.227180932212721	1.8821597616277	0.907278458488026	-1.16990230188017	0.219191355426916	0.933087545200634	-0.7080049007275	0.0247387079900787	0.594979220601249	-0.0170512960188248
"ACTATCTCAATCTGCA-1-33"	2.46122982363859	-1.96073129115767	6.28220788431975	-1.99395910673109	-5.51366050166718	-0.254315126093412	4.64280121304073	-0.309262605534064	2.44312026648791	1.78952055390912	-1.78711799679577	-3.09252805289484	-2.3586161923875	1.13791161986599	-1.49962195968221	0.0441007406767007	-0.155014852838789	-2.81655792366122	-1.53253812999929	0.576477161492714	-3.00517974196557	-0.134913362142035	-0.580817351841192	-0.117612212037533	-1.4540714517937	-1.39794723010414	-0.271348167565035	-0.991083953065898	2.89335158994213	-0.5240538254725	-0.430959400756014	3.29849315040666	-1.63268253149362	-0.993336370419211	1.69325575683976	-1.55859229610783	-0.909724028866581	-0.773120862387453	2.68971723375007	1.72471913901468	2.52202930580006	-0.691920049178749	-1.28203841878134	-0.597891818572316	-1.15188321753733	-2.09333070850281	2.71873433997698	-1.2749818110149	2.21695061794289	-1.31011718355371
"ACTATCTCACCTCGGA-1-33"	0.233275445504834	-0.501871604440487	2.92705883788254	-2.08524859786816	-3.56006983932943	-2.451609070328	1.2663455474739	-3.67186595581028	-0.205325985019307	-2.17190644992228	-0.431000926812104	3.44141703314574	0.797272234169431	1.26228026383659	-0.18924692395562	1.03038269955482	-1.18875941377489	-0.650689353502816	1.23320131035425	-2.56345802182061	2.44109551143669	-3.22521576372756	5.74866693422294	1.49067874633451	1.88740698328098	-1.99855042945531	-4.15465411602843	1.83419902151431	2.06874605554879	0.456331943235456	0.915386416723768	-0.129414068135371	1.94092342662044	1.63473015853253	-0.839004667092014	0.0414539688281644	0.761482798129638	-2.32969078328808	0.573201101342742	0.0679033922912033	-1.35748292582534	-0.330527244569273	-0.599923256942344	0.668126002996149	-0.059839115273795	3.64899817730828	2.84070736666904	-0.304081714757004	-0.0871085666460579	2.38279838785243
"ACTATCTTCGTGGTCG-1-33"	-1.3393349777005	3.67704621324497	5.2610955770774	1.39008494212775	0.0521962940508628	3.01395445511952	-0.429643115326767	-0.872179161690163	-0.551804369045187	-2.37713211129451	-4.66827177822213	0.290876736474497	-1.38300382023765	1.17733105140094	-2.17716544031006	2.19793321700265	1.19822286974142	0.338786948463846	0.305463088303022	4.19676016090812	1.24641047542097	-0.550535821433445	2.41815973481189	2.12210030307405	1.12123516858251	1.21380529327905	2.64219431905071	-0.529419564582913	2.16750514511833	1.31552685521157	0.093513711064744	1.31314682793727	2.91937231041996	-1.35145584389489	1.39943204248286	-0.634833356445961	2.50570798603934	1.19347863436502	-0.37023907148653	-3.17743495637087	-2.82250160799497	1.7515829857713	0.174423195189491	1.83742301936597	-1.16354042870626	1.18779054936514	-2.38842173876881	1.81263199209722	0.351584670241906	2.59331774112357
"ACTGAACGTCATGCAT-1-33"	-2.50893580115366	3.31825178688819	6.42183634515227	1.97619949147876	-2.01330439675916	-1.17083186710488	0.885130066727969	1.30496651226879	-0.899461083394556	1.16908183908818	1.56062124566307	-1.03853534397632	1.36994583373151	-1.43325027335692	0.484022205647206	1.16303365897828	-0.00159485660232099	1.05558947504062	1.29680380410444	-1.86278477016168	-0.696731156135172	0.37450454436548	-1.29334161139157	0.179035514860914	2.36857875619841	1.31834813203273	1.1949592935864	-2.22197148880096	-2.80266277601507	0.683035916354634	-4.0054792154531	2.27299986013464	-0.625720914696894	0.896396650165436	1.28544118959576	-1.04237514116239	-0.357994986482937	1.07602755016114	0.844101403764869	-0.793992683629717	0.0587502212973262	-0.628435312229481	0.979614541976201	0.389827462328815	-1.37902889995031	0.965530645475765	-0.098485521392671	-0.385191492473415	1.76847474661027	1.35611457638918
"ACTGAACTCTAACGGT-1-33"	-1.50636493002485	3.080105989121	1.1040460872511	1.10954626956408	0.869353896106097	-1.02720733347448	2.59332042915296	-1.106879353504	1.63796478326845	1.09504554374693	0.810906714184122	-1.28827286733849	-1.10968215252155	-3.1726519097858	3.73649913093534	-1.40469357566035	2.78798605571082	-1.88926277555705	-2.01488208559697	3.58981218495673	0.062913737518019	1.38917491363935	-1.11843356992841	2.72275560701931	-1.19155205721826	0.379151319619971	-1.76072987367587	2.08168147647214	0.0490396871765254	2.18120156398936	-0.713751268447446	0.766546638700349	-2.00422620380383	-1.72266728017011	0.588882284072969	-0.150343199601418	-2.02237343642171	-1.64030317931976	0.736466451514959	0.368378017403615	-0.720742494841273	-1.89090648202446	-0.0780226043188837	-0.472574502459725	0.480347360285842	0.992267846518696	-0.281087705584784	0.204230604595231	-1.30475327213862	-0.951993488108188
"ACTGATGGTACCGTAT-1-33"	0.796664207154814	3.37636456209342	6.06715681666094	3.2576818962371	-3.22752728111904	0.950227549518877	0.690923276700413	1.40569116611916	0.562222424350428	-4.49024515894177	-0.941735106538504	-4.86945508237596	0.202212416314757	1.50379541530502	-2.82506848356393	-1.42172686101846	-2.79982996697182	-3.06477289085365	0.676468623744991	1.8787074560958	-2.51513692156651	0.721965431818317	1.25883634032869	-1.71660238316279	2.45130019269625	0.608981252278015	1.86870752715641	0.395417125222991	0.178051736059471	3.22791504026611	-0.0744198158623021	0.433851857593383	-1.58531655924792	1.48482584214548	1.33303717536828	1.77732919304675	-0.975200384532523	0.858491291642406	-0.253196632816712	0.498481897926102	-1.98840794686264	-0.322592277368197	-0.9446629865974	0.378207334504724	-2.33204535810805	0.714394255290215	1.5652092701488	-0.608676068975542	-1.3029554225081	0.35306688609739
"ACTGATGGTCTAAACC-1-33"	-0.828399343365188	-1.24112166622355	5.02386896110754	3.48839089020158	-2.22772070377587	-2.34655905179257	0.420889976797353	-5.26058755284224	2.91101273644269	0.0661635631115761	2.15871800351066	-1.13107280316238	-4.63740834255266	-0.883527190939471	-0.554356247305301	1.71404251462032	-2.83545174585949	1.17919785395233	-0.383689569277794	2.61536737825565	-2.17561650076468	-0.332775912110577	1.69644891094914	1.57182276958115	1.07609176279295	-2.54008171058139	-0.4668229423665	1.24071334601134	1.63257048794359	0.980029102320417	-0.73029582644451	1.60937669924225	0.565598839914762	-1.54155345627209	-0.338321134615764	0.239303545236635	3.82513989778866	0.419146197411423	1.02815542737372	1.82940781745311	0.742679065142301	-0.0414982821687554	3.08299317549483	-2.23541933239785	-1.19139882191681	-2.17180143601003	2.09675947786702	1.62531582574155	0.538735181618582	2.4784566878195
"ACTTACTCAGCCTTTC-1-33"	3.90087238016465	-3.48152840567995	3.60634246974944	-2.40914953786575	0.101912380664992	-2.52118733104923	-0.640530858526989	-1.27331510117867	-0.596642931886384	1.51292352074754	-3.20767290489082	-2.51567602329794	-0.360572245322123	2.5539441258025	1.56396963787176	1.23350836879171	5.03533426547507	-3.64251364227643	0.371341426920843	-0.734033034120215	-2.26695786615682	1.51330002829334	1.42016813646972	-2.86827230482094	-1.19478278018004	0.290189921149631	0.670459130812381	-0.688875115891312	1.14614698214858	-2.4162816634604	-2.12322625558443	0.979204702186933	-0.203685768008271	-1.3152464350048	-0.646784963484926	3.31799797997753	-1.25367103485951	1.05558838593919	1.30626420845503	2.16538103540112	1.68038772958001	-2.15553691293957	-0.641930528991256	-2.98791929121557	1.91549697972536	-1.48694321174542	-2.36807413083235	-1.17180701258862	2.30098238869112	-1.26822984446009
"ACTTACTGTCAGCTAT-1-33"	-1.06632622581087	0.771615792723866	1.71373158001499	-3.88536879637212	0.411867953356842	1.18649557102189	2.84447643308527	1.27175546444521	3.63988254198981	5.10223411530184	1.45531208956853	0.106624175596552	-3.97507253717566	-0.438413455870389	0.403098783815126	0.131096771397175	-3.28448635860119	-0.202138514970161	-0.399687911646156	1.03279409698133	-0.501039403808853	-2.89597984036212	-2.42048832082477	-1.86496456004754	-1.04748359756949	2.4106570988715	0.102294648029026	3.0811973737014	0.974707803394798	1.66354180601783	-1.38741983621526	0.613910216037614	1.64697480220615	-1.25810912587502	2.03831557188042	-1.27787326248626	-1.94303289557915	-2.29794396242248	-0.816148276029491	-0.782738343201881	1.47875919072539	1.5440420315759	0.678183818905541	1.11036374650426	-1.17667036438987	1.27671917467717	4.64454793606317	-1.24421607326254	1.67419211466869	0.694451989280949
"ACTTGTTGTTTGACTG-1-33"	-2.25029818022054	0.125459015676312	2.40410250145721	0.514741101760052	0.0825304451509669	-1.86145465846772	5.43030499292091	0.459914883177978	0.628214587700349	2.62144762770389	1.33813194141219	0.208003154617677	1.64285748434057	1.02541663366793	-2.30993537731895	-3.04873418202719	1.17865249466539	2.03669862019518	-0.477462617393953	-1.15089277880163	0.0601936754484321	6.68541228513756	-1.25716146691213	0.239226807706395	-0.368718704035842	2.98638340807626	0.424707062966667	1.01162508646901	1.08135260952858	0.383386996340808	-0.53780491943113	1.98011800690451	0.253431651738044	1.44059623288418	0.495534215015701	-0.413145327721312	0.324234851852628	1.03897380532561	-0.0331946046099843	3.20849357961424	-1.62004398827586	-0.265314797562261	0.337351947489948	1.29477601846116	-2.22642945859341	0.420855904042078	1.32356941422011	0.474960142099666	0.928923112405198	0.148571996485275
"ACTTTCATCTCGAGTA-1-33"	1.80466794152528	0.681008808786833	0.924436741664096	-8.71290823355026	-0.236115819468153	-1.09421035818667	-0.452202983927705	-2.58125055323285	2.55878675124073	6.16587034968079	1.53916670283735	1.91907152019528	1.3211524522157	0.010697451172184	0.362005913687406	-1.25972500834753	0.733972390372344	0.644848674099212	-4.00491196033802	-2.58052511721835	3.81288929751966	-1.25340039828179	-3.914355341779	-0.216358830241331	-0.107880980794026	-0.771415583416836	-0.153038639515213	-1.68287363709834	0.730674294231461	-0.407952364956054	1.05042622461524	1.84226822766533	-0.357949741780719	4.58779270450125	2.09867020504358	0.084361492059725	1.51752709634193	0.938288175010679	0.603647772513198	-0.936302518157242	-1.27383196603492	0.252560501986992	-2.83773542097911	0.874503534212605	-0.543718660593842	0.403681025103895	-1.53759838531293	1.6406227665499	-1.18730255708982	1.32261510235327
"AGAATAGCACCTCGGA-1-33"	-1.17339385795226	-2.28873825286396	2.77659537870676	-8.74344827597812	-1.92157710047928	-3.64261250974235	3.54747189207237	-0.423784160565021	-1.12420948318686	0.776736744032566	-1.86424246113706	2.71439006734836	3.00529126800016	1.06338928280028	1.74937836472681	0.586641469653307	-1.07125395943984	-0.122445903446645	1.19966076657428	-1.78640432934952	-1.35665014173706	3.19975489424361	-0.122880594810033	-0.292503454384436	3.84497725871589	2.01879382680134	1.98981211174569	1.24988570085656	-0.937934706171824	-1.84543335134016	-0.0628955568482207	-0.539204435659994	1.54138048483023	-1.97428923564795	0.0407307057829254	0.428276881640401	1.71991305811242	0.181041145434278	2.13296739872915	-2.20878390714291	-5.54888701797516	2.68447166161931	2.78716374389457	0.676366681830756	2.67628651427688	-2.11787954083337	-2.25439369784352	1.52653424551166	2.39929691172243	0.0106052429765088
"AGAATAGGTTGGTGGA-1-33"	-2.01008395578317	1.61923330422386	2.30256409413511	2.69321436580089	-1.55988724209101	1.23345690964791	0.364955360536081	-1.04132686604898	0.398039282715236	2.74855525771002	-0.0540676822749166	-3.51522807178135	-1.63538550058716	1.13440930207924	-1.75990739631291	1.52872211734483	1.6634449089017	-1.21933612015714	-3.47539087231357	1.85273568909652	-0.069582611536376	-0.501102898711878	0.42430085069495	-3.85143100259444	0.698756448757857	0.620390569892563	0.515865914243894	1.59180228275752	-2.60805012623963	-1.16592337757692	0.478356448748427	-0.568771637291071	2.76367536209918	0.145909053695041	-1.43679505700297	-3.60240062138966	-1.77926962551208	0.134062741554773	-0.227308013607988	-0.459274964103405	0.650537704005855	0.722714916674622	-0.225805129313231	1.17073621320937	0.0704144852167579	1.33048147588802	0.902526995717353	0.0611456166687108	-1.87347900146929	-0.120839150068081
"AGACGTTCACCGCTAG-1-33"	-2.25985967666304	4.40942541666946	5.88708339494783	3.74885783605462	-1.30298031867253	-0.672507504748511	-1.9428885806113	0.426864505177501	-3.0827509422478	0.317797700986616	-1.2370623362419	-0.888340040702297	1.41470293802644	0.751308722792589	1.53314214822029	-1.42583437648789	-3.68060113501988	3.38379778085419	-2.93758297302149	1.82295947267884	0.756163728468606	0.0410783823924175	0.849111757105792	-2.51739856307601	0.491243272483467	-1.60169459557329	-1.55645985752583	0.662192423846873	-2.77993823957154	-0.586371221974811	0.215732241698781	0.548634524895586	-2.15571824242687	-0.903216573681556	-2.70648012859918	0.0791019763086331	-1.51419107630234	1.43049264299786	-1.51199408583362	-0.97794963293243	-1.43177733248675	-1.36610209590945	-1.15789555218292	-0.620672380553354	0.950006065508911	-0.234996467314418	1.02298624414406	1.23161329184283	-0.15387122584651	-0.736995870307395
"AGACGTTCACGTAAGG-1-33"	-2.60099628187337	-0.0878076859203903	1.93857065617062	-3.62020158544459	-0.508716048377931	-1.77258310285633	-1.52592780468874	-1.28319328746264	0.331617483388477	0.933635102919881	-2.22660841295823	-2.55679361796764	-0.173833523067614	1.2705594918059	-3.4323652454569	-0.327543929445689	0.360167320227055	-0.312138930013361	0.34932512161423	2.31240481926487	0.851605126322532	-0.37782309253492	-4.83328080775668	-1.17135723787996	2.40326694019526	0.264552572869754	1.8432756843069	-2.64519591772773	-4.30874973036748	-0.755938595321881	-0.443099829286767	-0.864873006207808	2.1255467088325	-0.566203366301134	0.0102049390727999	-0.64194434984991	-1.61052308170775	-3.31808434974142	-0.0999024086855009	-0.584963082230451	1.84856112135552	0.845158800779338	-2.62546137253601	1.44506728744221	-1.20017470781659	2.37088146665376	-1.55278554812086	-1.29149194258528	-2.31527962754313	1.84394057482989
"AGACGTTGTAGGCTGA-1-33"	2.68951447151816	-2.50762015416348	5.67622913133477	-3.17920412820193	-1.22580686583001	1.81843093625407	2.12241651110778	-1.76174547132652	-0.797844529456624	-2.51654650663044	-3.85668536915164	7.87971469335782	-4.76419423479727	1.08171637469748	2.89153459087127	-2.77702769205842	4.47840578232052	-3.67676210536696	1.58090551902019	1.98424170907443	2.93528740762265	0.663617093592634	-1.12523717386954	2.22265961096616	0.297657970816183	2.37765761449173	-4.18192557363375	1.5973738493259	1.4384074571656	5.60520391162258	-0.756313234971942	0.753689515329415	0.533787170080794	0.019262557994049	-3.17051306804386	1.36477238922168	2.60778122229472	-2.17691466895774	0.748530171040201	0.954868101366856	1.80209478337428	-0.824377093329776	3.42111213110877	0.4363504997577	1.05566804090641	-1.08945931030439	-3.0732233852474	2.16323742081121	0.346462833563616	4.054780005268
"AGAGCTTAGCGATGAC-1-33"	0.74033739889092	2.16512615697973	6.16457467840422	0.690942741405003	-1.74517009468005	4.73849749875129	-1.83360759677283	-1.27934066837588	0.577509645819957	-4.019874955924	-4.16567045528812	-0.419640032694723	0.0757906124999254	2.69335283707013	2.46624979714739	0.61894766168729	-0.194341301649031	0.0973882497708711	0.944753639239174	1.42290561368468	1.30439771470193	1.24071888328674	2.6228518968386	2.47709042642615	0.183035552439101	-0.676860721754727	1.16640942014968	3.37954792129018	0.217297942841476	-0.762881835764431	-0.968051287521199	-1.03111378102771	-0.914428871924581	1.41109508258937	1.27974147927269	-1.55638573149467	-1.2963143178459	-0.709347963266009	2.49756856149172	-0.527505537611758	1.40468761051195	-2.6061615603233	3.24132778192948	-1.1316547812948	-0.56496295870708	-0.607088969898146	-1.93731861389838	2.78853206749449	-0.741452766992313	0.0437021138322027
"AGAGCTTGTGTGAAAT-1-33"	0.00560573703402106	-1.10189925771626	5.31610449787781	-1.03629409081066	-3.62485471007742	-0.671393293262799	4.06781891638052	3.29169415677104	-0.275804105794029	1.22914023952637	-4.43006965988952	0.835768568329158	-5.15656381410984	-3.05168420631396	-1.02757671597314	-1.85763862786051	0.318637573089862	-0.949192012795589	2.33822537975779	2.00035029154087	0.94376045131944	0.908034035573437	3.60218752025338	-2.8689890470354	-0.531760836180191	0.548363739852999	-1.49169883053962	0.356593634891138	-0.233274755381131	-0.384571060161366	-0.602550022466437	-0.838367444280889	-1.68500127230006	4.06422596309668	0.895326238510921	0.939116535322837	0.854356060064219	1.36734484901753	-0.674028975878292	-2.08413928753179	2.98199104243644	-0.0638385736217477	2.35467358150766	2.41843684736835	-1.73057820351497	1.11530240799663	-2.59744577240192	-0.772998210384175	-1.90637894722278	-0.577999531104317
"AGATCTGAGAGAGCTC-1-33"	0.107770896679657	0.2210789314168	3.952045542502	-8.92060936271976	-4.74991235499587	0.642670995101916	-4.5227249008498	-4.05254702149119	0.39001232870508	-0.0109952223276445	3.07573721233905	0.289854939204965	-0.0190416903451668	3.14015277224152	-1.20301437312108	1.73557006319701	0.319045724356017	2.2481733868868	-1.0917847283342	3.53852098491282	-1.92677680391594	-1.27105654636424	-1.79989362908363	-0.434567486278896	0.876147848386674	-0.485160800826215	-3.24345631495482	2.46919055188958	4.62469841449764	0.537662714681583	1.37351274149702	-1.61326774073104	-1.11544997526863	-0.00730939224352254	2.58872682039176	0.911639434819412	2.13584249471644	0.735892958016765	-0.351893826388452	-1.07267781245448	1.48415113241021	1.88552568953542	-0.830963265893613	0.685011540753955	-0.637209331030115	1.48298897444317	0.335408317366903	-1.24076823430945	-2.22974686440415	0.69269164091399
"AGATCTGAGAGGGCTT-1-33"	-1.0859282450713	2.65577374843778	3.58178764121536	1.46834550578573	0.635812552941357	1.19097863569637	2.91193922900802	-1.81039952296008	-1.31919196537243	0.525838393788154	-2.64407497974493	2.84102462717036	2.18942962344324	-1.07257527629524	-0.0999405012556403	1.85253091282872	0.131989027869224	0.698559118595484	-2.90866814394345	-3.51235014910909	-0.730085340654147	-2.8243654878011	-2.51621057439956	-0.415365416674467	0.636292181637864	-2.5206176139433	-4.50350112960736	3.03708287259472	-1.52657121208928	-0.414852172007388	1.72999433927674	-0.498294183874221	-1.14478244916892	-0.28579946652003	-1.28140072441248	-2.28945763417922	-2.6627021638843	-0.100124019228355	0.375499032170645	0.340089171853462	-0.44449288621948	-1.61516797371575	3.5757563569401	0.873172722667328	0.526759817048914	-0.102944316015506	1.04028947230425	2.37323592244599	0.43705683954174	-0.581163466864011
"AGATCTGGTGGTTTCA-1-33"	-3.62610777983027	3.382791287102	5.70602593405663	1.20576073166724	1.75315061676267	0.911471448901293	3.64156295969116	1.33590020502913	-0.205639605725901	0.92952916499696	-1.30262519215311	-1.44326640745131	2.8222880460909	-0.465442267380985	5.33526559029685	3.04013270286668	0.560310885935359	-2.0958217755039	-2.48862857950932	-1.6199813843095	-2.16120135986241	-0.345388754006064	-1.12055527967698	0.702318200015726	-0.726100850275031	0.652306381946373	1.11548781316315	0.347262510391552	0.126103856036456	-0.0819532061336779	-1.13623819943033	0.0701413009800577	0.377200930222721	1.40563634875256	0.353210784994697	-0.937787565054162	0.418081501900291	-0.85347649894874	1.93332040099945	1.19488236864355	1.52527719948925	1.51835392106893	0.616393732029392	-2.26772844879744	-0.368704601872743	0.41798719978321	-0.135107365305212	0.277964153348987	-0.46938926392658	-1.23140192333167
"AGATCTGTCTGTTTGT-1-33"	-3.57146546414236	4.8736475268881	2.35570586579497	4.05740083447153	2.27780681596792	1.09715275094282	-1.49151660486	-0.989458494248169	2.14676394739643	-4.95491236332221	-3.22045487108463	-0.0979990916550811	-0.0982261401906325	0.323850335601897	-1.11091894207483	2.41829619676685	-0.770008682155485	0.900919570654279	0.772729504646389	0.0896816925614885	-0.179282576352245	-2.41365065923842	1.98267810242065	0.259928965597669	2.72078944356559	-1.11130926270531	2.12136828197264	-0.103062632588435	0.820683200862795	0.949985051307939	3.28661530019862	0.875684819930469	-1.77321316012855	1.75875523479187	-0.288850251885635	-1.13695590387532	-0.0267232198462222	-0.078523959064506	0.534080141790456	-1.25145746366437	-0.535393749779976	-1.00463708800733	1.8432797515276	0.0219711349874573	-2.34048197376934	-1.04514984099629	0.176517811556605	-1.74096389294373	1.64774036806075	-0.91999103539035
"AGATTGCTCCTATTCA-1-33"	-3.2659461617643	1.26258462513501	4.98032186856752	2.23972219024857	0.0240327091832015	0.767441957397275	6.24803691055691	-2.14234784931826	5.09689948445073	1.99252060437219	-1.00143848788401	-1.15025019873999	0.440420306433666	2.22039620252525	-1.11156051072274	0.806916354538147	1.71126353444159	0.650408407286635	2.72146290989832	-0.683359210954756	-2.4910658060537	2.40768993161975	-2.37167480113451	0.0961886012468599	-0.307319386075198	0.451543633294455	-0.0373489221741595	-1.62660654858367	-0.966286246280964	-1.72392659899605	1.37071694753509	0.120294651194988	-1.14234297114393	0.795102875997926	-1.53203652164831	1.62778371004474	-0.828045424515877	-0.0979661121811038	2.10147847549741	-2.57750645235684	-0.42255638517326	0.875116923516831	-1.17162642546934	-0.385904101927408	-1.70420066116511	-0.691354537931794	0.313267810047025	1.75665390731287	1.49152479712489	-1.07838881990811
"AGCAGCCGTTCCGGCA-1-33"	-0.128441650036433	-1.11928056330507	5.4327634133148	0.484244590828255	-4.03320450728568	-0.839604538454254	4.90859294060802	-0.225871211405414	-3.74927275460171	3.58214560088203	2.19640481470946	3.28029640155565	-3.5879728083094	-0.393496983689013	2.96728471753808	-2.92018623059977	-1.38275369285641	1.72525165510398	-0.362281143845886	0.515887126072068	3.06146975110019	2.1809260972242	2.6987439478228	3.65312586761036	0.515912564437124	-1.61960854947573	-0.416096847260147	1.37904235967736	-0.312487131734031	0.187875942338984	0.404187302319721	-0.117007126027203	1.79365280676635	-0.36524453896089	-1.90027209127219	-0.772062188767293	0.247558838942122	-1.83025807869792	1.24808119074612	-0.932698500570489	-0.998573416148239	1.09281575839324	0.560344164942043	-1.93766971192398	-0.925037004654486	0.380848143860648	-1.19612966853123	0.0928479590077542	1.37184971628726	2.29479478771855
"AGCAGCCTCTCGTTTA-1-33"	1.00040962410365	1.49209075919528	3.38266868029577	-6.66507571384768	-0.906558060567077	3.75574187429315	-4.10910231792202	3.72388427498534	-0.219281004905062	1.00801947079537	1.87665141361626	1.61031538401864	-2.75418437002058	-2.64864677147168	0.167185513877018	1.44935246768375	0.13522735525166	-1.56422786650496	2.07002377469438	0.539306580708941	3.07308809004525	0.621805917748481	-1.89521064966912	1.5108331979478	1.28320400790884	1.53409494214098	2.98867104341926	2.19211869053701	-1.6946165117575	-0.0654769026713535	0.0768675063558099	-5.13340306943795	0.470432454973176	-2.52479838472902	-0.0855039024770133	-1.25690220153883	-0.77674894517672	-0.0643196019347936	1.82483430943182	-1.40756425889946	1.03118572024593	-2.94404238286948	0.972148603390094	-0.539262932123171	-0.132257920448541	0.0867938328795332	-1.17204266767017	-1.46717151315068	-0.809415649117083	0.296248185134014
"AGCCTAAAGGGATACC-1-33"	-0.151207601340236	0.359587366788432	7.19987698634419	3.12754641234506	-3.04889801177805	-3.59297680898925	3.81715824011946	-4.73078011150123	1.02960766123883	-2.64886727379134	0.423553762848298	0.649834108448466	-1.38601077252789	-0.566389587646036	-0.564016657903218	-0.214083968389944	-2.36695779898271	-0.938306531590321	1.87515178271636	-0.0169144082774689	1.31953381729753	-0.993972642788041	-0.5647818472582	0.360481483451504	1.65111254987554	-0.24821700551206	-2.04241548966299	-1.0231217736634	-0.841889162056317	-0.0348687359521126	1.29933045213398	0.776589138258456	-1.56826704899828	-0.448924112493268	-2.677023664232	-0.377660288881588	-1.67627840186876	-0.850417421791542	0.878749924270726	-0.248995537074926	-0.656953550513483	-1.42536081370738	-2.4375759246505	-0.300663308228891	0.798101675273971	-2.85839590024761	-0.9390040168889	-2.16241954171028	0.793608280769282	-1.68924589811555
"AGCCTAAGTGCGGTAA-1-33"	-1.50844652957925	1.70268345306912	3.02439215808321	-1.93334405505557	0.836727244737273	0.11965093887004	1.48361026167138	3.76375508788268	-1.46782693923819	1.50618393186975	-2.44292687392368	-0.11131900817767	-0.408198050016004	-0.298017094816065	-1.36601525237021	1.40104027297756	-1.11125830960093	1.87191862040407	3.53065227102591	3.35782114020427	-2.65240841799448	0.992032568382498	-2.2639892776628	1.04038315767333	0.0415091509838392	-0.603490376838328	-3.80718361997746	1.16247611621857	-0.72863119550949	0.51962549972729	-2.29864326850201	-2.5874140559365	0.207436719166036	2.52391049093032	-1.49552004054823	0.366796137059515	1.46248823142892	2.26484853743392	1.8240995525528	-0.0234922234834051	-1.22534803979855	1.12816282777169	1.93380780563872	-0.452054027786502	0.527086519691358	2.44146694200784	-1.29637962612469	0.242427993387621	1.49404341715265	-0.79049113608279
"AGCGGTCTCGGCATCG-1-33"	-2.77237430946299	0.866478124605344	2.65419805234672	-2.4247896787807	-2.07548426597097	1.49261634433756	-0.531184083171639	0.125831174371804	-4.25717368375971	1.56145798384626	-2.41378543504413	-1.63664755882436	-2.97549794537023	0.647589231220649	1.24875244433324	3.89682687632469	4.17960666763212	-0.367050946599517	-2.24383611200333	1.78232271208058	2.00843005863385	-0.499541108007504	-0.169807952976375	-0.164654045828321	-3.38282940577731	2.10006405144394	2.05334571975693	-0.442352956482123	-1.71831094626627	0.10804794350311	-1.26313403631172	1.43224059229978	-0.647421870614406	-0.313291465997784	-1.15823373715661	-0.976220335602298	-3.82482074843784	-0.697966727398267	-1.34487029284652	-1.15063522319276	-0.935790299599922	-0.864528336406421	0.0225698311386956	-0.945916066202495	0.91719627759089	0.386121695862546	2.90909940478159	2.05053138586254	1.50271922718241	-0.0252528445867908
"AGCGTATAGACATAAC-1-33"	-1.18563866099922	5.77666851505832	1.81162894545872	2.47121907087283	-0.0220143678892047	0.370930232655413	-4.39426757942017	-2.25206378191528	2.7266838422256	-0.143297081011139	0.343500534063717	-4.07174566118508	-2.39031335393535	-0.167373067788035	-0.89447032765927	-0.949000351587368	1.01832602813793	0.356495995983036	-1.07549545617597	-3.21403276523725	1.33778010974037	-1.61337528598248	-0.218025280866478	-0.539193710656354	1.68176393612617	-0.581043933105161	-0.117033811785247	1.5115588633968	-0.760246099576737	-1.2862853318654	0.972111903053942	0.018531808112985	-2.25376969272198	1.53026933479893	-0.538721597734589	-0.63291337577963	-0.812544770346571	-0.290638676033402	1.48909453888633	1.44791637687965	-0.322722542019499	-1.4436210832616	0.0294107005390177	1.26246771272104	1.28545738060424	-0.878897032066063	-0.756102710154856	-0.43080419278274	-1.3938966139587	0.227588417556124
"AGCGTCGCAGCTCCGA-1-33"	0.91301807599415	-0.618678000192827	5.57242627104071	0.601022796569047	-2.73014033428655	-6.1537046868573	-1.63138917212653	0.390434893075259	-2.56729258613688	0.0794359967829173	3.78072252325511	4.73807957389092	-6.69850785348748	-0.337170970269704	-2.33450924192987	-0.672101711484877	0.385996848154758	-3.0890633930435	4.00510556888797	-1.74996177472853	0.972865581998877	0.659488784802262	-1.01588685263528	0.914599473186576	-1.79098893122714	-1.23150264801464	2.30259758941806	1.08236349795924	1.61010008557387	0.187714876991688	0.94660141193558	0.422280459533825	0.911241790125629	0.378190991161139	-2.94665419021603	1.17918160730872	3.03867986779647	1.34054856646774	1.16339772069731	-1.88709342947996	1.65353717879015	1.24391469574333	0.940091899071974	-1.01665163821593	1.18687329983399	-2.42743132658849	-0.152778837214547	-0.906797371623169	-0.502944149671508	0.364012104611352
"AGCTCCTTCTGAAAGA-1-33"	-1.38821254946112	3.94112994853366	5.79142627122039	5.80991382320546	1.36589349507407	2.52791469240902	0.775055584257105	0.725159963732569	1.86160269193058	2.99339819895309	-3.20802905559645	-1.75267902953663	-1.81243347615126	-2.52909570857233	0.343889665079057	-1.73154899416285	-1.03039022342406	-2.12169961485625	-2.13518291364066	-0.198581038187063	0.0626698309703536	2.03665105609022	-0.568477804458089	-1.36351125004752	-0.840874570001265	-0.869643728799289	2.89143780497133	2.62490252796608	1.36234960639072	2.20140076370607	1.94460843968522	-0.801493557555024	-1.03174266755035	1.42664102872982	-1.23694772366759	1.89368913876649	-0.739254553409661	1.0000470609176	-1.20131719413253	1.40824000077525	-1.28368806074633	1.20700040880108	-1.26115590148935	0.123064190582391	-0.374918118625081	-2.05758247316153	0.287375619723052	0.582978709279761	-3.51980365703389	0.543678020238
"AGGGAGTCACAGGTTT-1-33"	-2.00609839799982	-0.743825051768213	3.14302216903415	1.37512735802994	-0.573856154043607	3.29474697266764	2.71021917655846	-3.31658729565696	2.60694009369444	-0.961160229591425	0.185693257659495	-3.34459442432625	-3.45199355483782	-0.265543823601163	0.578243336432994	-1.46305989242256	2.09177627470086	-4.55857164745084	-3.10206304699423	2.21185314030001	1.12358785551978	0.796815005415221	-1.21991260289188	-1.47445649004526	-5.02586053107796	1.95584268239191	-1.31721239830093	-0.475720690157395	-1.68685502153646	-0.768808076783973	1.37301845157373	0.997487357193676	-2.38663293593269	-2.50296440724081	-1.0847303628058	-1.18141283524701	0.953200577461913	0.437894782369554	4.15688375121038	-1.6484741631572	2.56637385301706	-1.50273226537505	-2.72090858823315	3.6002009620471	2.80301758551296	0.220635274320745	-0.193287730477509	3.49043740666229	0.21515477369126	-2.16450467616487
"AGGGAGTCATCTGGTA-1-33"	0.341751594826779	0.874599968570957	3.95414022905729	-6.87804359120672	-4.96125237302084	0.613840186569766	-1.78278459593069	2.65505465667592	0.133560300149135	2.50715264464479	2.86084252227491	0.147106145218474	-1.60444112020034	-0.901146937566827	1.47389061699292	2.7699307602377	-1.07908118481018	2.05814479703728	0.970129773047938	-2.01592996345416	2.07561534635439	-1.0920370981206	1.33030920734039	-0.405690581811564	0.481788757818642	1.03180390662319	2.14897419203536	-1.35359760697937	1.32401836374876	1.49142788512889	1.26497647249837	0.16834091517653	-0.29466649695291	-1.14333159283028	-0.372270670334395	-0.485194270697317	2.83510926759138	-0.759211164370516	0.957783653583111	-0.648195122504368	-0.973667729875988	-3.0008439959359	-0.177797121209277	1.70324563185026	0.499382664407957	-0.365170866809583	-2.67139132171638	-0.114066357765132	1.75111329838298	0.147968561474377
"AGGGAGTTCAATACCG-1-33"	2.55344324005825	0.466832342696168	0.822272328355626	3.13346743027543	-4.58257864248507	-12.4588998080782	-2.54254770572485	1.34682836122583	3.24879997160174	1.12864141830093	0.876182129899105	2.87028063960806	-4.31807224624394	0.241394669329372	1.65214013878457	-1.32442665464392	-0.973237486348364	-0.42095938024434	-1.08391902254374	-2.29887742945089	1.77336410752516	2.44713711773761	0.543441220790489	-2.03177979832092	-0.193106172271235	1.13939756077041	0.649914763914342	-1.74966087848254	-1.23084360006537	0.918821031649849	-0.0836874614023135	1.89151234597028	-1.12577191574149	0.498636869968784	-0.618371652186241	0.616137973339572	-1.78701523310016	0.399228605107582	1.34253915910664	1.49446951466766	0.776921779874101	-1.581965965754	0.566355549005866	-0.551071339677131	-2.52939363179828	1.77335156377008	-1.63184607294134	0.141206035203366	0.0945354277380823	0.0837346418467419
"AGGGATGGTCGAAAGC-1-33"	-2.25604003583101	4.26329205024183	6.10231499233938	3.11480002333723	-2.71359544270206	-0.690682007726271	-7.07195077816431	1.10960070496728	-0.933499993142676	-3.26287133281949	-2.20337916505037	1.54022943358028	0.293345069159859	-2.61137349776064	0.773572757132606	1.85273871818647	-3.23574976618917	-0.363655734093759	-2.32866546392274	1.96682436281534	0.370369288631356	0.0854511958634576	1.76507317100066	3.4088943821889	-1.20597050390341	-3.54381173336815	0.266479419064249	-1.16187657650809	-0.479356861363883	0.0491612942948386	0.744633148191035	-1.46288404103099	0.0642548776364918	0.956198187983078	-0.41178079645217	2.49857139694899	0.32746452670135	-2.43251030714205	-1.82173371616015	-1.38467637531144	-0.860981400687328	0.568490052579197	-0.585036781810607	1.15094490046704	2.38680218180352	0.917146394218676	1.22631272456384	-0.668789871445186	-1.97725463784449	1.73205455597119
"AGGGTGAAGAGTAAGG-1-33"	3.42197314486819	-2.11783520967527	3.3909377665936	-0.435759788006526	-6.0471188106559	-3.1740633330525	-0.148023260412465	-1.40421952588286	3.83906098705221	-2.30421431460774	1.69406747480046	3.15961795564715	-8.04067807224197	0.844275367870557	2.30446242164916	3.73294582732976	0.0725559964746196	1.15958850082058	-1.94578125801676	-0.198470648606434	-2.19220990699958	-1.71788868933462	0.559861508815416	-1.8650358597485	-3.77353043760371	-0.09759618773661	0.393114462130076	-3.45026924830391	-1.28026067405386	2.22669104796612	-2.68656206372863	-1.99788441706858	-1.36749682849359	-1.128272227887	-1.42525233490739	1.56284216939344	2.24734417681598	0.102597122232024	0.905336496023913	6.61314494260585	3.80078866151765	-1.28221502315612	2.13408339168127	0.441585726974714	-3.81788917191552	0.963716529471963	-0.42385296174286	-0.367667715202268	-1.71002007201584	1.6143185760855
"AGGGTGATCCTCCTAG-1-33"	-1.66023966971375	3.57959384236043	0.264787650966307	-1.58843926548889	0.38276823486252	0.33687404236521	-5.4500476717885	-3.77458827833632	-1.27930962590901	0.443939322316232	2.16134014593824	-1.40229332711419	-4.02770526658714	-1.00679038528205	-1.53269446790001	-4.32740196437624	-0.418813181749342	0.640085583476589	2.44354001880191	0.138628450943161	0.543456148481881	1.00536486818131	1.76257201787456	3.46788719715612	-0.627397643504925	1.33485538822978	1.03192263899992	-1.9159972633269	0.808989661338123	1.45085381144707	0.0567517014464304	2.48309643037761	-0.438898466437304	1.44312326063628	1.11572447517779	-1.11072517511541	-0.612182398480213	-0.611302990623427	-0.764701868688333	0.183372292413567	0.910702457360007	1.70026232754994	-1.84475460897965	-1.41480290720578	-1.04990281537852	1.01325603780647	1.99281177519363	1.06050301883904	0.144243632882975	1.4885624855202
"AGGTCCGAGAGTTGGC-1-33"	1.71182555919722	0.959089139210988	7.70896760854012	-1.24120916378263	-0.9687033375536	-1.12372369003139	-0.421332439132822	-0.622306597773271	-0.168626722767522	1.5128807475205	-0.618762381861348	-1.34031288409258	2.61196409237796	1.31865991691725	4.6991122652597	-1.3744371907445	-3.86722407025065	1.83676640290278	0.180418061247286	-0.735077681804284	-0.844138877767294	-1.69489261193892	0.00283479921165492	-1.04902596942984	-1.3047443714849	0.399019449652214	-2.17733749085097	-0.263076076909139	0.84276296244925	-0.881778824906694	0.0221910477200629	-0.881899719058741	1.24993541026395	-3.03467076357339	2.49504765321	-1.21257599124865	2.64554994291066	0.627270552350899	2.93495683180251	2.14883213332788	0.941046727982946	0.629203707944648	0.442145585065356	0.0937044510892342	2.6528876191955	1.38255370510132	0.489266076700771	-0.347785344077827	2.48644648460252	1.02247843325432
"AGTGTCAGTTTCGCTC-1-33"	-2.83572180454679	-0.153235891885988	6.04556811714306	1.91880184072041	-0.927306930523616	-2.40698602892291	3.31808622138363	0.0492696568194781	-3.72664639729065	-0.30395607251388	-2.467062188223	-3.43859598689466	-3.15084797507954	0.694232239067951	-1.05604455236969	0.586529844190975	-0.447573402706163	0.138318717291703	-2.00952701853517	1.97346514598444	0.506333417920015	1.16192732228213	-0.941106713876434	5.30743901950247	-1.78883358133165	0.711681083461331	0.365676234006649	-1.69976135546607	-0.103582093884794	2.74180578414946	0.25067678154421	0.439019591086817	-0.93541053749191	1.20805179437524	1.14505451974799	0.365681210207401	0.771998014313736	0.345941466423997	-0.713343108387076	-2.81379724605291	1.76458995956825	0.0726173270603663	-2.14529035253107	1.02742807841928	1.44215448349109	0.0110098312243833	-2.24792243692343	2.6881123836745	-0.512337220665317	0.6752681899281
"AGTTGGTCAGACAAAT-1-33"	0.954119529107525	-1.57156971003559	2.64716415573207	-1.83595332941095	-3.45293055006144	-0.0757688711526495	0.0770622762158042	-2.31097600904377	3.14649811449581	-3.33325354854988	-1.35616654811045	1.00787394491373	0.390967497824762	1.46253908867471	-1.84198579307692	-0.915028598147933	1.26547813932427	1.95155127334319	2.8407689759428	2.79412883264107	-1.16736295791502	0.460205945512208	1.50817679088252	-3.07261757045252	1.53218882628854	0.119162630785551	0.298298027621007	-3.42071839673757	-0.11759159479074	0.326972741362728	2.42218389131463	-1.41746702078946	0.970948650978975	3.30638242753288	-2.44196153504139	3.05537918481727	-0.651458776634547	1.05191473248242	1.34622642898806	0.198180110859356	0.473230761974017	-0.0379137165796251	1.16095716383601	-0.112543019054693	-0.644890177411834	0.397739271667033	1.07970609368971	0.632485717997242	1.42095305543385	1.71363665018155
"AGTTGGTTCTGCCAGG-1-33"	-1.57184378932577	3.33680402585367	4.12482905646075	5.17568075644536	-1.75265403251424	1.86854154673312	2.99717240965776	-1.88576562978354	-2.24305349584495	2.20678997331961	-1.68990876685599	1.10939797449615	-2.00443003859224	2.44180509038271	-0.928891866845448	-0.933687215509846	0.538779205946876	0.435836292652973	-0.652878565813744	0.853426008584835	0.118812439017527	-1.05633926804142	3.52952596368871	0.535200163153976	3.02954796566212	0.122802728412058	-0.847233495692652	-1.12756158618063	-0.19774395456479	0.820630686910769	-1.27794316228739	1.73567271574521	3.4648856432268	-2.24113868932608	-1.44791201710848	-1.2703907686092	-1.06748578822189	1.24217234231364	0.914074877848544	-1.28232877120366	0.130512558547626	0.538656766340204	-0.0788395539752303	1.95161335405933	0.949609120960056	-1.86540338852817	0.349547411803798	1.0504207707587	0.735299064580987	1.36721371111165
"ATAACGCGTTTAAGCC-1-33"	0.396703282889999	1.5348592173176	4.12092687622997	0.667012152438654	-1.52513526782117	3.03782660690545	1.79245898932947	1.66161584639924	5.72695930094676	5.37009873726488	-1.42799766367624	1.62664593065171	-1.85070052055447	1.07548266101201	1.60248181340521	1.49312164449444	-3.38709822528759	-2.34907045548047	0.0691553580959346	2.34848412969266	-1.20577144565579	-2.7733120092183	2.85473235180678	-0.655495303219969	-2.13180170851413	-1.34969329916477	-3.3464152042691	-1.27996117652926	0.341265486198552	0.557568051562957	-0.212434526758282	0.932713162121529	0.488901591713591	-1.48466260957119	0.18601820644783	-0.400836778141614	-2.04578607134123	-2.82425673621643	-0.0600655962381737	-2.19696444787803	0.57037948006423	1.78652333150351	-0.223217102327959	-0.210480449075425	2.46002490318999	0.462642411049012	-1.89460146527066	-0.546533502297587	-2.0101764027704	-1.40885255720453
"ATAAGAGAGGGTCGAT-1-33"	-0.790097171179603	3.2579095861824	3.87721213225076	-1.00612506536865	-0.763735253152362	1.76396026750202	2.78731428143965	1.67399039950041	-0.18172043446441	-0.36594290806488	-3.899694194897	0.0331216266739785	-1.58924403357682	3.242830841534	0.688668583400671	-2.3887006679786	2.00410505836246	-0.455313206712995	0.525096413328958	-1.59185901055396	2.42618782730948	-2.39987833700295	-0.985893722098227	2.6054834920518	-0.48159977572046	0.192992851812001	0.712923407665575	0.215746678677265	-0.233519773042909	-0.145183195730352	-2.28955470685087	1.71029362776975	1.95419287200244	0.516171890055544	0.472120595887011	1.36513567737635	-0.988665769183632	-0.191819713468689	0.379598479817019	0.047450475122813	-1.44766418604819	0.205456226636858	1.68160243042342	-1.02346093446231	-0.735379616058724	-1.20135752429944	1.93901989985335	0.331104990329555	-1.080598985094	1.82850616464324
"ATCACGAGTCCAGTTA-1-33"	1.97157485406777	-1.14526092120574	7.86517983707592	-6.22479060358973	-2.13291378360335	-0.163694118452563	0.357186211517901	-4.65263889573512	-1.7179597968721	0.310572789197121	-9.05119774850688	-0.253308271359311	0.757745825801845	0.386906029305875	-6.82546634663956	0.239925399031572	-5.31774894039222	0.933395701003706	2.32538352624282	-3.53799368350474	3.72128798180942	2.60493075916511	-2.72309722954161	1.71466616303942	-2.41943877309591	0.9970264701575	-0.712280841645052	-3.03251798150558	4.17184207493658	1.12084890304643	3.81912102812097	2.46582265410265	-0.733560483203367	-0.298515293816299	0.650316449342094	-0.822432217087625	-3.25726291058007	-0.676905872895084	-3.77386126752629	0.37086971100139	0.604863080182433	1.89970732784628	-1.19918542385555	1.71006005430821	-0.444205297986784	0.56270897056379	3.33967661753355	1.0666884407784	0.00267475469524778	1.80054278494681
"ATCGAGTAGGTGCTAG-1-33"	-1.64155500919166	2.46617718838585	5.87183792270546	-4.34496899148192	-1.28841006386516	6.07258695341815	-3.18038424201876	2.63966084246956	0.111818051307039	3.55597933298861	-0.115679234536017	-0.0406607358965596	2.4429948083036	0.207571593450665	1.62426125067895	0.629773593075687	-1.87556652877739	-0.28873231457481	-0.694924986369893	-0.150839974346178	1.46186326396893	-2.86895408873894	-1.79337799577921	-0.780431207474489	-1.58431103857821	0.182954848981395	0.998570462247054	-1.16136995481951	-1.01342439509215	0.837150830060102	-1.52789238983044	-0.330580857111818	0.134163986815816	2.43372961884342	-1.9157426193013	0.718850400795901	2.72574445155455	-0.412245745630485	-0.610157639648446	1.31540899732147	1.18028315877045	0.917669286757217	1.52053726415845	1.54578785437389	0.0171923640574135	1.91700785915549	-0.0648751344621129	-0.746023892370448	-0.071925358668447	-1.58374451893627
"ATCGAGTTCGGTTCGG-1-33"	-3.18174151207231	3.71757560958617	4.75584958924987	2.62726890307122	1.87493620828467	3.6574129366728	-0.512082976058272	2.79599520280706	-0.824639737835416	1.73118464700798	-1.92358756998668	-1.53621400948039	0.217049362217095	-0.390666480356488	2.44307129451202	0.770942658528554	1.08106422014334	-1.39773735097419	-4.041727333885	-2.04921004623956	-1.10334861762272	-1.506394965764	0.329078321597162	1.57010908106618	0.00524425102696026	-1.48145214128313	0.995142869342497	0.42499776905746	0.34500709388981	-3.12967019578976	0.837366743693599	-0.209078100023862	0.371612482465832	0.51422499071796	-0.0674057054581701	-1.90494937012296	0.272066020885703	0.215800787167723	-0.522643451176654	-1.1282110008594	0.409416263199691	0.240918954548598	-0.325764596012932	-1.38786431235513	1.02334718068391	0.483758995658817	1.72191251542404	-2.08053694920231	-1.99675027984951	2.00103023215271
"ATCTACTTCATACGGT-1-33"	-4.33783558114085	4.51528111263468	1.95959789259401	3.59223850633696	3.56812261743368	3.41117601520391	1.60637890479571	-2.49959308998885	4.89012979447454	1.09637635109809	-0.434322205076001	0.274242557677434	-1.8783656955364	2.14655843813425	0.74495967945979	-0.955571508647923	1.14611060014245	-0.394936377500893	2.17299008632641	1.70944246681713	-0.592060968094393	1.03121345853295	-0.922235730899917	-1.05892548218118	0.307776016129343	0.895993728673493	1.67462720955793	-1.36832476410943	-2.27017823911622	-0.604856853675237	-0.356057066069383	1.05725120863416	-1.91598166678865	-0.469074290910028	-1.49220771091351	0.649908758585438	2.40563850544146	-1.30548539752288	-1.4640891958363	0.0347683438742758	-0.828424510982087	-0.292483321714785	-1.2961196353082	1.45802904940375	-1.5034457219384	-0.000520464126344575	-0.0543026914260826	-0.746592357526492	-0.223609072678765	0.0528241850211799
"ATCTGCCAGTGCCAGA-1-33"	5.65743583887694	-3.25540172843325	7.97288721568256	2.57383083299737	-6.15431203808856	-5.5752290316561	-1.61230218847329	-3.70245574507223	0.449727437924364	-3.07181006842078	0.4886966032072	5.39162076566652	-3.17748637498737	0.213447903820435	1.86372791160081	5.27567574894057	-0.768741092667166	-2.57522852609717	0.101513170898449	-2.30522833464029	-1.7533256620074	0.0909349268349476	0.799403068540311	1.6314974569101	-1.0622502066685	-1.22490053623949	1.76206297812155	1.68192591525201	0.0473153926891446	-2.00984378609156	1.98995740529874	-1.57075442308405	0.78805432352496	0.0667402874876563	-1.56717893360644	0.162894837630083	-1.64447131418681	0.435046788301707	-1.44352862430493	0.212354613650921	-1.68579663246735	-0.44747072700002	-1.77667892084523	-0.836442209553264	-0.760942592215556	1.52879383642217	0.0601335156922334	-0.717542324707636	0.767608123205304	-1.53958093818856
"ATCTGCCTCTTAACCT-1-33"	2.1106748379157	1.47503039451694	7.84208765711552	6.86544444747852	-0.482341679549383	0.549506556478605	1.73687587250736	-0.131377242231912	-3.05178179271427	1.20186125396626	-4.91698459834908	-1.64117826006969	-3.31068633979934	-1.58223920144114	0.402884920857253	-3.39301878627171	-2.06281693471314	-0.171228322490091	-2.25727975178062	0.648146307874207	-0.989996528532575	-0.471959348527756	2.46914956558824	-0.718674250255944	-2.295004279053	-0.359650701431705	0.51167869462236	-0.00149443826502796	1.68486950339564	-0.143697160392739	1.47076471648594	-0.997424336615653	-0.269198601143503	-0.605602004299451	0.329835614270213	0.481027116850669	1.19298691171939	-1.06608588671332	-0.598836075244959	0.37147120297394	-1.34601675536612	-1.29748928840009	-0.239976425244472	0.751257886548634	-1.74023411860852	0.912748055640497	-0.550181604653314	0.239882692273521	-2.1594181382084	1.05119419335725
"ATGCGATGTTTAGCTG-1-33"	4.4736121750881	-2.84462472818274	3.26685303423556	-7.5578959399378	-2.82098344482721	-0.520993623683662	-3.07066521983471	2.9716250781886	3.38154914642327	1.88795572671389	-1.24103976787714	1.76272949996751	-0.515162858738981	1.4679462418453	0.707732065687306	0.885761766137018	3.37592915805099	-3.23819112164365	-0.715266038765806	1.33386310271803	0.219353977995786	-2.69541639123437	0.0788133206305669	-2.9454576982802	-3.16925954836282	-0.18280795651852	-1.57857749314787	1.71315722067541	-1.29273446353799	-0.963974400491596	0.436639677625156	0.619233044616754	-2.66445507460961	1.91938303751812	2.97357302148994	-1.88079952568679	2.8456202517401	-0.846042716296377	1.3231094118899	1.50859015347083	2.64615187006323	2.38553897489	0.661626443739616	0.127390599149627	1.67300983762242	2.51757147963203	-1.07334584054776	0.542412952116969	1.31582460082227	0.433828440271729
"ATGGGAGCATGTCCTC-1-33"	0.209749606284339	1.38459379592782	1.36456396274955	-1.51489432855696	0.347686736882567	-0.32157943608546	-0.934910400080061	-6.17309907531277	-4.67293202642396	1.74055012973276	-2.53009384851251	-0.434596545386248	-2.84924203846859	-1.492221480578	-1.27590539702344	1.03422287701627	1.14802720389779	0.202145580552114	-3.29745037193238	2.39177465342524	4.99806216654034	3.78981729405564	-3.72428543775482	0.558613443241933	-3.03573575246868	-0.399301592582148	-3.39930063187822	-0.781409264076354	1.36090931425071	0.515475663482487	0.0156312895809605	-0.0174163673010611	3.70258275132196	-0.0612844312802307	-1.02123392279306	-1.91928456861375	0.736229253277661	0.502866305160261	1.5166812197186	-1.0871087928866	-2.37993527132376	-2.39008274348093	2.05316731990941	-1.25025917559813	0.723816219774389	-0.736692544671868	1.33381825801379	-2.23203313219982	-0.995126706745655	-2.27628020621105
"ATGTGTGCAGATGGGT-1-33"	-2.08103603309082	3.00994238947534	7.55317027513472	3.32304535147724	2.61066775325515	3.10716359107326	0.00209187428931149	3.70014649786601	-2.62046162672652	1.79035862151724	-2.76510454185591	0.183846557198677	-1.25235641193551	-1.434393724131	0.67523258139611	-0.0148342088837444	0.27603433866775	-1.73696890703	-2.29438156812949	2.40134491304706	0.320327093838427	-1.39377508654266	0.742242071289765	-0.763922479688919	0.206944115708645	0.106256696306064	0.924903850423264	-1.97314200974117	1.29656601043362	-1.19468750650046	0.189271276802302	-1.23410900829386	-0.487865510576999	0.386966607404626	1.8211421669367	-0.805019594511569	-0.826174925814506	-0.325269019714788	-1.96171693341316	-0.645455716305392	0.105728376361801	-1.45734003777155	1.14720453305926	-0.512899237357439	0.388454797674181	0.318962422375699	-0.236341269620681	0.711100980511787	-1.72741810079984	-0.522348407376964
