"PC_1"	"PC_2"	"PC_3"	"PC_4"	"PC_5"	"PC_6"	"PC_7"	"PC_8"	"PC_9"	"PC_10"	"PC_11"	"PC_12"	"PC_13"	"PC_14"	"PC_15"	"PC_16"	"PC_17"	"PC_18"	"PC_19"	"PC_20"	"PC_21"	"PC_22"	"PC_23"	"PC_24"	"PC_25"	"PC_26"	"PC_27"	"PC_28"	"PC_29"	"PC_30"	"PC_31"	"PC_32"	"PC_33"	"PC_34"	"PC_35"	"PC_36"	"PC_37"	"PC_38"	"PC_39"	"PC_40"	"PC_41"	"PC_42"	"PC_43"	"PC_44"	"PC_45"	"PC_46"	"PC_47"	"PC_48"	"PC_49"	"PC_50"
"HSC:AACAAATG-GGTCCCTT"	2.43768355714918	-4.53958776243865	5.89557951473708	-2.3025034411909	6.58520149461306	4.59435805385163	4.42684131120248	-5.9764392677541	2.01706607262871	-3.57443939456853	4.6882400755485	4.86228834348345	0.699239335451809	-1.15850013853778	1.74841960807534	1.49277962100712	-1.78777930592112	2.37859314039822	-2.13731330670258	-2.58263680859151	2.25815949660199	-2.05063888531761	0.971135593186971	-1.59243946450606	-3.54369745626096	2.05912329703937	-1.42414409368501	0.857979349866427	-1.06687254562316	-0.0121661985917898	-0.454382835970419	1.96944485487116	-0.867998977665342	1.76325484500659	0.988536527354653	1.67010354875601	2.13973889467018	-0.163328613953363	-0.644587842438424	2.23004618573325	0.377124493604859	-0.246450851443382	2.23367765474474	1.28402825891471	1.25763215641204	0.156115590902383	2.70179159285978	3.71188505631355	0.697562832943182	3.51731739119151
"HSC:AGCACGTA-CCATTACT"	-4.59530814579147	1.6915385627421	3.47774723132296	-1.47535851764751	-1.82212876741252	-0.0545821878298792	1.54425610004933	-1.57872640317217	0.8741824988792	-1.21444606587944	-3.46756863129184	1.53250368352735	2.71235304364942	-0.154280504283478	-0.246536154839908	1.55620661784317	-2.14745140891746	0.781405443576186	-0.560986710235312	-0.0970234591899799	1.43673438494719	1.94639038584291	0.49966174862592	1.34924277445136	0.487789872681013	0.46777585492026	1.17378674314389	0.391669547977554	-0.982359729317746	1.79666204592241	0.135276179939369	-0.408435052261022	0.523120341013006	-0.65815634060043	0.838854623464153	-0.985950468670437	0.0121649210051951	-0.927084875469877	0.520201989331987	-0.410161153758097	0.353290115148798	0.494925292987146	0.823040068419938	-1.52041796492075	0.0855783922974715	-0.421400040987783	-0.775305379832188	-0.103596745655453	-0.978142462469121	-0.870355359530863
"HSC:AGCTTCGA-AACAATCC"	-2.53662601033449	-0.607813756252392	-1.53507973175347	0.142933337674899	-2.89481608022418	2.37566307527817	0.054000596927501	-3.49777854969441	-3.47717828788344	-3.10264590287214	-1.10944138013951	-0.150853770133504	-2.04609880470349	2.23856184868161	-0.621272868396027	-0.195096058490065	0.823541000356633	-0.696443707017572	-1.26732777596954	-0.630006039463259	-3.03853105366554	3.23933264520026	0.0784506335583163	0.869097159954536	1.19502572250912	0.0655796723875488	-2.52178317780884	0.308395475917976	-1.35626147732793	1.95963665851233	0.258198357355352	0.4200587975749	0.424614218028274	-3.64480947302573	0.201797077676983	3.21477436300207	-3.22934211418514	1.78525470511446	1.77258307090372	2.59038140380438	0.146701332253729	0.362793642498592	-4.86309594102095	0.746601024517707	3.46476669101323	-1.61943777117701	1.60752962366287	2.59693020412473	0.121564576167402	0.481614787988172
"HSC:GTCTTCCT-CCCTAACC"	-4.83542620537796	4.27416146819187	4.2637381579367	0.523505933226367	0.385899927496526	0.998183386854707	-3.42104916462043	2.28783370474057	0.690248506106122	-0.0509978496862299	0.581787502388373	1.44027750382453	-0.281376004059433	1.11159934238903	1.95326189931612	2.20163619318359	-6.42800393763144	0.903980787878742	-1.54803573624329	0.256908241089215	-1.98837692237214	0.00402564640502597	1.42117671285959	3.18658739441767	-1.21423533230254	3.7369877030485	1.72078702481554	1.72516972722107	-0.198950410456461	0.530377310998337	0.65117757931863	-0.297621909548025	2.11960732561734	-0.507208951356623	-2.52516020227068	1.13036374938492	-0.0193224074271188	-2.069827503253	-0.941242827768243	2.54122864549839	0.564837413369676	-0.772318353424851	0.977745436649076	-1.36779141111678	1.29198379536429	-2.20187115877667	-0.346481579805338	0.0727937304256125	0.141507152458983	1.18065280487641
"HSC:ACCAAGGG-TGCCTCAC"	-6.69295880651155	2.41375946960349	-0.649328273274205	-1.68275573343237	0.48488295119438	-1.26530884885049	-0.572033129694886	-2.30926234793807	0.453753097331311	-1.7106084704091	0.0089301109767071	-0.0774787365406935	-2.75813022225981	-1.48135628911584	-2.55791507046748	-2.00984173388593	-0.394478081872384	1.77613010162949	2.16383596980823	0.166892056778506	0.176930907823166	2.54689320276341	1.44482293549491	1.92645629363112	1.02329126388045	1.30923888746852	1.1212602200483	2.9278499296963	-1.29516480829327	-3.18834743519933	-0.627916440982829	0.948676701609215	-0.708740606992257	2.02244234085092	0.2770179381569	0.796029055689087	0.458241142839763	-1.04303368483713	1.12803559023598	0.931514090310128	2.0115754157482	0.598725108511831	-2.65786451336903	-3.2853526808296	2.67790609649537	0.821895793671793	-0.669988554146285	-1.33902132285382	0.629684304274869	-4.97916786752278
"HSC:AGGCAATA-CGTAGAAG"	1.43725182189854	0.0082410902287644	4.48387903545902	0.441674787215672	6.6889963714299	2.38184866205914	-4.26491687809963	0.690705426570936	-1.72315316688804	-0.144504287582259	1.03934166816955	0.0354918470715634	-2.8551972972888	-2.03548771896496	-0.615558119686634	2.07551989098686	1.42386209695538	1.23775880490946	-5.18658217283275	0.417967856356445	-0.618433912938748	3.1036338418109	2.14693339360586	3.12808642903622	1.4843937455441	0.0480852371091001	0.0934349174599252	2.16343000826661	1.50744255503474	1.63313996727441	-0.651277411355544	0.0309206644767567	1.48130461478784	-2.0900266365827	-0.386516167126095	-1.62633699700761	1.27032869924208	-0.967538277893	-0.401249656420896	2.06217340425009	-0.528271549003408	-2.3948015870287	0.396886223642257	2.50640751730761	1.52892813532464	2.46173606015559	-5.092088323163	-0.321676592604232	0.855278417314649	-0.174884631097541
"HSC:TGAGCACA-ATACTCTT"	-3.7984110325391	3.63841342658191	1.17955366939691	1.67267119185687	-0.799610564177782	1.67944367394485	0.168462934039327	1.7694937817315	0.451012563423131	1.12379609810968	1.6428686779214	0.419170552568769	0.924644580201619	-0.350385012663614	-2.68279060114695	2.36844305437979	1.76060931822525	2.4777539381799	2.34382686514038	0.865208417897851	1.79805672626272	-0.322208399450947	-0.940776398972846	-1.70686521803021	1.32866711934438	3.36995912309674	-0.900775616621998	-0.87082869262681	3.63634413653001	-0.422832631199819	-1.5558242210879	-1.02738046466502	-1.23956287639369	0.3489673288808	-0.00232791501929449	0.892789343810128	-0.283437766694899	1.73625608630673	-1.12638454844741	-0.937245292778057	-0.898229253216057	0.857432062540289	0.557391097048551	-0.739118991398981	0.0327681634580976	-0.393326092836745	0.0997151679106704	0.161201613173883	2.78947455230769	-0.371032576388607
"HSC:ACTAGAGC-AACACACG"	-0.0281318819636076	1.30072512495053	3.56631347325581	-0.431481746417955	6.18233893772546	2.45978772971149	-0.900016914663524	0.46124686235248	0.274273794933112	1.85445813425529	0.723585518975226	0.217640764204124	0.558062582912622	-3.16391164655625	-0.507575623190616	-0.346798494247869	3.00716693360677	-1.42556677742442	-0.575274799052679	-3.98324867342208	-2.2894047096036	-1.22787765669602	0.0180836881382801	0.972788756883371	-0.924137463050743	-1.76640028519085	0.0512530419542275	2.38283494982198	1.02422906083668	0.703661808888991	-0.547362064700752	-0.488400725774046	1.33791192677677	-0.359570630500821	1.05530130557967	-0.555052963040244	1.31865074035789	-1.92792519905648	0.757280825271297	-1.12851037759691	2.27785449842372	2.18521371932041	0.134539721863156	1.48817494602343	2.59894628339353	2.05104649005808	0.559205522972968	-0.380418634186527	2.66471226319319	-0.696450000123988
"HSC:AACAAATG-CACAACAG"	-2.21730855278115	1.21256244819255	0.507895144825692	-0.876207434522592	-1.67822930002306	-0.0966967506959297	0.248046360046095	-2.54589769171222	1.34753786504629	-3.59714263841864	-1.26274517545951	-1.83148819043429	-0.540009240616871	1.75032847787476	-3.46464659336355	-4.17279796698813	0.0873005882214605	0.977463300286561	1.78726706969702	1.45293956216324	0.427346060771173	-0.863595877820397	0.814912158972844	-2.67307515796471	-3.97461629822888	-0.00333501077448844	-1.11101461807388	2.99110191229136	0.878466020351097	0.23553431638268	0.347992999287526	0.304803946852543	0.0645012222049954	1.94261767032636	-0.405261958009023	0.330621390486606	2.21795094211763	-1.30267052534529	-1.8682346477218	1.36384683911369	0.0238286393609236	-3.64092807648487	0.508703798964854	-2.1585902943921	-1.43211052014052	-2.29895145019577	-1.27266889114239	-0.0933911065815657	1.26727565778477	4.89072804191026
"HSC:GGCTATAA-AAGCTTCT"	-4.9327556348874	1.20025376368922	2.31621582399569	-5.24289501139285	-0.274559826115778	-0.938961698367433	-0.113940138138526	1.75135376525652	0.658794385331373	1.1668604979962	-3.25718100134768	1.82704438245152	0.396783315114375	-1.80071677774171	3.7980971591658	0.095755608823975	-2.52042177288427	2.47995049017701	-0.103505588588197	0.318745974549999	0.0950180528523263	-2.73939034866681	-3.96994590848372	0.898005526429836	1.88324046647624	0.131717034195207	-3.27567263872845	-0.116328334420033	1.41075226369528	1.27177166761305	-0.522119158527117	2.3052189149232	0.956434667791426	1.84323814403001	0.417100806264714	0.524128836303143	0.286972576782543	-0.981624557498065	-1.2449167478594	-3.51963148998436	-0.970562358202308	-2.50028336133312	-0.149954380759608	2.27896796105653	1.24366498808136	1.10238165729391	-1.38789001285956	-1.99582416510477	2.26694734285727	0.677434042197844
"HSC:ATTATTCG-CGAACGTA"	2.74973158082078	-3.12246367147398	4.11791107061434	2.06845511123577	-0.243403102875534	-1.25853265871831	-0.620858115677795	-1.28351985224471	1.82505805767355	4.24601430999939	-1.82670778894898	-1.23305492609165	0.365754273400378	-0.581725985334777	-0.791989713156257	1.55782046673428	-1.9189654192421	-3.81485375188319	2.94316222351517	-1.74907023087937	-2.62389539385194	1.75049040196262	0.98205629003462	0.814838502341757	-0.921149094021505	-2.16464168448666	-2.33098658446423	2.78928250220596	0.0475839745639472	-2.4782488310915	1.46608590826346	6.64841714462271	-3.37266835562465	1.16216281116032	-2.10053665545569	2.09614714942759	-0.897244076280692	0.443448561658729	-2.63065988214666	-1.80514829631867	-1.87657470437282	1.25880064567325	-1.24436441149039	-0.890733234772183	-0.552730274073796	0.631807056040298	0.15475556846083	-2.46692345349626	-1.15844903009868	0.172940154663184
"HSC:AGGGACTG-GTTGTCAT"	-4.30321702493402	1.82417612914138	5.07247440867662	0.940974669296747	-0.390045290002093	-1.69263317235296	1.26487484350614	-1.25980307753096	0.352623035608485	-2.09361312540574	2.00788474100813	2.34110655723415	2.37161610538497	-0.222844199789703	-1.68303081626684	1.91398824708672	-5.94255687992265	-1.54830278075186	2.86692953259732	1.85519262588521	-0.823137662485152	-1.74915288137723	1.37305659109864	-0.347290152986463	2.70197512224095	-0.598599869238924	-1.17245651172992	1.35454549779897	2.45352760319659	2.14982150407343	-0.261805925900199	3.8433779345331	0.169349591825671	0.0251076985002591	0.827197587821628	-0.780074627486753	-0.0736746823171743	1.51569975830231	2.18325684393254	0.730937804377279	-0.905988889778864	0.989130698296973	1.11618148001925	-1.33158703122647	1.58755071627698	0.863749873159984	-1.70535297467552	0.206996536255708	0.113122926855339	-0.645049296005499
"HSC:ATTTGTTG-AAACTCGA"	-1.31175966134899	0.847417585622751	4.46627529414546	-1.07493656346664	0.33698507444464	0.384655598956531	-0.985709554184207	-1.47103012876045	2.67928854832023	-2.9766096088367	1.93689587232944	-3.92943881545642	-0.43129804007753	1.2506774677014	-1.49432839088505	3.32815579651177	0.440739919254602	-0.467221448177671	-0.0755503988548151	-2.03854720145484	0.687073148129531	-1.16724895025685	1.52541178625595	1.29718360770919	-1.4264646168137	1.03291175177262	1.43954038380312	-0.810764352128228	2.02963610648775	-2.44413907927298	0.558042763967787	-0.837251598712601	-1.2953703570907	-4.67634300635709	-1.75314388836225	-0.397054515789923	-1.52014033504764	1.89114949259108	-3.01846082789153	1.3930035289183	-1.96560836611367	0.139354131150058	-1.00315283433349	0.326993903388617	-0.646614768122006	-5.20095700041869	-0.621391542290716	0.0579575499616372	1.40928992945807	-0.925937264083558
"HSC:GGCACTTC-AGAGGTGG"	-3.51072324023522	3.41540577464841	3.48699836929288	-3.53869758441294	0.343944636952973	1.01916993889482	0.394419735794343	-1.01940529088543	0.834469282235927	-2.35406511377428	0.420224525041866	1.40902603383935	-2.71069471996056	-3.01680079611677	-1.85525002726669	-0.959519373517739	0.245664964677672	1.56281241192946	-0.685707417541132	0.897731295177197	-4.12913657218265	-2.40504558211376	-1.93438649076353	0.607332119402952	1.42391229187546	-1.19762694916382	2.72770826284375	-0.833048394761642	0.785118027298208	-1.2064067473997	-0.418985326838341	-2.74332156293876	2.46300795838935	2.65671999373676	-1.25094837273561	-1.10900625142079	0.362219212808198	-1.41621420402972	2.39275672526162	1.88362752863806	2.74819877741413	-2.72365947688209	1.10197629920834	-1.14253579867695	2.80772951391651	-0.34262137651877	1.09314183808417	-1.65481084151647	1.48552109492143	1.14518748727516
"HSC:GTGGTGCT-ACTAGCCA"	1.22088705625973	-1.39046432679265	5.72824814093799	1.3730938076321	-0.483071476462242	-0.838296545925455	3.21852709862351	-0.622891561210043	3.10225675804655	-1.73034184474822	-0.744610439663166	-4.75373386792162	1.17327949780879	1.38306260990413	1.1652477970278	-1.5599918914867	-0.266167186534189	1.28245031300765	2.48822584902667	0.365581168712329	-0.261816894400276	1.03816183198397	-0.422211170074831	0.147246980815872	1.89764619031415	0.86032121979011	-0.691914554642925	1.57144697123026	1.49984064711936	-2.18240540180492	-1.2225052168942	-1.56630791707757	1.50314179069653	-4.45800589062664	-0.00464580667452651	-2.46331585287319	-2.13837167179367	1.0510340980605	0.968282775953751	-0.376208243559888	-2.75397582299468	0.11608957201721	-1.90474859297786	1.04376708876262	0.602460618764375	1.22687238620035	0.490397919158087	1.59407322118592	-0.604563406119928	1.42976792968658
"HSC:CTGTTTCC-ACCCATAT"	-4.03240649918203	0.71907048938102	-1.18128541722449	1.93387372587514	-0.188849418774424	4.04665391755207	-1.18677213235731	-3.73611278436821	1.22508382040545	0.598076309805626	-0.7925227095405	1.03271612597601	-2.07721150752596	-1.00723001846951	-0.933761386027103	2.76826009653845	-1.8741005813298	2.43956947879449	-2.22253833662481	2.90399417829798	-1.08751491846901	-0.985246967382627	0.363947521025268	-1.7825070832597	-2.24992981807059	-1.13535970980305	1.7188701881587	-0.735740477340569	-1.38342365087613	1.92611902019825	0.816242499025691	-0.095505437451456	-2.11418336594776	-1.79125870937139	1.47959057635104	0.986183108679248	-1.41665006278187	-0.541089832811771	-1.02816893855719	-1.61174771475244	-0.0867904270453871	1.26193877854177	-1.84908214065718	-2.81252640372668	0.705399682168741	-0.526676414555385	1.22105372425265	0.677423225482295	1.90597431720775	1.14224209768912
"HSC:CCCGTTCT-GGTGGGAT"	-3.51306305711155	4.44063020073724	3.8609191602343	-1.17564238593797	-0.852273208515278	0.629710143058634	2.34366001698432	0.92257990625129	-1.9212547862113	-2.66347597520003	-0.0793271582690752	1.88804008689565	-0.808629766674933	3.92665978999749	-1.54475489734174	1.68319828404762	-0.166559986977725	-0.497209212697812	0.182609406706815	2.88377131729374	-0.170187746160536	0.495520913655217	1.59359843415555	0.0364340631293558	0.516744929759417	-2.50533531510822	1.55393195874486	1.6349215195789	0.615253479410891	1.56502303682182	-1.25958316926878	1.45887063677069	-0.162363511120637	1.63478885739325	1.45020135617718	2.62997839176235	-2.85045297176112	-0.310763655222724	0.855254079393692	-1.74559017908613	2.12555673260556	0.300423795174903	-0.00536520546514625	-1.47725873465931	-0.800390663042611	-0.499602152574955	1.34774359029372	2.38274547148582	1.14636516963935	-2.70647318085846
"HSC:AACTGCCT-GAGCCCAT"	-1.35695834844764	-2.13990727713288	1.51087507936192	3.20840596804477	-1.26136471686061	1.20986303950841	-1.67026621374086	-2.1626675042791	-0.0321672052795919	2.61652441596247	-0.783315645562335	-3.32876699988523	2.35682531364357	0.379170899002432	1.02748621799214	3.39775527247728	-4.79810994795109	2.49407248292251	-1.10231740416157	-1.80377111573257	0.298230099939377	4.52897121475579	-1.34991499241838	-1.77317877406857	-1.8737910088315	-2.45059642668663	-0.16383380266452	1.12891790610895	0.5617529466238	0.164605401462237	-3.09607493798338	0.434592156884368	2.95694397371155	0.973363692106986	1.03706636330798	1.13064915163676	-0.131974745955582	-1.10118355794623	-0.0410289908337632	2.08997656924472	-0.0513349003888948	0.276151968442745	-0.177117960692861	-0.0274049241047256	0.987365351629534	0.221698617606431	0.314679035707152	0.0107525348584206	-1.86643088723561	0.443838575478743
"HSC:CAACGCAG-CCTGTTAT"	-4.14450173329092	1.46013017817482	-0.0908723836498005	-1.2137399142948	-0.439457962100061	-1.43519169742194	0.600125944459242	-1.09615868971643	-0.881339747918169	-0.149704921129258	-4.09887972499786	0.714172301400068	-3.30482655570715	-0.029215249040832	1.06117693943448	-2.15589598415589	-4.66745976098991	0.801200986445208	-0.43936957488116	-2.69130053988122	-0.739883455190126	2.30010111266882	0.238113369852095	-0.418505680086297	2.65923750918568	0.644989361545781	0.832688597080308	1.29100686615205	3.26836846430019	3.47448002484653	-0.525687277070063	1.13356147166705	0.127401071241728	1.7581601193245	-0.974949781108919	0.638317848724009	-0.234083534047659	-0.171375317855676	1.31768419607597	-1.31960058196963	-1.31328097433206	-2.08498538987636	2.49342427898392	0.533077076586121	0.471766135829214	0.0109116774373832	1.01889235706583	2.65505612520986	-0.732918175462258	-2.31922634391516
"HSC:ACCAGTTT-GTACACTC"	3.09500687653429	-5.26899626330451	2.30324634998646	4.01364620107451	-1.15798437877346	1.69490922398879	-2.92133275402936	-1.80629462618958	-0.579875713333219	1.39251902240307	-0.880753003166547	-2.4023941433675	-0.114269991375492	0.814140884501067	-4.1347348907531	2.67387704986775	-0.064898150845765	-3.97951464091908	1.48840162629815	-0.260090322871507	-0.983995720245693	-0.0520367378462027	0.212712608713943	-3.4209107096477	-0.366494421741851	0.627545128640476	2.24791666308194	2.38227734073469	-1.5757743629407	-3.46674450990165	-0.795465228168983	0.829033628867282	-2.83328508975207	2.33331859458337	1.99721840849515	1.64363706571304	-2.90420122010899	-2.24383865765422	-0.647443235798379	3.82213220853639	0.395001408418659	-0.268308979880028	1.03597970447252	-0.296244723169102	-1.89222001384603	-2.18484104941394	2.00387275821268	-1.40108133483644	1.11287963108935	-3.05076280618699
"HSC:GTCCGTCA-GAGCGGTA"	-1.18364692726236	4.17064249052246	0.804196278788605	0.91484907657042	-1.08077049333213	-0.738799771172193	1.59908082745646	-0.0231718685998649	-0.209113075183075	-1.68158393319762	1.49103242639342	-4.05074305703278	0.499140492781452	-0.0558005696413204	2.42392364532229	-0.0159813190510076	-0.282258375565441	0.366889350536442	-0.670668723388487	-1.82314143445566	-1.00779458229956	-4.39720237440942	-1.58114128691129	0.895193731645397	-1.52035915069105	-1.2751342751445	0.462898461220021	0.401424985715439	1.22064005932876	-0.0997833709875569	-2.0821163634854	-0.361365309687022	0.860694783726265	-1.11656385799639	-0.104607370777239	0.441690410464951	-0.873793241280701	-1.1423261355506	1.74698106247359	-0.695425401086084	1.30560080127386	-1.04908236150856	-1.2212089528743	-1.80831864633628	-1.01965089993777	0.0956499459103746	0.544059964505129	-1.47005786382224	0.038051782795527	0.932370442779145
"HSC:AGAGAGAC-CAACAAAT"	-1.64173667943859	-0.489704522829956	3.62428730061972	0.0464892239605193	1.46120389089139	1.33775088250203	-0.753025429781511	-1.87484246065733	0.748004089373839	-2.63637677036654	-1.90014488463175	0.508067607342807	-1.10009406764421	-0.83063939667594	1.50363107738097	1.51372318209946	-1.82643935390937	-2.2103731818504	0.844194252263426	-2.97630683363081	1.89264191072359	0.840752086648775	-1.08616586930204	-1.18545053541296	0.887180273949464	1.71044301713948	-0.821858288971649	0.0130948682365225	-0.96696812350442	-0.00159286590834531	-1.12040198047737	-0.00738674119921628	1.51080513420406	1.17059496325372	3.45510553344857	-0.974121791850534	-0.511966103491253	1.27448026830781	-2.95101646203023	1.13732411972152	-1.17755620233083	-0.371562558720252	1.45238088607896	0.742645773404781	1.56610166885964	-2.32838142058285	-3.57196033219925	-1.0949157549718	0.398442000555768	0.13130274020599
"HSC:TCCGACAC-ATACTCTT"	-3.26423657585955	4.99433612614479	4.29992055184262	1.03254605210742	0.875724718456666	-1.85814262229043	-1.27198932667916	1.22771873645928	1.44645819968066	-2.43871133359317	0.362886593526829	-0.929159016230803	0.11990360994763	2.69164187915743	4.46014390878175	0.556518797788746	-0.348148114974495	0.914596572590122	2.76981854085037	-2.4595227959936	-1.44375790410863	1.99547677364933	0.0376311290433488	1.90751867710943	0.826604442079166	2.5853054495929	-1.11607178503076	-2.91047061904749	-1.69107480264084	0.345865455587295	-2.0963420368072	-0.309830403207563	0.252906108278564	-0.76715017261675	0.757101725471821	-0.151410515562328	1.53406747585497	2.03758616841305	1.63628857781295	-1.09932178171296	1.15119285570158	0.123587768183744	1.70056591580785	1.29565644855968	1.37844393169928	2.23046775817198	-3.56606291130858	0.283951143480813	-0.426189848555189	0.146886754048814
"HSC:AAGTCCAA-CCCTAACC"	-2.87507928543483	4.31449879182868	4.5264224455906	-5.78471757969856	-1.82138872607337	-3.85955407478311	2.17412935114385	1.34580033776836	0.427558514398648	0.00728158453647302	-3.32426440559763	-1.32044621076645	1.00468612083957	1.26308152905111	0.807173591122109	-1.92973406977796	-2.02858918992982	-1.13403361378964	1.64306313864384	-2.33503266504994	-0.249957239768961	-0.697988179566201	2.57767861971837	2.38798284840973	1.58137406757494	-0.0216876635427438	0.773489198687317	2.35328537995003	2.76610043653598	-1.10734024720622	2.29479335201828	2.26683863442816	-3.0441707192525	3.15170115112201	0.854168205147118	-1.91976911478762	3.7659286657547	-2.19526330848019	0.367255323880196	0.0118013093901354	-1.55165206528623	-0.728840651010895	-2.12148359348475	-1.56107948339389	3.33679155041844	-0.902120675980768	1.64241319652252	-1.24267576015803	2.15298603457822	0.65786473212562
"HSC:CTAGACTA-ATGACTTT"	-3.9681029409194	-1.62800930036706	2.46460153463517	1.44223272620676	1.85261576371629	-0.429257681377435	-0.341531443184143	2.24085605349368	0.732878076360921	-2.90702696859665	2.0459198044995	-4.04424196119364	-0.874995179481649	0.293370661318475	0.656043540438156	-0.935607642263132	0.120983892216379	-1.01939567985008	-0.804441542915326	-2.01371092563392	-1.36348140537782	1.13244769669114	0.0448472150779147	-0.474908804759118	-0.781377779970726	0.999074517486514	-0.647415845895733	-0.831584847445568	0.145971865548875	-1.3875830330651	-1.28735015516598	0.584811917693092	1.97143800099869	0.93899918073843	-0.974343848006833	-2.06701448757588	-2.44600624469699	1.00412443704099	0.955537393940842	-0.0430823831763196	-2.78144477864799	-0.334178535766437	1.03726544411815	0.126788743691377	-0.626505713666726	-0.871532412365823	0.512676887792034	0.382344984856645	1.29763168598097	-1.79542176456243
"HSC:GGGTCTAG-TTAAACTG"	-3.39938940339276	3.15383107823334	1.52163661312837	0.991348599385952	3.21177735490788	-1.94356432023841	-0.624085369592867	3.93127738196092	1.77589512798153	-4.28302109334201	2.96794532476299	-0.391446994332725	-1.5125403736159	2.03041240348009	-2.66848915053238	2.57432718539829	-0.296000602875178	-2.4833056988684	0.0593864731111101	0.501757761304441	-3.3019299901202	-0.29102568666218	-0.456034120072942	3.72783659266986	-1.69218997427036	0.882754285839415	0.436406744216114	2.28401525983301	2.37904027592086	-2.1638787062922	2.14332242273502	-1.83549750945571	-1.21515556850637	1.09296450316775	-1.74789497228273	-5.58781652494244	-2.82957651382896	2.16914492194506	-0.462085792785568	-2.93840854856251	1.86055783267345	0.246335317579471	-0.377234091966602	3.2423320355551	0.385161423041064	1.00477345070144	-0.763621053955856	2.57871505786979	-1.85836408122447	1.24860956175629
"HSC:CCTATTTA-CTGCGTTG"	-5.23256069045943	0.503031025091879	2.29523854235956	-1.97359495841945	-1.7892140888873	-0.600743212512505	-2.04118756263832	1.08805118263581	-1.46083294269082	1.43522392262939	0.369059869481138	-0.478156675969774	-2.08700181738751	2.19760727834454	0.244458875203081	2.72488146444533	0.100989438851501	-1.95936172793334	1.59749661244038	-0.89982856705492	-1.9461972071714	0.70258594175854	-0.870141882047429	0.94791429666021	0.457824427927522	-0.658151192229036	1.24835595695879	0.646095461942866	0.201501710548579	-0.547322444895204	0.839387728920865	0.304996509305147	1.1653512671249	-0.206130312369418	1.52815924237845	-0.841547843904928	-1.00774338203068	0.837367156324484	-0.215838372413123	1.63881560943199	0.237019251472757	-2.31788095216011	-0.51692902424524	0.95983205226023	-2.3498320205449	-0.441598812734806	-0.203159549876183	0.834390282039885	-2.92986527616722	0.821941013730414
"HSC:GTCCTTGC-GTTTACGT"	-3.29806710599707	3.03963210278823	-0.302893766208007	-1.29875986080471	-0.718137079420053	-0.743217736595446	1.74348022596206	0.588785823461738	-0.571248224695194	-0.219876341121766	2.10819616330393	-1.99199834513054	-3.85624918466903	-1.42015195016968	-2.39006377249068	0.0809167005067695	-0.293895437154298	0.128292515330533	2.56995276751504	-0.644119205735777	0.0394015553748154	-1.03217726395553	-2.13313250968217	-0.864719565097837	-3.56951039373481	4.22349074199694	0.755374379598212	1.7608361603449	-0.352610607547958	0.642701109965659	0.582344750174775	-0.809622766759373	-1.52091077196584	0.845147205294038	0.0970100244538743	3.15265227860355	1.22031207678468	0.511946001393381	2.9321594877556	-1.77897439403417	-0.925295025338055	0.0660909691656661	-1.9848414710761	-1.58006011378748	2.39211076845287	1.41295067916044	-0.201563323979964	0.624933123194236	-1.17674424806685	-1.92695003150967
"HSC:AGTGCTTC-GAACGATT"	-3.02469238610297	2.3642813599391	4.59293221205192	0.822985955050535	0.420201718338423	0.121592344690429	-3.49291157973268	-0.145801275724771	1.00859259318855	-1.00987312622184	0.0144486592703667	1.32816261832425	1.56769665883581	-0.496408927449811	-3.40138417203373	-0.910190584216088	-1.26265339935834	0.386250557481721	-1.21392714390868	-1.66251720071099	-0.508198751452417	-0.450512446639446	-0.563542059980047	-0.899416029518636	-2.30558362997386	1.20024912753713	0.303317016206096	1.31344615124789	0.30300381566669	0.895901671693865	-0.510963167077851	-1.73583982264272	-1.31288187944368	0.571397701856746	0.387081142428088	-0.859400487029642	-2.23472440225707	-1.41725966307064	-1.59087862432963	-0.568017110948785	2.33053693259389	0.68279001534581	-0.211292982938137	-0.499877990208374	-4.29610202357336	-0.210223826632404	-1.07007128215418	-3.6945731050748	0.886342207372603	2.21503680684266
"HSC:AGAAGCTT-TAGTGTTT"	-3.50807311317286	-0.258332317258131	-5.6437796217074	3.77920419360158	1.25264221203434	0.258362260833514	-1.51097150473112	1.10503342842345	0.763538546476441	-0.444803893886857	-0.703803085494644	0.925550572508367	-0.704952363728768	1.88001414557631	1.38052991956022	3.52143040186024	0.241442647787482	-0.862576585241244	-0.512351548605952	-0.0498276661594572	2.56185952526013	0.822913882679162	0.533379633112021	1.81078482212506	2.38166649681188	2.16152636271536	-1.98410032098061	-2.29958007288434	1.83878509479643	-1.73632397994773	-1.29042704301304	3.47386817266033	2.64704839120748	-1.08148294019898	1.31819364508257	0.507976795485373	1.96661522330374	2.34081613458887	2.19729367451908	-4.07811540909058	0.453123713002688	0.255819711349832	0.0353827824968357	-0.0232587056425832	-1.45867082317669	-0.215054177491548	0.372460441835064	0.730127110344642	-0.883340066600499	-1.19126325583568
"HSC:AGGACACA-AGCAGAAC"	3.38478128138225	-5.74839252417556	6.56224033261482	0.444389143577247	-1.32119292677641	-3.36859137633817	-2.43680715142195	0.868770143856722	-2.68348277821088	0.173294967649864	-0.430327489678215	-0.200191913489296	-1.90122701518402	-1.878153555604	-0.303502764022683	-1.44160712572421	2.32509973516494	3.05665978029256	-0.0529681715855611	-2.22672244930819	1.91338780686832	0.407461572920823	-0.015488232690389	-2.40543274856055	2.22975851455347	2.6524943435749	-1.26470619660111	-0.0962701807062907	1.10984389497126	-0.974542976380741	1.17624019189032	-2.15399212373534	0.181769230321251	0.538680213838184	-0.40712696923268	2.77555782212653	-2.32385093430481	1.06924019023046	0.626140500117051	0.167113965227032	2.51992325191697	0.190611426693938	0.628933179183271	-2.29838274842536	-1.12199533158167	1.84876522248078	0.763934441656967	-2.18677804104483	0.708614514949275	-1.28467407913638
"HSC:GATTACTT-GACAGATA"	-4.06895861266994	1.72370952684135	2.40284775859538	-1.47712721677512	-0.474345224282613	3.45289831462458	3.38100876956538	-0.107263380585686	-0.779236293702891	0.830034604130566	2.57692773920641	-3.02166881319865	-2.19376163373215	0.0358261264467694	-2.29595622636328	-3.82181438040572	1.9083565965946	-2.86019433423031	0.34474629470143	-0.751172754562302	0.219990706920927	4.30424443239011	-2.40212311196505	1.52763188036519	-1.43189612310673	1.19487668050584	-2.24407254659253	-1.24520432071683	0.287344589916997	2.78251146664313	0.417242155585267	-2.28680867098822	1.86730969165607	-2.2282678705244	1.33447304531629	1.3817638037632	0.68781713024243	-1.50463812489301	-2.06179281772447	0.651882995380533	-1.6825401026211	0.837222629518322	0.930433804211176	0.0139583851811308	-0.656051161433931	0.718247812705218	0.724715172608759	0.114279389843427	-1.78614468456198	3.6478798486613
"HSC:CCCTTGCA-TGGCCTGT"	-3.2680576923545	2.74321984806774	0.281757771908695	-0.949568706680873	-2.02947280686529	-3.727374847116	0.210888232685166	3.56253681627368	0.389357724446895	3.52482719115866	1.42061341048826	0.0729826511292686	-0.852780684729335	2.84386173000991	3.08482004513451	-2.90507304944399	-4.01623527183138	-1.13400120429948	0.785351510742651	-1.29858648256657	0.372709858744402	-1.7974964571784	-0.307591324917067	0.360921878864372	-0.0281438591690244	-1.41496920271342	-1.5972011750857	-2.26185687014369	-0.431320346319404	2.78691857010764	0.81761348674625	-0.330904540296366	-2.12739687562324	1.77566349580166	1.2384027927841	0.926486759776265	2.06245229546102	-0.381873184219706	-0.812713444101256	2.84244109404991	-0.849169527400517	2.13422290402681	0.218592966809957	-0.361440852727168	0.940898967886647	-1.5137537072028	1.60810716515612	0.555887031731747	-1.4566152758767	1.24021972042665
"HSC:CTTTCACT-CAATTAGT"	-2.78604135669611	3.88430650829709	5.31398909450728	-3.01406927436592	1.12144662174491	1.04178922216019	-0.384834937409748	1.77921548153186	1.75500670893374	-1.09932680210323	0.298176453039593	4.142196626484	0.165990147683355	-1.73957841946336	1.68722054590757	-1.61212365172755	0.647149742253917	-2.88508034422955	0.824969154145504	-1.51602934367852	-0.694800626897353	-1.45020841045777	1.73797936470794	1.06163806818485	0.598614033698101	-1.73561173431676	-2.14886053560582	-0.710759348877699	-0.541403567059092	3.27331645397178	0.536595784847004	-0.0837481508560884	-1.56366980995405	0.57354177223342	-0.679269359398428	-1.11807295773102	-2.68058403182573	0.957645441085356	-1.42905889678723	-0.922869946363184	-1.39311038106265	2.37090040429845	-0.0947268477331759	0.251000263922825	0.316134749083569	-0.993388571787126	-0.827852316609234	-0.392350125597187	-0.0631324504583794	-0.368987957134823
"HSC:TCATACCA-CGCTAGTC"	-3.3638237475681	-0.108657652443791	-1.52262616618212	2.15597649614888	-2.4671963240382	2.13784387027676	0.199825220221195	-1.92874520333247	2.05494947613096	0.116449900830488	-1.32798066802258	0.169190975595543	1.50477190145698	1.81525048437886	-0.136286048826069	0.646155432493351	0.128294542623932	3.39625947868798	-1.03054113802705	-0.733019323586348	0.299817482374032	3.59950022381591	2.46084697989804	-1.59807572204779	-2.09340799690011	3.30287694384249	0.89348453899778	0.505657104163329	1.13254903308819	0.442197814776091	2.23765644185788	0.334631459982501	1.52431601659931	-0.544187698629784	0.438330632008395	-2.45033289753584	-0.44096405022459	-1.4446434521668	1.55163054962254	0.511186391300072	0.739156697734718	-0.352832016546259	-0.107336510019153	0.13699760118827	-0.825530438054733	0.332800988613839	0.420437110805176	-1.77059594627484	-2.60009775098955	-2.00429287963462
"HSC:GAGAAACC-ACACTAAG"	-2.23502263554149	2.67930249760837	2.81005306207988	0.249358133853957	-0.0448226468190326	1.1652511064243	-1.8114762549283	-1.31840857236467	2.4822627184477	-1.27159795884014	2.55689326739551	0.466736472968005	0.175917353939672	-3.14401447607533	-5.63062665607348	0.425289991421003	0.458984142029657	-0.0759105699302699	2.7331408974218	0.415676791575128	-1.26190143146372	0.520369557834529	1.65956160718558	-0.66831392354713	-1.42125499871386	-0.272272426971706	-0.219564874276135	0.843384703211049	2.86028385165992	1.49088554949174	1.46830940595115	0.339928278385201	0.897667205640572	-1.89052063193981	-2.17989548902935	-1.54429043297888	1.85225542704426	0.447190206286669	1.35417494606921	0.0704878963331796	-0.273598348089294	-0.838515507346686	-0.233905247182101	-1.15853623608178	-1.4775740147961	-2.69288193523729	-0.395466012799817	0.903737313081678	0.319044927600788	-0.520333910932296
"HSC:AGACCTCA-CATTTGTT"	-2.29400912282653	-0.588419453341326	0.282472589326547	2.92414178709154	-2.05839570734092	2.01033585534214	-0.378925199698955	0.975724425988555	0.822765109201446	-1.18255027167186	-2.17534339294099	0.109599436594763	3.85554596805527	-0.931158419852785	-0.00270099148425817	2.43660497919222	0.798726351768195	2.95174536998996	0.0886515339666283	1.93196693163822	1.66259576808862	-1.13130084189449	2.04746331140421	-0.460765515885661	-0.510951821443498	0.681779254975532	-0.749003854584893	-1.74074531782253	0.134448755989423	2.53191443499171	-3.08038377775857	-0.476352924686011	-0.140278451349564	2.15560059627972	-1.70516225184976	-0.339910418017531	-1.57905151230292	1.72387241268485	0.277522596559138	0.180553296340295	2.36986012992633	-1.43556576776268	0.790752399810249	1.03398185088867	0.864583987382507	0.948515647211781	3.45622597084533	0.586531582861243	-0.217695861730317	0.357675719187486
"HSC:AACGGTAG-GCGCATTC"	2.27613803516388	-7.74258727183311	5.92419935909669	0.711628907098934	-2.14064189061083	-2.07145724256612	-3.43541601321453	-4.40842066978786	0.936532162416444	-0.829467867545961	-2.01017107011689	-0.382972379489432	-3.01612526739082	-2.08865595538862	-1.59831564165816	-0.368599009768427	1.26325124748485	1.17378432999463	-0.39481669987437	1.27114348341411	-1.18785129100215	-1.05743232410345	0.665079290433142	-2.26221682207591	-0.436604356631036	0.137796589216131	0.44022307494998	2.27764975850297	1.12960603947729	-1.36444199192016	0.197396140497107	-2.67910204961753	-0.789507498489559	-2.57670271521828	-2.76786664374535	0.131238266787486	-1.62857259126041	1.17080760716709	-2.17448879638275	0.873070497003632	-1.44525317252119	1.00616554353981	-0.0399661229041601	0.92158173833843	0.786697844655007	1.25206899798698	2.65926120784128	-1.30550000028763	1.70746589144556	0.324087037362345
"HSC:GACACAAA-GGACTTCC"	-3.08356218342081	2.29480400225028	3.85966181714734	-3.77089927968453	6.14223125943036	1.25479474652657	-0.0736176855974593	-0.886458042586706	-3.93422465288175	-0.980241499214527	0.469051508730513	-1.89272324174584	-2.60827419287496	-0.583001142132074	-1.72865679208863	-2.19659874948758	2.07553968576551	-2.31381205038678	1.9306041164246	1.83128456234479	-2.37437092563472	0.527625957990585	1.52414412947733	2.29483837854912	-2.11289699247396	3.77743889831462	-2.02625463205341	3.00154306513792	2.59005213443677	-2.21056087478896	2.01506975731166	4.27108571260719	-2.98887879269296	-0.372795994531135	0.874691222380202	-1.92031635232974	-1.58473867608651	-1.92842254500283	0.150197943549649	-1.5721362213656	-0.791223694928924	2.33330843697742	4.15231428684888	-1.23845261667048	0.294076265939866	-0.230266079014978	-2.11501013583324	5.39241644920151	-2.95523872099707	1.23105399850408
"HSC:GGGTCTAG-GCGTTGCT"	-4.53054960916715	1.03561819710364	-0.869231108287931	0.780987291890836	-1.95133195794717	0.472002730241847	1.38045671818761	-1.3384869835167	-1.83596729959199	0.383071895765252	1.46776772855019	0.665908632030954	-2.11183568505914	-0.69991975991782	0.0782813963057253	-1.84710668826578	-1.93470427281196	2.42230650571826	0.886969485224245	-0.126116102553192	-1.0443297738779	2.71953460600252	-3.1836515171399	0.935934284630398	1.95762787014031	0.0491357050471811	-2.51323984344816	0.670871731385297	-1.71428466920449	2.79050171562025	0.95320489040542	-0.568292192465088	3.32274110109786	2.63604275276706	-1.01839382883114	-0.896212833789215	1.01623415693282	0.9766577462365	1.10659296543318	-3.49740381276299	-0.429713597252708	-1.73589506793944	0.617640275219297	1.54021826413019	-1.18147370776426	-0.824656426661003	-1.03546760504879	1.07529461262869	-0.314450597667321	-1.92731688430108
"HSC:GTGCCCAT-CGTACCTA"	-3.46870134522843	2.86027523692177	4.40263408780137	0.698119140247353	-0.840527042523364	-0.689674277428447	-1.16743934859281	-1.41322161818255	-1.44975636600058	-3.16029765664194	-0.783018109359638	-1.2389473488681	-1.57151526379016	2.93121988164987	-1.13813171980167	2.90798120936799	-2.01212121648998	1.25387608260076	-1.22211441708067	1.07484779345603	1.22562199644605	-2.88577390628348	-0.908332230365959	1.82640811568614	-1.15438541671944	2.65737462266195	-1.4156692900484	1.47387918278415	-2.15662149132271	-0.122747247168148	-0.139621837977587	1.59850779502253	3.08586309522362	-0.360090600701758	1.29994350419507	1.59126644008198	0.859072274668624	1.20678060035216	-1.10527696527075	0.590949484502684	1.49497935502215	0.870284797263179	-2.12304406928455	1.31057831564115	0.186314492431804	-0.309141714823019	2.73345626761788	1.01691749210843	2.1577131799023	-2.34650393964951
"HSC:AACGCCAA-TTCGTTCC"	-3.110835612065	1.6167703261773	3.15686926788245	-0.958174590504936	-0.654432799834522	0.616667033046426	-0.601691578410822	2.51204485000788	-2.74284361268561	1.74968669850374	0.615568699565325	0.831022935759912	-1.78246220104079	-0.660858100199249	-0.492563052858913	1.91133625592755	0.08953397731181	-0.907946227562828	3.06975820313161	2.17099006230473	1.4666232747324	2.39045329809217	1.24958083702175	-2.13129571911541	-0.627714573128631	3.92169961747536	1.80706764057056	-2.46593273176911	0.26567663381093	0.502809569592313	-0.0963033554170403	-1.1413219735355	2.32805993754019	1.71406849099841	-1.61012850352836	-0.131441498074579	-1.03440974433091	-0.994230954202652	-0.302264939423467	-2.1543518107038	1.28682131860998	-1.35211593908912	-2.04076600714138	-1.73528952790086	-0.611040593604874	-1.87229340285018	0.0189379018039257	-0.507652998448769	-2.79231993539723	-0.218388526796328
"HSC:TATTAGCG-TTGCATAT"	-0.20035345981573	1.07834174443635	0.929250102968707	2.51769480688846	-1.28897002288954	-1.34363121876213	1.01781722613322	-1.73121743919862	-2.86669320595703	-1.978313963493	0.661479633249037	-0.481530159310249	0.109936217462792	-3.67883304040672	-0.970963716652401	-0.659773768122711	0.865525933956532	2.54162638180242	4.71976414224258	1.30603367182877	-0.188245307903497	0.213917848717408	-0.0965787788687561	-1.36309672055747	-0.0329045380799293	-0.325649810273545	-0.641333056656842	-2.77201891086041	1.12141317542169	-0.383010540003265	2.37190324395736	-2.90647770360015	2.08767251626876	1.13899428230488	-0.402192901240074	0.135862769971327	0.110023869477101	-3.03957485842438	-0.205464403032265	0.0983241399813143	3.27234333366323	2.00303406609462	-0.618107984578181	-2.73547642513628	-0.291365205444483	-1.23011659160883	-2.4143243713998	0.388125672216109	-2.39887228666846	-3.11942958878127
"HSC:CAGACTCG-CTTCGATT"	-1.15254665560761	1.54194387033273	1.04288444752705	0.764814169401118	-1.74599505854351	-1.47853567659685	0.287486230229491	-0.668153192381797	0.531947226502929	1.21537364725814	-3.91766051030328	-0.908530279974393	0.69782402117198	1.6435723630961	0.66735426326087	-0.968784615010212	1.45178292049628	-1.48828781284649	-0.293273190113255	1.77494005997467	-1.88820312489123	-1.06281277873987	0.41185754416797	-0.214800030191337	-2.81449740982559	-0.874606156597712	-0.644329842457925	1.80819248997432	-1.97528873840814	-0.398599792240516	0.0506414395440122	-0.835387504560093	-3.78220141735045	0.769934630555487	0.311627252709812	1.04910560735124	-0.742217723065343	-2.07087666875373	1.1158979750628	-0.909146553283143	0.795208142810405	-0.230191529354098	-2.42076492692806	-0.0566462081282992	0.25501738647694	-1.37048723506385	-0.804550774743052	-1.29865522426609	1.44446692004317	0.84962203343321
"HSC:GCGTATTC-GGAAACAG"	5.46204943375399	-7.12080198325914	5.53415263609375	3.42850425519655	-0.50387769897132	-1.84782103177032	-3.59768065971419	1.83159842396078	0.254366304942725	-2.42744376676777	1.54559517004007	0.440453496407031	0.731590499111151	0.480856258662828	0.755938084497747	2.80839510179441	-0.603424276500603	1.09002109826554	-0.91889145609113	-0.941464544796359	-2.01848465445553	1.56973572463605	0.491765723639577	-2.5668272449243	1.65109840487456	-0.489234787016336	0.844808585511115	0.347562452356367	-0.997807307391264	-1.00016422731419	0.182001770263711	-2.40054356499694	0.354089502967601	0.543663431224371	1.76135967175718	0.170447564477556	0.319004926622138	-1.9605918722908	-0.123471950442654	-0.836307137416103	0.713098678557463	-2.89005232071475	-1.73078117335048	0.763428529834705	-0.333911064175443	-4.75361509277204	-1.28107500725325	0.00712522594827251	-0.0454793293846751	3.23816194362413
"HSC:ATCGCGCT-GAATACGC"	-4.08428996335529	3.77801416634401	1.56484038065348	0.540605850383449	-0.573889974234423	1.85665435722759	1.53173977769984	-2.51600217590437	0.334503497460477	0.721648523176866	1.36804897874869	0.182420513988474	-1.79958670564338	0.5848783060894	3.68127941655079	1.57729441639387	-0.626671345466646	2.33805077657688	-2.22113890528353	-1.49242890109657	-2.83951334097355	0.686293338812966	-0.0463694007645216	-0.367544787436959	1.5376982264404	1.09780363483335	0.314115575360112	0.687944589562604	0.560833665731994	0.0367600191297374	-0.013689798486638	1.09814451406155	1.03120890592987	-1.24015938313676	-0.543483532380134	-0.178090991881575	3.83176078839947	-3.1683461796556	0.833015273070361	-1.56857886189438	1.31533170340071	0.557692726032239	1.15448011190712	0.902455471497424	-0.0794154664538321	0.698726348887745	-0.380455382755934	-0.508937773074893	0.191963277517493	-0.127323556620201
"HSC:ACGGCAGT-CTCCGCAT"	1.76272814871889	0.614068950808622	3.75240707607339	2.13859547988206	-5.81301246205316	-2.88863877155817	3.30323843674658	1.30240933315758	-3.77302176042474	-1.89647125071412	-0.194578531346587	0.621327254282854	1.27893830108928	1.39720352441581	4.17626816730374	0.70750721576425	2.95173832198584	2.44167353266776	-0.717978433217636	2.56896773551644	-0.294812379526493	-1.50917566596533	0.620291030973184	1.20525738517635	1.35352365292261	-0.369723821603072	-1.67946531893564	-0.643714647426441	-0.197822058967886	2.70341588604559	1.49448919466921	-0.209545280823818	1.42914769386019	0.69994785290707	3.60151949876138	1.54688207958382	-0.822069185793825	-1.42242039839877	-0.503747444146559	-0.486965242240569	0.532623125063635	1.19945205160645	0.171502902585948	1.99073801881669	-1.30469157928747	-0.695184957959191	-1.59385134502944	-1.21245329651602	-0.781995100690683	-1.07971269680824
"HSC:GATGTGGC-CTCGCGTA"	-1.98207873796641	4.08452957116775	4.51084261518422	-1.49331582162155	0.489254422235264	-0.48176778575119	0.183814260186334	0.859024995108606	1.66442601841187	-0.238706757937191	-0.336934539566442	4.23968515447048	-2.73614849224598	-1.77543805985694	-0.834020765396488	3.24003714792873	-1.66008599217411	-0.38998916621158	2.88782695845653	0.284477685331972	-2.28481028139673	-0.112686297907039	1.48750577863375	-2.86000147358811	1.50798480635045	0.358321770049584	0.269201008237256	-1.34057854768478	1.02041098813974	-1.51042024076252	-1.21369854372272	0.470070514903171	-0.0707693161084105	-3.45665724155208	0.260838911792071	1.58533178118149	0.215439669629806	-0.431804262648345	-0.307509292006859	3.61185113425002	0.769538714858909	-1.01540661156215	0.475093746175252	-1.38736396527836	0.125031806824799	-1.10766714658545	1.90615406545234	0.562563166395359	1.86278159937397	2.69905106102558
"HSC:AGCCATCT-GTCCAAAG"	-2.28321451576091	1.61011609361987	2.89227061261452	-1.47712148750479	-0.324637848145575	-1.25306634264648	1.02554029952001	-1.75704111235343	-1.14939901448964	2.06708295826657	3.30651419456085	-1.92911562304902	0.578316039395889	-0.0856274787949433	2.24263668814972	0.259426272961712	2.01901708295201	1.29414689664353	-1.96614956572183	-2.70189888833906	-1.62903533613154	-0.275906880135742	-0.749960572235999	0.0946349835392306	-1.15138138977836	1.06021634884725	1.8796839306618	-0.00992593818742954	-1.37830229894467	3.23335463660719	2.92221297763436	0.431699881434669	0.629623621748985	0.6845116836568	0.181553221317382	-0.549418422951114	2.19034231741468	1.07634304669809	-0.568011926401552	0.51473288102387	-0.925350447424073	0.765799299192277	2.21396689479435	1.56378000149841	1.06877005811546	0.608002816230161	-4.2526465710632	0.83781334998461	2.40342051435578	-2.12553494732422
"HSC:TCATTTCA-TGAGGTCT"	-3.87056375943924	0.577497863578516	1.01285856459384	-0.441539370316613	-2.54038977710194	-0.194998981055568	0.0630948527138572	2.05757223694292	-0.236774133722404	-1.48170692888508	0.468516759179552	1.80697422417732	-3.42691878095483	-0.295031578839865	0.491445461443105	1.82856990211445	-1.7817367078384	2.67064586269102	0.945439608416904	-2.06660688081903	-1.2357090414854	-0.305319429111118	-0.199779064917573	0.177806509295179	0.522156062712004	-1.59364203043872	0.255040733633711	1.11343002020245	1.24621924242876	-0.255035434452101	0.0634760506633721	0.941196184648343	1.50078434111277	-0.884644069031832	0.300378248294031	-0.135505410257621	-1.62354056431528	4.4451104424251	3.5003297883698	-2.39826488504122	-1.12988538155836	-4.16642561005784	2.12362566359761	-0.925092817353884	-2.12597814705335	1.75985042524749	-0.163046969271798	-2.00753558567465	-1.26820026478799	-0.727594216166538
"HSC:GGGTCATT-TTGGACTT"	-4.57245973440717	4.21712656268572	2.1581411021578	-2.79630267787881	-1.48490220901751	-0.447812438153995	1.72735566541091	-2.45347177663052	2.19098981411194	-0.251321393037239	1.80345799093766	-0.8031319631357	-1.40709688191609	2.79368041597002	-0.422672695176462	-1.03769369537816	-0.782153419921198	-0.33039417789886	-0.275590859270281	4.14542261806768	-0.977535823995564	-2.25959377324269	-3.75084215270272	2.10989090032757	2.35134705514877	1.34578156072153	0.607713470680673	0.904930924376631	2.80104766542602	-1.69631571436541	-1.3851363628545	-0.853570722306936	-1.18922238636923	0.263562313586071	1.18239565805709	0.389066763331172	-0.474419674567505	-0.258988187769238	-3.75483863572485	0.794442740993781	1.0137941995979	1.06480669873784	1.33253563798174	1.20555015519923	2.75119663046163	0.202939743003067	1.29937250689888	-2.9437215490216	-1.67003645632743	-1.00076180765112
"HSC:TAGTCTCT-AGCGCCTT"	-4.14662414015758	4.05453172118818	6.18373994021918	0.385278426462577	-2.37064135695176	1.72410495499238	-0.353082416800528	1.29743787196992	-0.200652736734225	-2.43661864459218	-2.30114345009269	3.11162391742286	0.484346468976677	0.90365160641437	-2.33257584713053	-1.39444573319342	1.67289366858388	0.0362334330982112	-0.301595412339701	-1.2598866625052	0.541177874068424	-0.368238357697261	0.858456476105757	2.5559344163431	-0.897580128946517	-0.746010227331708	-3.0779208511939	-2.10784839596786	0.253039596055026	-1.71291900698236	-3.3437940903872	-1.73757382749473	-2.03953739107075	-1.58450199951913	-1.18821278461217	-3.3761865497391	-2.17439528918902	-1.5557410465424	0.130241540927892	0.509102928181291	0.621865630865292	2.63108409579973	-0.363935939428607	-1.75563471055077	-1.47567134980638	-0.183325602635117	-0.713082596812779	2.72727001255056	-0.615000879333492	-0.978555290987345
"HSC:TGCGACTA-CGTATTTC"	-1.8072972031104	-2.41474632677979	-1.40351574027414	-1.28061647383727	1.64974814577724	-1.2479004244796	-3.27001370554203	-1.30604307473171	0.687001108229197	-0.608690011945687	-0.960014986765073	2.7701298677172	-0.932951644805843	0.188078629296113	1.54688599498642	-1.73658656004967	-0.288564708065448	-3.09106160832367	0.923685160377073	3.40268456837745	0.462851996558817	3.97389267540765	-0.429540272434678	0.00798416194351816	-0.794030561723201	-3.1969439506691	-1.09738231567085	0.550201035872963	-0.00436857974864448	3.829606798083	4.39109966235261	-0.338590470920317	1.16196496915231	3.44738900269859	-3.22515894757924	-3.07955392996445	-0.086795566470467	0.243065837808644	0.0753526592996414	1.78752638368719	2.88109831471504	-2.37447087811586	0.382280330210098	2.47379892773716	-1.31335128960169	-1.11823828294041	-0.736002550290309	-0.0819787341768895	1.74685061857687	1.75162699662384
"HSC:AAGGCGCT-GGAAACAG"	6.81518440803032	-1.82524966211878	4.34280206598713	-2.16325161013757	4.64719166720995	3.42669506237475	2.08224024682611	-1.79344120566884	-1.63230082546119	0.480367049587694	1.98424958036258	0.665587291975947	0.773722970374052	-1.07414249031469	-0.136147211062099	-3.40766484440117	-1.55506035212384	0.416706299948773	-2.22936875637044	-1.32591224462203	-0.982739894164284	-3.59416110766683	-0.582246340016869	-1.91929053487105	1.2513469177316	0.189833258166689	2.37482542102158	1.06370368353261	-0.337169562156987	2.00085592348636	1.22211963367907	-1.23203667097637	-0.514091358735048	2.01765690667373	2.24067456129225	0.472577294369006	-1.07750727039853	-1.67927134247933	-0.574992348201632	-0.953112067668456	-0.807283309181781	-0.51771545005712	3.58331580102316	-1.83388197548507	-0.977675588030414	-1.28848155365024	-0.797408594851721	0.736550666937388	-2.43700793630039	1.97468762712451
"HSC:CTGTTTCC-TGGAGGAG"	-2.55148753145516	2.45717518383083	2.58400169000208	1.91331614567122	0.44954365036592	0.761505765882762	1.79356949726018	1.30926091973222	-1.43117896986391	-1.15097305787538	3.66233557326907	0.85152007317079	-0.404737026857468	-1.73533047663889	0.0141052368502396	-2.50714652129762	0.683837665205773	-2.12423020825946	2.23176953183892	0.546024358250313	-2.83998004761762	1.81207507500378	-0.35962444353749	-0.155094550172975	-1.86746224810965	0.465545929039149	-0.318506248386462	1.05282739273973	-3.1247397527286	1.18571265827831	-0.369568898743232	-0.640272515684648	-0.126059630400839	-1.6206061715864	3.56953853439873	0.80548339816774	-0.965037285332027	0.635450881236834	-2.37280244484864	0.723785973996211	-1.82862060807571	1.8204447663906	0.204109048308934	2.02220512788084	1.45308978419396	-3.02886240331763	0.787505746517026	2.0327403536792	0.826297946289215	1.25326049474249
"HSC:GGTAAATC-AGTGATGC"	-3.17283797948846	0.328731442799656	-5.18847212411666	2.57525118595729	-4.36901207155253	-0.904639553105219	3.54094019461153	-1.00917111848838	-2.57634685367923	1.20434079984295	1.94441126844424	0.436586920361894	1.73786380018083	0.452286470721335	-0.895173765008251	0.569277349265206	-1.52620462049787	2.46636763364389	-1.15959615760649	-0.734226674398879	1.58336613740186	1.40311458118853	-0.235289271770767	0.312422126030723	-1.27460285807576	-3.28378261300144	1.29598005419928	0.27543673411855	0.451635072215614	1.28281055931061	-0.168150264708527	1.45705769100522	-0.483037786350034	-3.17564524881283	-1.83787576989602	0.6652412042614	-1.01885370675415	1.76905674210715	0.268202789009788	1.59150542113577	0.08756578993438	0.110399241786666	-0.609153195452134	-2.77217135727218	-1.40583162204947	2.20568943016043	-2.33564068809646	-0.498644943337653	-0.680754264323834	1.53555009788652
"HSC:TACGTTCG-TCTGCATC"	-4.89772017813593	5.17877513132981	2.22986168527092	-0.398133670296137	-1.57040221076922	-0.673682307335278	1.2842196664334	-1.3386856098564	-2.27667732756181	1.57370716156449	0.0979693307829547	-0.66070504797127	-1.41980089458725	-2.71489660694118	-2.32379001776265	0.289670604879861	-3.37230210160249	2.93288192200854	-0.7653425055836	0.0787220832096578	1.46972653463429	-0.570366712980569	0.323238702359734	0.350821799785123	0.816756874483826	-0.195740443375355	3.06814258450449	-2.50997662068381	0.889368384790636	-2.12302491118253	0.523850445776223	2.94574467395489	0.123143965674486	-0.254162831535725	0.651775380493935	-0.740279317312041	0.0926163412570428	-0.935462528470379	-0.924570887645235	0.403684399624556	-0.413240957687414	-1.21767444743278	0.472429759265781	-0.730843241738068	2.76022742440662	1.13446377718483	-0.164113753651443	0.33641462123087	0.000138407415014264	2.99829672756327
"HSC:CCGTCTTA-CATCTCCC"	-6.3705463711223	3.74809456938315	-0.634224766991316	0.419563271935194	-1.46580490540828	-0.0720654657677901	1.79673331828563	-2.18231557941808	-0.758355663616888	-2.28802208140237	2.026387614555	-1.68068804361239	1.09211708258242	-0.555346460645983	-1.99821816441158	-0.585474345547228	1.34471746995478	-0.963756211751949	2.66203232533776	-0.34886127465692	0.617277185420838	0.111502566184411	1.22469191918292	4.02650082599701	0.121990541253487	2.35070673845902	0.228188700377348	-0.16410387598819	-1.59076232079172	1.32405443883416	1.14354386957786	-0.893336077456707	0.00420961743887913	0.199150882843133	1.83794704673008	-0.839910348943506	-2.16945302674602	-1.18597986244071	-1.03539896442705	0.379153420605527	-0.999797853760896	-2.96487310602276	-2.955300117541	-0.769273120691363	-0.0243246578804818	1.10014327216944	1.27941339553003	-1.38997331903185	2.24844836580491	-0.0753055703476438
"HSC:GGGTCATT-ACGCAGAG"	-1.57400477839473	-0.1645338158574	-3.02325156946869	2.69611778953843	0.692364477374081	1.73572508877797	-2.51151831864414	-0.12141136898893	0.860112564996946	0.00204440981509337	-3.44838122045507	1.22754591943637	-0.201590161425547	-0.518710233272014	0.758362130465194	0.934002296473402	0.874605871029463	-3.24362756944488	-0.967243784830557	-0.266895828270123	1.71610557124438	0.375840138797556	0.706402123532327	-1.24514895387814	-1.48155026594807	-2.20474725379583	0.303549297497528	-0.284595836156903	0.376495977675983	-0.822584468787301	-1.06581477609659	-0.61311039586202	-0.708219550347057	0.567591339073493	0.445122918559053	-0.387475660153602	1.41215123868593	5.91064563989958	0.664054485486276	1.10150246314868	3.37149243749133	-0.942649541050949	-2.49143115219767	-3.12634188614355	-0.32132587474864	0.249014554160329	1.87588573494033	-1.93703561222604	-0.272718896097614	-0.0811714692741063
"HSC:CTGTTGTG-TAGCCTCG"	-3.11509682826165	1.75087064398802	1.29525381791945	-1.80933683312322	-2.89001578777125	0.00217828904785249	-1.66712096937261	-0.580549216875262	1.65804764454277	-0.263068200669157	-0.465031181770472	1.02783970344038	-3.17288480492852	-1.83038812766098	0.898588271168309	-1.86564692158067	2.01225059661541	1.68621795648801	1.50574948812675	-1.11117867824345	2.28372719964167	0.427951065555785	0.17554113588905	-1.18774142479177	1.44189965548841	-0.778611341296252	0.952074245711712	-1.25550486351484	-0.24916238410758	2.10365907853664	-2.42163434411552	-1.17931514803959	0.11015400918622	-1.65879542382424	0.312820216609887	-0.495620629984523	-0.166253311465376	-1.22965700035769	0.147679940819686	0.836398010142716	1.85659761148391	-0.819116323998497	0.118714701828314	1.96268190518263	-0.346449071257053	-1.68695281795703	-0.623612773995745	-0.341848407782721	-0.514795954292739	-1.19329226465959
"HSC:AATGGCGT-CTGAGTGC"	-1.92291318697026	1.14206589681303	3.54766623138142	0.728287580369656	2.57071662519844	2.50067057962277	-1.72364181297277	-0.0563994611205726	-0.749849967297165	-1.89029458401383	-4.64162194425354	-1.05059528287328	-1.99191628569024	1.85329678206951	-0.649837357563518	-1.21853009833673	-2.13425519545002	-0.0763715225977766	0.714553756256639	2.61892299857794	1.79356986533364	1.18130911362943	0.837418912439615	-1.48961170662952	0.779728780101099	2.7754844064408	1.10641680033704	-1.13121423522509	-0.644140307159224	0.224269825792386	0.107174054147875	-0.252252575052871	0.836477311133886	-1.70557174414197	-0.678637891637023	1.0731230481446	-0.670475895162947	-1.71858343879444	2.49254889007927	1.80318894882385	1.85211278336478	-0.83778872680555	1.19391018129852	0.238208783153638	0.802104683792457	-3.23905397225544	-0.954201927451052	-3.6087237111345	-1.3426619928796	-1.44890371692034
"HSC:CATTCGGG-CCATTTGA"	-1.8745593910954	3.25995961996536	0.968572584353455	-0.477499577104286	0.37457138102575	-0.564056058850334	0.055818180437105	-1.54382648306955	2.39008936353025	-1.71661243694431	-1.26838597650407	-1.25836810594011	4.13463155159998	-0.642856519608925	-2.30562136068286	1.7995779854824	-1.04756490651731	1.68400029360576	0.72802581324998	-1.91526324849568	-0.682625009868106	0.452603560996369	-0.0104881531241376	0.152548406734545	-2.69536707415606	-2.85585268228439	-3.0092775816124	-0.215423316153886	-2.056126821642	1.08809602527264	0.863908813568443	-0.897929585188708	1.54174620404335	-0.0468671370355144	0.475319232022001	0.904086047310434	0.554844216869	0.778697623073979	1.44462253742622	2.13932552314943	-1.1736836719091	0.985398683784992	-2.54251728166712	-0.22430967961886	-0.0271040838570545	0.424367402619493	-1.6821063867394	-0.956682572766819	-0.892460613642933	-2.07808728218479
"HSC:TGACGTCG-CTCAGAAT"	-4.30060487215688	1.7210341258726	-0.788145632924994	1.17830443276868	-4.09616687125716	-1.46245814966768	-2.63350147449511	-0.521098508299068	-2.31235354547067	-0.330306770774822	3.92996840341572	-2.60249161055201	-2.08657636411347	-0.204917640613414	-3.55482916145552	1.13580289675231	-0.728007672980266	0.801355375954059	2.73913314834696	0.301958519635672	-3.06237323671881	-1.59625167936929	1.00614582871826	-0.480496710041288	1.49695097709395	0.47456518473193	-1.70324677064927	-0.35348199238566	1.14505612350757	-0.293725853174872	-0.16202876907854	-2.79899730481391	0.155075169392565	-0.14955074415923	0.0334159242718365	-0.693026547183593	-0.218635106463064	1.52398522375516	1.06062485863248	-0.331705403209467	1.48970327770874	-0.0582773954642159	1.34576263093834	-1.2355492983178	-1.46432271607045	-1.86568850718606	1.51908261054432	-0.409658571684723	0.769258609830584	-0.837416967860936
"HSC:AGGCGTTT-TAGAAATG"	-3.43338877618943	3.67720937377417	4.34232761274208	-0.929590259712969	1.75154904752183	0.874855619293853	0.208259049792859	-0.34668653086029	1.62047891629924	-2.79520023549328	1.0564523302092	1.68397488702082	0.376902390376173	-1.56579990319332	0.818660016778914	0.729070993515544	-2.64036884971309	1.96243238810111	-3.04772310181982	1.89873154863284	-2.4412875867739	-2.5910936624906	1.35839012064308	-0.149157006731673	-1.8093124033776	-2.29332779246796	-0.448773396873467	-1.75434167475882	-0.0707211555170374	-2.75967486434341	-0.902959733345995	1.12760060849631	-0.0101331405836441	1.02622323215236	-0.590234330680748	-0.661033125650235	-1.10412773447256	-1.17223334266586	-0.133433461102977	-2.17170607694663	-1.62079873063947	-4.837293683229	0.519726867494106	1.59080493809896	-0.393736297733421	0.80093239347013	-1.99719798460738	-1.61100308229852	-0.183226967016248	-0.957347740237144
"HSC:ACCTGAAG-CACAACAG"	-0.742653743836203	3.54135534133939	0.994183225078861	-0.148279735492834	1.32045530516632	-3.68494180267354	2.44470371227901	3.44901860179324	-1.11717050517855	-4.18151737402005	4.18415190051388	-0.0292474257212669	1.31428737840859	-1.984751756342	3.07248631626342	-2.84195771684958	-1.9361351887585	-1.97247075919458	-0.87829902672567	1.44151490414209	-1.07821502914033	-0.0495660398664752	-1.43678147275006	-0.300545370742243	1.03796510153111	2.78483145769962	0.568037974807376	1.81056873610652	1.93954366659457	-1.68467176445948	1.20035106243779	0.730904537737356	-0.460566604925202	2.26647740887914	0.835771956311047	0.902580571821405	-1.63643332797226	0.353730538269915	-0.228356874203858	1.90977005058102	2.90744253655553	2.48148702699987	-1.86474029158896	-1.31125242135388	0.800581394484098	0.428462828351422	-1.39410164046679	0.0630436396249908	-0.594130448184137	-0.574747709718414
"HSC:TATCTGTC-TCGGTACG"	-0.501626370475309	0.126609401470437	3.33705425376177	-2.72723424774951	-1.9787536052033	-3.46365227531365	2.89677338861484	0.770026614550677	-0.536287542159142	-2.33965671279135	-3.26425911240768	-0.45925735257434	-1.34121281308487	1.61236179875879	1.66317033398202	-0.171506853093489	1.94190344256289	-3.45213125498362	1.77017131090655	0.680683973580153	-1.17226920933347	2.39599823777583	0.699977914866936	1.61205881037795	-1.7578322970253	1.84822188548336	2.02482609688759	-1.34346688443149	3.04694635283029	1.10534730784779	3.20354676454824	0.192409009580661	0.212511290978182	1.95868571858504	0.642751719316895	-1.93888371379329	0.823262718078502	-0.644091870982764	-2.52787260379655	-1.37592390464701	0.582113218506776	-2.76732785590344	-0.495638142755682	0.689987204479541	0.960293050180315	-0.114804225336808	0.129004150913573	2.45090104155027	0.460966479185931	-0.227905995615783
"HSC:TACCTCCC-TCCTTATT"	-3.17809504869006	1.07240020334146	4.2498171719683	1.63058394315053	-1.57456057848658	1.78165697464426	-0.201867342904189	-1.24623721714468	-1.01829847744265	-0.824147098403698	2.75087125269078	2.43947964484506	0.00208784337242881	-0.199859858952245	-2.66403079731781	0.76587094441234	0.811471090976713	2.1728525509381	-0.055347620546735	0.922477692459583	2.97825072824409	1.088200790986	1.3459464311566	4.76826740911878	-1.50684158495286	2.32369109030008	-1.19672234531422	-2.28576534147571	0.46181607991644	-1.10374734895841	0.740253833924663	1.57455173076908	-1.02452024531644	1.14924062490151	-4.3550731668361	2.04950572579804	1.45379364826601	1.50443367238724	0.168260144541343	-0.44083723226793	-1.6044694782125	0.815556811026648	-1.1741773876149	-2.63574074319488	-1.42633637486023	-0.542747942055148	-1.30447887549862	-2.79303239794238	2.76323727410195	0.227447610576024
"HSC:CATTCATT-TACAAACT"	3.10189423075397	-4.76202885709489	3.06282882236872	5.25911548425071	-3.85619772207021	0.633152205785094	0.755146723427337	-0.0960346529869981	-1.39171218028114	-1.22979670281147	-1.54310745803434	3.16990588108292	-2.32253226233232	-0.64471233458396	2.65368205137412	1.39445553664543	-2.00365390970317	-0.169847168130511	0.366928410349016	0.239987467334611	-2.20225157046809	1.3896920021927	0.107645966024961	-0.732829678843068	0.718057078826552	0.389777266440366	0.954770295329341	0.0249084680454607	-0.587148343772155	0.48879550141912	-0.792204243161201	-1.38501589084207	-1.4855075638196	-2.40280582067779	-1.5438308641695	-0.272677335317925	-1.84302303906693	2.85438596778285	0.165595420615783	-1.93061154734422	1.58836758641829	0.502401493197352	-1.53244746251727	-0.4989026150776	-0.685981002689118	-0.0162765167417106	-0.904367415260721	-2.45955120349927	-0.369932328802358	2.83487935041375
"HSC:CTCCTCCA-GATCTCGG"	-3.89197634248526	1.69567891009696	5.17896459223853	-0.970360205614384	0.381640171900894	3.43397478041786	-2.5591918253135	1.95695935414474	-2.56267587072673	0.452101123419961	0.760672085565965	-2.27874091413602	0.199646138679426	0.50326060598806	2.96629002699848	0.753557190271829	1.24634665343105	1.55085095486375	-1.46333011258946	2.47504929092645	-1.72291488867097	1.62582066073848	-1.02316895821019	-0.0748183309675988	0.584430018915106	-0.786667395179376	0.183581543025201	-2.28506477725741	-0.675293546698069	2.23599081518429	-1.2807591635424	0.581267799014537	0.42738418997562	-1.01117025061605	-1.56489177045731	0.952345000767231	1.04557855922286	1.30336524512592	0.0747026179505089	0.00974783456204967	0.405371883229261	-2.71355314698151	1.21913377181493	-3.32356269199725	-2.61867754035645	4.60674379863286	-0.235153792871854	-0.114333733386998	-0.905509668933748	2.30249290436277
"HSC:GTAAACAA-CTGAGTGC"	-5.03588780387657	3.55189287684817	1.45462344569043	-1.91201003553144	-1.77958399811013	-2.96609779437428	2.80988184147252	-4.1218146807492	-1.08771947546491	3.01436371983285	1.821945104968	0.6672761248401	-3.82685516793876	-0.251218167221682	-0.502499117566353	0.649697167381309	-2.39906945081281	-0.748468874928876	0.469739851755423	0.283686243371319	2.72460431246528	-1.50862613176369	-2.19158024493192	1.93563479171064	-1.32835535623999	3.54066008477746	3.04153202254281	-0.437286701615017	0.944945337884358	0.534680858890936	3.03659039574822	2.34466661968504	-1.45943046274005	3.00577399990494	-2.33690007669939	-2.18920340553773	-1.01327686055464	-1.46552363217096	-2.04755717033733	-2.35095283502747	-0.561682868234564	-0.635323261608893	1.4533088722767	-1.2421652644298	-0.173284151960456	1.02442777916821	-0.819631597196525	0.512537777703284	0.0349687759255299	1.02864091805235
"HSC:GTAAGCCG-AGTGAAAG"	-4.54502943112326	2.30493595688377	-1.31062176839138	1.54600294864813	-1.66792501094522	0.0969156372675179	1.10465700762377	2.96892354596209	0.420865135290929	0.141951580422511	0.506167921086969	2.01301516087721	-1.75084933532167	-0.822255182361952	2.53598713722332	-3.51485994616732	2.86156951823865	-2.25694348668556	1.81053043971279	-0.573454335494595	0.917611796308566	0.704800637221163	0.26197363806414	-0.584859883338232	0.907000350923701	0.633487044451796	0.0809387445046597	-1.34587263865242	1.25072841925456	-1.10361482280077	1.8119565252242	-0.28914835974289	-1.63070322570533	-0.916342381347829	-0.0183193437276715	-0.44333094167822	-0.0662089080901527	1.96322960494021	-0.0293670823123226	-0.145543616067593	2.00669366502656	3.53330997042077	-1.26605742953642	-1.48551025655681	-0.865311070131021	0.183781188295076	-2.66225839917629	0.665280352691489	-1.06081911588441	-0.577157220741927
"HSC:GCCAAAGC-CTGTTCTT"	-3.48901717825363	2.14191887891538	0.826987857140925	1.35898226801796	-0.65117830950269	0.212838513199502	1.33351702739443	2.02547543948978	-3.76063589629825	-1.0008015275426	1.17474144270713	0.54308479531965	1.34680141714284	-2.76609284699547	1.17613283688211	-1.52503057995299	-0.129045426656626	-0.306538851164903	1.80569156085823	-0.113706450711021	-4.93726437083689	0.404448670922871	0.0336273728985462	2.33081167791717	-2.19234281625456	1.19843671916323	1.01559793101976	-0.841942708189003	-0.305768771609206	-1.17085276810648	3.49512206941938	0.612475479654985	2.74435951382582	1.69548453656799	0.158019426095005	-0.766063200139087	0.478122996601852	2.43891478048002	-1.68611754142874	0.958787425294312	0.473088664034909	0.380980136881396	0.354728952654867	-2.07187808329467	-0.806144638676232	1.24129797997482	-0.435886161236963	0.0459842482196072	1.55485918911207	-0.37910830631073
"HSC:TGCACCAG-GATCTCGG"	0.530501011106562	-6.65614970254933	3.88235039119221	0.502190585687194	-4.25320154425126	-2.00720570602488	-2.3208790878659	-0.679655718467351	0.617371834954217	-0.424033590304794	-0.292105475472299	-1.69547851787568	-0.262781827673746	-0.690299318708892	4.69607417948988	1.28490415129799	0.725057545820013	0.53113868551264	-1.28970244988372	-0.942584902003301	-0.460514777955516	0.179261395856668	-1.35121665508201	2.21821381087232	-1.54142302555517	-0.0051631262537582	-1.13078105687527	0.107328845681462	1.18428624359939	2.09469116038568	1.03013216421294	0.017363028161372	-0.970979848402502	0.899513311548223	-2.35983041344019	-1.03471951501704	2.39762363426459	-3.16591634873339	-4.39635610570905	-1.80925373234291	-0.551936029559156	-0.98539290079124	-1.54227235249115	-0.956038365609271	-1.4692421576817	0.169217651679381	-0.128294736607834	-0.495971957428166	0.142971743170828	1.27795638443296
"HSC:AAGGGACC-GGTGACAC"	-2.61738039207835	2.77865439336691	0.70840101145146	0.813798728129561	-1.06922436892283	1.17744869862907	-0.832725856041799	-1.27022306767118	-2.08827888992044	3.60745211079672	-0.513888021378905	0.672485958182199	-2.36346387015346	1.74786210004951	4.36043600716765	2.76305929547601	-1.28855428296881	-0.843310941609219	2.10003021538434	1.65875078314434	1.18112930918899	1.42926041779365	1.599253582446	0.128146040170953	0.639360358658124	0.866275696276274	-0.0323530717004291	0.86824557015081	-0.805059960468001	-0.355006252463057	1.27357009105881	-1.39879916511979	2.09515839771544	1.87062035369856	-1.4612453758689	1.23882573874932	0.372353884512546	0.984698995749211	3.54695515377402	1.99521155732394	2.24129307870067	1.12048416008736	0.886806718167561	0.678307082922949	0.88295477167642	-1.02021828819176	0.00964895843361675	-0.226968590780696	-0.875013704078528	-0.856335899496718
"HSC:TCGGTCAT-GTCATATT"	3.05562710057343	-7.33465063696391	7.22388311432833	-0.529064793891183	0.297621755947416	-4.9176500844646	-5.94114309090976	-0.816314966146135	-0.204001642566384	-0.332692420738115	-1.50242574661228	-0.0950826656837837	0.179854058857533	-0.529277780880448	-0.487219300381084	-0.0343484639169351	-0.858851762668916	0.818224940197781	0.730648168733198	2.79714459609549	0.683131440503057	0.152528372363903	1.92509987076904	0.507209203735546	-2.80842333096092	-1.51725262016343	-2.63552325950482	0.72635431592206	1.57048011607763	1.49150726202788	2.93070724315569	-1.53673161249553	-1.25225552716343	-0.0436709709183937	-0.245163872653394	1.69235436586942	-3.49909935176431	1.71325430572285	0.176638261097156	-0.855402534730401	1.90294433610309	0.438737577534485	0.0778806166744363	-1.87327402035931	0.386934285448693	-0.771356343159802	2.49017776808971	0.614793785571138	1.80878736857869	-0.796755647428757
"HSC:TCATACCA-GATTGCGA"	-3.84422430730971	3.0264429495011	-1.82435149600636	3.61263733873453	-2.64515410520382	0.807070089867143	-2.19155246751506	-0.32705149346043	-1.50905872787922	-1.7269701311208	1.38734452018934	2.41537227619221	-1.82995435321884	2.27118252968589	-0.197193038014605	0.391443262976627	-2.27065673348148	3.8146100944667	-0.939734019774873	0.715392094930367	-0.677299563324796	-0.220160070778868	0.16614046679424	-1.39259288200984	-3.45011244771488	-1.70740792880078	0.0254105593702019	2.56081006724484	-1.37701719124235	2.28561522819904	3.71841855432175	1.89649288594488	-1.15271005006942	0.640759751404699	-0.833632866550814	1.95413366084156	-1.69284152058266	-1.33028686126907	0.0162716777421159	-1.39153135073688	-0.273835845556297	-0.563007002662483	0.587755971644276	-0.189271349190002	-2.85525775364363	0.845023413566457	1.36504074456167	-1.56006069857478	0.279405491218301	1.09378721827793
"HSC:CCGACTTT-TTGAGGGT"	-1.08628917989157	1.83774731130728	1.60425292027989	1.52857650455381	2.48673136792693	-0.444850872210218	-1.2199359444822	0.257984967810819	1.49056738102249	-2.77219964483287	-0.180377616483969	-2.24465573190731	0.504041009761474	-5.62675175316805	2.08733455382177	2.05580839927038	0.607737694905397	0.832204609696658	-0.814581154363754	-0.0389399025983141	1.00445862148579	-1.6966810321632	-0.910159846147028	1.08315782685739	1.60770931405958	-0.628088397393966	-0.766379999900546	0.256060917056037	2.43108105514406	-2.50603155070193	-0.842224227427946	-1.77719923076823	1.46508495400277	2.51537926378663	2.19615804165699	2.66087223103938	0.19785681994397	3.03227928059416	-1.55394860794001	-0.723793611919789	-0.15769130532551	0.859380517872843	0.252473012186506	-2.27283869662626	-1.64815390301623	-0.580159940749421	2.56211784619528	-4.8800236196505	-0.866594919880046	-3.44364914576699
"HSC:CCGGAAAT-TGAGGTCT"	-3.92473059257909	6.16867158148334	2.81371698519799	-2.59661259343905	-0.207379366338373	-1.16191979581206	0.754737400499328	-2.33526735374948	0.569290510302908	-0.162325731575408	-0.595361290069442	0.809286961676222	0.802967343742736	1.12616067344898	-1.74052461259938	-0.947667861064497	3.59550655016039	0.234331172612512	-2.27019685430296	0.300113294273407	0.240613847704987	-2.76364900777548	-0.0450862953859009	0.340605607230644	-2.53871095584034	2.25429062779122	-2.10985779216013	1.14903989196856	1.93740415716722	1.82695928248674	-0.427579812775474	0.456756189525667	-0.0160307058906599	-0.588057829060352	-0.676636985058127	2.11273500424607	0.748359556847124	1.11228244429599	-1.86731479462838	0.601745718053618	-1.36160249808306	0.301473200504007	-0.716826624191152	0.0554515392577324	1.2961323908898	-0.383341401629557	3.82190036288333	1.74806536549964	2.64383008863186	-0.978024312921769
"HSC:GAGGGTCA-GGAGAAGC"	-3.78490601926896	0.404596834560148	-4.86744275322511	2.6988851678632	-1.60162228266448	-2.97475646596033	-1.84341777005957	2.28779169107813	-0.447341972527919	-1.13406173520764	-2.21924179181625	2.34450258858231	0.412565222240815	-2.78529218631459	-0.225804054006722	1.03600001371298	-4.01040962660585	-0.475735209088255	-0.71252837117163	-1.391570176647	-0.152367947215063	0.912625565438047	-1.0745518405225	-1.85014243703279	-1.13055942397983	-2.45949781580147	1.04599408273246	1.20273006035691	-2.45662230379891	-0.48156652703987	-3.00136081593931	-3.27657914478826	-0.583471334227816	-1.98423564920791	-0.586054808114704	0.010033734022026	1.00514013069577	-0.776657992898297	4.06962290196108	-1.32013893922474	-0.570761320392407	-0.0886595648227158	-0.690951060805371	-2.12942882424935	-0.162931048764711	-1.18866690349065	-0.0565493565702161	0.766305748671252	-1.40566203663934	-0.121705908116053
"HSC:CAGGTTGC-TTCCGAGT"	-3.58455813973702	0.350088203890677	4.51779072696071	-3.21642013302585	-2.19031624848744	-2.51198594969557	0.502016851885825	-1.05297986121188	-0.0615329816573348	-0.186083029886787	-2.51133476515304	-0.293787575232471	2.37986717711315	3.74938085002127	1.3891567212418	3.05276377813567	-1.94503483161352	2.76762961164955	-0.0756448437594503	0.613723582945961	-0.367995000752283	0.953271767599973	0.769197364226686	0.186503858952677	1.00385995481155	2.61882205091549	-2.18279572677184	0.764935426628955	-0.563901923831419	-0.439250995952271	2.62282354988672	1.18424815444825	-0.720329310465126	-2.07921909005548	-2.06766643141645	0.389754977328624	1.9398356630977	-1.70724260831868	-0.185754552581976	1.08853177260784	-0.487353414843193	-1.81911066579837	0.468333404655446	-1.9490341493616	-3.16178073335268	2.08030225093325	0.267380198055011	3.73804493673057	0.0390350106490645	0.753894785656572
"HSC:CCAGCGAA-GGGAGGTA"	-3.26450017102087	1.2819290380362	0.797211873183838	-0.336641980848098	-4.19033219532768	2.96840367665642	-1.34860954592236	-3.0549249236624	0.346915420915406	-1.11811514776762	-0.848940527864254	1.45189354146333	-1.14920922765955	2.34902873196086	0.466478586093099	2.8965819109475	3.18156476222396	-0.160915258047755	-1.48551551874609	0.960023176100811	-1.83651203352079	-0.678886400686588	0.852417546480346	1.42807978762492	-0.314307035767199	1.67920351289303	0.221035269292422	-1.28740293998545	-0.59604791664293	0.71225481807793	-3.11327367727062	1.10931821979277	-0.333907636716044	0.862756799459096	0.570475179817528	-0.495839881801599	3.35999801662728	0.724957448543734	-2.93391244060672	2.59979731909644	0.423769371199387	2.36729378210506	1.40949865485088	-3.79201406639452	0.897776257684052	0.357053702284646	-0.294235175216911	-2.96660102405928	0.479180503814186	0.269173042197414
"HSC:TAATCCAT-CTACGAGC"	-2.0080772312615	0.511295260829966	2.61812047558394	-1.88658947813144	0.0674696919723945	-1.15837245944765	2.97993040491466	-0.445758242458683	1.96012864270282	1.09511645224317	-3.15332802181023	1.85287989173864	0.516695113153367	-2.26434338482386	-0.148229280256818	0.953967937761362	-1.53137479241649	1.31913563500137	-1.13205368676288	-0.00439591925763812	-1.79440202143362	2.28327473236623	1.93700954871462	-1.65700671935718	-1.64679914554141	-1.22415204817156	-1.78198972021513	1.58588409418206	-0.0084886669490977	-0.343699140057078	-0.307800921801687	2.8621332903288	-0.97977272542305	-0.581608411655962	1.48324029093783	-1.23841910596012	-0.263343388740455	-1.88398176664136	-0.400647082380357	-1.24503517736422	0.961122832617177	-1.41575788811069	-0.117084388110368	-1.15927215637923	1.36217610925593	0.587073009785704	-4.7257836828294	0.334602658333865	0.924665155117452	0.669796878564164
"HSC:AGTTTGTA-CGGACAAC"	-2.86796545056589	4.61293593501953	5.48578987108981	-0.0352767151000841	0.180494438508207	0.896390924317292	-1.60368074627771	0.557660871489609	1.12545415894624	-0.954403712660868	0.279776397192342	2.15326199569174	0.505181697908791	-0.915423744280432	-0.960082532136987	-0.4768718885607	2.88879451000758	-0.981014878819718	-0.506519091709672	-0.509153989760626	-0.697256929141458	-4.01775163868904	-2.73722816199999	2.14079831458956	-2.06213945844151	-3.56137164881256	-2.59573020212644	0.997727998793668	1.29738345846596	1.01169555831574	1.71706701973735	-0.960814432207985	-1.44345572522651	-0.95032709982332	-1.17628757367574	-0.701240649527658	-2.47324527379135	-1.85743494855492	2.80990805546159	2.00352625980482	-0.30301778434156	-0.736222606006298	0.973404219459741	1.72495293655452	0.643748127615368	3.16363596939359	1.62959355570384	-0.433858729060532	-1.10419474287399	-0.402848641747902
"HSC:TGAATAGG-AAGGTAAT"	-1.28563126236834	0.299449117436218	5.08939450757078	-3.19086049717822	1.57085725239456	1.21575915897734	-1.23059890278954	0.0577213261577911	-1.5533763773852	-0.402939362391693	0.392045010575012	1.65649973708171	-2.50722294082256	-2.64237466326549	-0.182105515897028	0.0143696886072902	0.278479902036845	1.39098482387989	-0.440944431759364	0.329766697319718	2.22820771073007	2.62361059098946	2.65829630488251	-0.700906583917999	0.867409582401513	0.517653591888131	-0.117620522218864	-1.0671736247702	0.542344210448281	0.469576979700614	1.34095594359513	-0.0351694531817804	2.30742643381023	0.67103422114113	0.0943200427462899	1.99449888224769	1.82763470596831	0.391881472639508	0.915661260537755	2.3585455155773	0.853770847391418	-2.52624411509983	-1.40747751849159	-0.393142925379711	-0.442371176807968	0.507958527719377	-0.40152970887866	-0.333272299331138	-1.69300609489047	-2.60981889372173
"HSC:GTCCGTCA-TCATCCTT"	-4.20614087990723	1.47554557577678	-2.53944874401482	2.20419472835424	-1.84168710402441	-1.12893060993156	-2.31015426428044	2.00270030051135	1.32126956574815	-0.817774123834503	3.58542721551757	0.376513212328667	-3.77808429398766	-1.78006631455614	0.381111253273457	0.968636853026995	-2.0026057575219	-0.546185523455874	0.938556987092894	-1.02712381736709	1.71995018918759	-0.69034796547555	-2.32962754229583	-0.840853589582442	-2.28917096919293	0.0740914986043709	1.10038987956489	0.719035616753632	-1.86228499975923	0.0178169179463699	-0.904226064435236	0.26292719274764	-0.370588223509265	1.42445425948809	-0.931574025550024	-0.125154313027104	2.82782199115409	-1.51525934545969	1.64866791325347	-1.47962596222858	1.2389050243232	0.625027965515791	-0.618116527966866	-0.0727386298316132	2.21934049497926	1.84991904015322	1.91819598472641	0.589241924075443	-0.353517250051741	3.57652051186931
"HSC:ACCTGAAG-CTTCTGGA"	-6.68333649400497	5.06702574903487	0.935000276696078	-3.26218157038062	-1.4602495948225	-0.105519831512853	0.863361368615307	-2.63380055647688	0.47204787080536	0.941862208672936	1.91598095978681	-0.47728402798154	-2.53386160054466	-0.548518186166502	1.76110169134624	0.495444710008772	-0.645871658331212	-0.359153864810887	-0.744716043875303	0.653323825658277	-1.5071864643658	0.468356151957271	-2.76813546596316	1.73613014275502	-0.519386320681026	-0.203979920140579	0.74389228782921	-0.802897321008708	0.219554970860492	0.777770752393139	0.523960113297198	-0.294808551929743	0.746809369962441	-0.288487387173189	0.105761374987291	-1.19840023100426	0.113193443027676	-0.647313310552971	-1.39782551259255	2.28092175652772	1.35604929121158	1.50977336570272	-0.103671418187083	2.59578856491297	0.0500263689769427	-0.914051142617223	0.773894849947116	-0.696691577516282	-0.898178416361001	0.968641381827476
"HSC:AAACAAAC-TTGCACGC"	-2.31691434394488	3.93709790420527	0.866707661588675	1.3677799154008	2.09996911039229	1.48138552794091	-0.937453285190846	0.356292475784462	-0.549143250747652	-1.16579671652251	3.06111760997681	-2.81451679122655	-1.6861683372666	-2.69550164091547	-0.769423619958589	-0.707221667207887	0.791145482585638	0.216722742038148	-1.85799812522865	1.00067774086842	-2.29859548383652	-0.617000731381642	0.0839125644094723	1.27673618656486	3.85870783378023	-1.38295138841858	2.91824185191337	-1.51959118877351	3.62711701142512	0.903122335089168	0.550648152530229	0.728027087767159	2.676381693891	-0.00856605912954061	-1.57542217996066	0.628000181148661	0.192990922647903	-0.966296038775603	1.20473416313202	1.87375921610977	-0.113986876863404	-1.0707105671401	0.671005007210961	-2.46259285844629	-2.05707217618924	1.35683955056384	-0.37311819181335	-1.27156968796788	-1.46869006013831	-2.77363141838968
"HSC:CCTCATGA-TGATAACA"	-3.83345673026004	0.314443002835088	-1.94892416392368	3.81256918062476	-2.21596948159353	0.535167220033365	-2.06908329654165	-0.980834487775182	3.78661477475731	-0.607678600027338	1.40357244198748	1.32932449110711	2.57480326167924	-1.42563068641547	-0.448687176794148	1.37653685906412	0.949701685650544	-2.71061250828976	-0.513840897818844	-2.18403282234742	2.37822558547005	0.505713680325247	1.77775249912259	0.148746717505053	-0.554069149859532	-0.947570047515247	-1.86590362451311	-0.0854154705738486	-2.86675354605628	1.76296835550052	0.541769972820659	1.51966757305063	-1.88567132338221	1.66885417646495	-1.65169030978968	-0.681427190914716	-2.69743505509729	-1.20802962575935	0.615987799787465	-0.320962184440623	2.21464448539299	0.911328275888758	-1.14920643272241	3.1343016719371	-2.30564817356751	1.87037755680981	-0.385042240283664	1.40037707143091	-3.07992570522622	2.73107050543667
"HSC:ACAAAGAT-GTTAACCA"	-1.74539014198534	2.6063564129925	4.21834427918185	-2.98144968378644	2.3994130583081	-1.24512076319805	-0.00842962367297514	1.8856880462781	2.91851973762693	0.473622750336451	-0.244383980856429	1.27715351446724	-0.717557606932529	3.95294567250913	1.10476291508184	-0.760453048719807	-2.06876917878611	1.68715999610084	-2.80121959064324	0.116908050987381	0.915002274580852	0.331344507477075	-2.62953624857977	0.198112656257322	-1.93743772399461	-0.763664474311586	0.456218409127161	0.767773642176915	-1.37634886033443	0.90225436029974	-1.91457977084638	0.199659542201747	2.00369236611792	0.852396880818263	0.517180360853218	-5.05092104779605	-1.55324476844211	0.45646066898957	-1.05691296891649	2.30075534697245	-0.865953596823739	-0.657233003242907	2.394171537611	0.290718772485847	-1.20602242041132	1.86898676503029	-0.502988402499407	0.32401620178617	-3.10500525415685	-0.305462198528139
"HSC:GGTTACAC-TCCCAATC"	-4.04532284359858	1.68528553042806	-0.664898715036369	1.07205679641706	-0.365672317406851	0.725037695175474	-0.351799261737559	-1.92648246341805	3.54837512619062	-1.96665144427508	-1.76218919534385	1.34623543907973	-0.89806648833059	1.84700934357986	-2.55123927385099	2.11794768900317	-0.413884990743766	1.50524819714972	0.388881811105607	1.69128870377301	-1.94540745758153	0.203976364217281	-2.41536122436062	-1.53182902855715	-0.15804338477363	-0.0782674705169944	-0.862149777954725	1.29714756772315	0.51566783313809	-0.297610302970145	-0.184810104158816	1.48422507897053	2.0976553734968	-0.226530720249049	-0.258381157274925	0.244297267455176	0.514932030369548	-1.4218125680504	-0.0062024694571866	-1.00714880632266	1.56674935231419	-2.34333712389352	-1.2023276612954	-0.699768905738063	0.975751524280382	1.74127836255227	0.260565747450975	-1.25641522695388	0.36613100048613	-3.18472387108789
"HSC:TAATGTGG-CGAGATGT"	5.57178017544503	-3.89283301671393	4.14723929982554	3.29441802405319	-2.89079664269751	-2.8615370442368	-0.305116819386878	-2.27536877799147	1.40944133105663	-1.61536599718607	-1.2022405825286	-0.993323247089184	2.9177159590694	-2.02516970070358	-2.07671872152308	-3.69626702368536	2.46018629379871	2.20266337926393	0.212654656088354	2.2265087004562	0.21244201927364	-0.66599775259638	-1.29658450262843	2.16945153422137	-2.11375565575901	1.24426465554614	0.0123548088440411	0.767035674195315	-0.0579838384731209	0.622311554730956	-3.06372823329207	-0.228888753502935	-1.02461520854103	0.0561861770841683	1.29335463498106	-2.64639014867617	0.914144155442976	0.679695603099232	-0.366806549660394	-0.547549357147372	-1.21724447886905	1.12022239351955	-0.5765842052736	-0.89954847899887	1.73526659248583	0.974303044619033	-0.49178667928556	0.0654664835391103	1.91549345221729	-2.1714063251611
"HSC:ATCGCGCT-GGTCTGAC"	-4.78298335293138	-3.73783984020442	-2.27682368768835	-6.01213243393408	2.01192442009891	-1.17531456786801	-1.92212927715485	0.448813115184082	-2.40460427399803	0.594967878074156	-2.05082481414904	-0.947969684087885	1.42699186415736	-2.62908878977477	0.337169915628398	-1.63209063469248	1.59213267667013	-0.148288806896574	1.96067413729037	2.95326177965272	-1.45781392857099	0.0418959769448904	-0.413608393136459	-3.65592902584428	-3.86611836623726	2.48145058947146	-0.826811425341994	-0.504908577096217	2.19544648071092	1.71137404623318	1.90405215031465	-0.514418381719374	0.0494376030238136	0.958427602202736	-0.243381102751633	0.892351154644801	-3.08285916553765	1.45183768398694	3.23955283614503	0.078744368317987	0.934527197125206	-2.39042882998754	1.03689412346628	0.346916429318969	1.75972616698019	-0.630413272273435	0.222323517234514	-0.966936473432125	-0.666284270677833	0.947944555745175
"HSC:GAGTGTAC-GGGTGTAT"	3.52140357303221	-4.96083467265307	8.75265066496743	1.34868275062601	-1.7119932967022	-0.775152907020386	-1.91441364173391	-1.31187073206676	-0.0623296816127466	-1.27769176561473	0.263943971251927	-2.18272096605419	-1.76222654273325	-1.95011577690798	0.661006561703148	-1.53711504381997	0.722352264398677	-1.11150315011535	-2.24399626969334	2.24615712353476	0.410284079732321	-2.70596349858235	-3.10321345435171	-0.250267607670715	-1.35007589100525	-0.245670775280025	-0.613093842277213	-2.59552205580858	4.03339502803106	2.46835561846601	0.56391868466482	1.0078723847609	-0.0160327283787265	-1.6408073912314	-2.65597051771818	1.33826687355044	-1.95601196546208	0.984189058379352	0.54127332427155	0.598674726950515	0.417636086369472	0.268335051226649	-1.00805207604479	-1.48862165663682	0.336118072964129	1.88083015396315	1.60661054049597	-0.0603497336723719	3.25978755248389	2.74957242750785
"HSC:ATTGGCCC-GAGTTTCG"	-1.52314082004358	1.14988498650943	0.895381546888393	1.78219529939764	0.357540381189964	0.118409437432603	-3.53804193168249	1.86646654644063	-0.405051189989078	2.48556737995734	-2.79826095736207	-1.13464687144317	3.43131387235183	-3.0630437797399	0.331258372129058	0.887536138378449	1.70560738171627	-0.650950362090101	0.555447826753347	-1.01107751648508	-4.89961447417705	-3.55007142263559	0.630515516100325	0.290789608304694	-3.28242316750717	0.498032347575481	0.940657808241667	0.876740635248281	1.04157425286882	-1.17657731762433	-2.18778766040863	1.69644666048681	1.81022834706703	2.43461162561499	2.29082103547586	1.79985115600577	1.10383861122097	0.922056349791658	-1.47519629861301	-1.57112048663658	0.256442045648474	-0.543630135026282	-1.67884361638361	0.33427059103341	1.49443996654886	-2.55770122194909	0.152008609868494	1.07235176316093	-1.75044253864447	-2.65406011501435
"HSC:GCTATGGG-AAACTGGT"	-0.966376246617105	2.97687867242429	3.47153554414046	-0.747404903962355	-0.199128497245932	1.36453828214589	-0.0177279708230789	0.0428908186565099	-0.876869866025141	-0.427408610348991	-1.70338639541287	3.76517105485506	-0.931039087663089	-1.93105205689041	-0.508274258644472	1.92628858196716	-0.254980719574557	0.999183765614406	-0.43566893120605	1.08910310248755	-0.341250636309656	-1.43997362687607	-1.78847550725787	1.02618917823318	-0.933932322411588	-1.73281816033764	1.77535510152109	-0.480495631782074	-1.69435949406026	-1.33349798309057	0.744137515807276	1.36596314055207	2.84585509108427	2.52274151264191	-1.37360585536862	-1.15580718268174	1.52663515747853	0.392601792455953	0.378697225117075	0.483955815606858	-0.241533913467207	2.63760428745143	-1.40162104906403	-2.54738069345501	0.00217941328863761	0.436612719130815	0.457332127233946	-0.327764609757257	2.91862018915072	0.652587160423824
"HSC:AACAGAAC-TCATATGG"	-2.92010120037008	2.80066672040873	1.18989196345707	1.99291926663981	2.05886688359534	2.47625803670875	-5.3025961492288	-0.604297737280009	0.245147301451643	2.91927147638532	-1.41175651945192	-0.0984374106214646	-0.0412368170259348	0.355905334366303	-4.45037259723421	0.335525252702746	3.4932744202242	1.48706225501965	0.921439361559669	1.6982079966685	-0.725751523056408	1.01811014383209	-2.60897514436398	1.99088077172225	1.04449049113872	-1.11282702621036	0.139387837571864	-1.46561797161214	0.728381546786493	0.0194347784308029	-1.33591280484284	4.41139151919644	-0.124061531852149	1.5752664096386	0.718152976944877	1.8044044921434	2.25758939998963	-1.62194182953006	1.56652087293997	-0.232460628397728	0.0433738216238603	2.23159978033423	-1.86994759911749	2.13471238333362	-2.26667472004374	-1.2543002069313	-0.642962035417695	-0.62653570003336	3.72265416659127	0.596529594458149
"HSC:CAGGTTGC-CTTTAATC"	-2.21753007894897	-0.750460425667171	-1.07451488083175	3.46961425217238	-7.21892569783772	0.444670546065394	-2.090268478356	0.372586977878678	1.28590293665424	-0.713113954677672	0.496285956455751	0.165056850666307	-1.86636850078882	-1.9411149707356	0.0307875936275438	-2.14007840052564	1.11088330703666	2.01233030348455	2.41667437197144	-2.69345578782145	-0.804129537811923	-1.39530793304398	-0.34783368789821	-2.34199981259223	-1.61967197326094	-2.36654058005938	-0.211943323153012	0.0443898085805702	-0.198581777048215	-2.49050323625471	-1.35906618413863	0.717095834956477	0.0367489611854662	4.09073369854839	0.681524009914047	1.23223731043752	-2.19314022619358	-1.13742479106498	1.50334375314634	1.22098415808412	-0.134524407045174	2.90427200210442	0.267395054285648	-0.0804388339556834	1.45701670782814	2.2525797830384	0.301122937366266	0.418005563805393	1.78495047452619	2.68356342215791
"HSC:TGGGAATT-ATGGGCAC"	-5.53265046412892	1.55706289390414	2.28537707967543	-0.971942159988245	-2.73595290655938	-0.459926926441474	-0.650537001098993	0.125164868166471	1.5654987095658	1.74471934534064	0.0609091851807802	2.38483851206675	-0.125579475803001	2.0931487646783	-1.91845677552733	-0.969287920612318	3.36305301633334	1.35488413082933	-0.611794892978371	0.92773807458402	0.911637607265604	0.319396698090505	-0.411072334951324	-2.85952377999645	0.506481490362355	2.45320498851367	-0.799530149823304	-0.157139849231792	0.783890694723563	0.724268560235174	-0.31186946716533	1.73441691701908	-1.01118595872757	-0.707315187386754	-0.229983314322277	0.683230542758047	1.23102027880539	-0.670067944591511	0.732039239202388	0.416021220196174	-1.48038061211438	-2.1598141152174	1.28805278291907	-1.85169811093657	0.197912150668304	-0.130791267650439	0.621953081051471	1.28740922119001	-0.60470571001121	1.22359352231359
"HSC:GCTTCTCC-CAGTCCCT"	-3.37024336073696	2.68899427009705	4.63852848826749	-2.1351632451743	2.31998906277326	3.17696145274771	5.5154546104847	2.47702980907895	0.104759531307484	-0.330776830815266	-3.04970983584716	0.104786150084237	-0.562295919077972	-3.21771436242801	0.983580323163251	-1.46592932307422	-2.24003965517159	0.555013267596927	2.78711796385754	0.66035165458284	3.06013594079144	-0.105676348712177	1.09717421590223	1.41919337565031	2.75854953548062	-0.354811961622812	-3.18086116553466	0.0511646675594622	1.06102760935961	1.68639507705921	-0.792435985594221	1.29779035630552	-0.0245802420077617	-0.435909539707176	-2.73140830262932	0.767814101694918	0.966146107937384	1.50193310531331	2.94504225702966	0.472444616915134	0.0723769217762221	0.454596291863004	-2.39646431678931	-1.48839245699847	-1.13632930106393	0.636536429811653	1.43707692396972	1.00898151233126	-1.8700520894517	2.19142501647037
"HSC:AACTCAGT-AACCTGAC"	-2.11357933585731	0.829978700658577	1.35362920044909	-3.09262663098317	0.84037238566806	-0.261468301342838	-1.06585607313017	-2.48181424254885	0.658761834291811	4.12037221444197	1.50947018884826	-1.62966731670061	0.0664189383021505	0.134276751184948	-2.03320480211176	4.91000553750671	-0.862602870625805	-1.66041047932293	0.375028759987982	0.652960377242287	-1.07534042618899	-1.28858155203402	0.506178723840366	-2.11185883617112	-3.43903603195671	-3.20794143284333	-0.501002984220366	-0.201074240660036	-0.861593118332377	1.52195888472284	0.534893475178608	-3.86224893076851	1.47833586358687	0.823875834911972	0.649713944674635	-1.33089618377236	0.699985166901777	-1.78971032825764	0.132870166232442	-0.438882683949514	1.53847458044027	0.0446565897828103	-1.26600189552727	-1.4108163292741	1.00375972052314	-0.200260532078315	0.497597044739332	1.32475549773625	1.44948752880065	1.40203660043312
"HSC:AATACATC-TTGCATAT"	-1.64688130367702	4.27183243610959	1.16425964511893	0.930455047189792	2.06019411524543	-0.103600977227889	0.895328218429211	-0.0755875230949208	-0.547324223306366	3.78942660688904	0.295408497433227	0.837699724636005	0.0989623125676284	3.72179837406506	-0.0598583843528173	3.91160997781849	-0.973622432750839	-1.38571019952244	0.538694498641526	0.231368113938266	-0.908401618912869	-1.68434662412386	-2.56911718610608	-2.29036914327571	-2.29691899661594	1.49557929778982	0.980457951198372	-0.277249945310566	-2.7682134347368	1.03394425687163	-1.08640995814942	-0.534618203819106	0.657217214786221	-0.935995190161576	-0.110492488203951	1.74434926189343	-0.621402184499078	2.26993550858484	-0.61587407691825	-0.268159276112775	-2.26334842910841	-1.18059845502123	-1.52374320306889	2.12175927924285	-1.00285220150887	2.14781442979605	2.41604070981394	0.931422533004249	1.46921377565888	-1.18298788354057
"HSC:AGCATGCC-GGCTACTA"	1.39816037087251	-3.5128559151457	8.49682009676402	0.141218873275319	-0.30032206349307	1.58119838331261	-0.627502658622539	0.962915708901975	-0.757154973383582	-3.07382254870902	-2.83399947986993	1.37753410617314	-1.09843480191127	-0.191707699562906	-1.22024038494466	0.488001479544539	-1.92281831016697	0.592749774667882	-0.601650795898536	2.27065711446192	1.34709500090393	1.01758444887171	0.755517786437038	-2.69589617754305	-0.286639289616553	0.0455707660646499	-0.659367299438945	0.642690978270419	2.97636273017289	2.20926567309203	-0.865897635672815	0.807160863774007	1.20887787533756	1.25989954289945	-1.86479159658301	2.4833819107616	3.09375781575163	-1.40361638840176	-1.13504239003337	-1.35528244486934	2.27241405524718	2.12069390828505	-1.9876555037471	-0.83836222557515	-0.101558405258458	2.8799697995396	1.71962586975242	1.22360364638521	0.788494773001714	0.493896880472226
"HSC:AACGTTAC-AAACCTCC"	-4.16482818624572	4.80131401169945	4.29128684269407	-2.34514717052865	1.95627096833096	0.638603503798186	0.203206492975459	2.2832354836623	0.233906298820491	1.16969999384058	4.09751440674038	-0.0155258806256955	-3.59603214728797	0.517318792965712	0.528743865727773	-2.13914387726278	-1.29139620116484	-2.01881974964573	0.78393233727044	-0.314438090564397	-2.41473096242005	-1.94884385121045	-1.09990323084287	-3.28978017228244	1.76667883441232	-0.597843016469928	1.77742889377897	-0.150433354819123	0.175851688123035	-0.510178549791048	-0.206842457743094	-0.396589837162119	0.680873495274478	-0.904545250207482	-0.192935232785574	1.00152421881891	-3.36060066546826	-0.0947561653866743	-1.75087057006687	-1.05381721170473	1.02629139708222	-0.737861997609655	-0.53868950593663	-0.472158573559345	-1.88422983735242	2.86418783796768	1.98691056825156	0.192379449592672	-1.14105309975751	-1.43055289212902
"HSC:TATCTGTC-CAGATTAC"	-0.152654037413054	-7.48413378692829	-2.0840623807962	-0.207487046011187	-4.25124087737414	-3.97819391568215	-2.71033721223717	-0.651612683909546	-2.57479828919793	1.72287609981055	-1.11116075896019	2.04936870408165	-0.899767523341813	-0.0792779594749877	-0.861577785393133	-1.16340805600185	4.51016881845868	4.42844069152119	1.41396004224889	0.325226458484073	2.81656241428857	-0.803861991146135	-3.16898776171221	2.75472973924314	0.111283314507721	-6.25844449600315	1.67315123083176	1.42360807691427	-1.48759196625814	1.0203602150028	-0.257753239803987	0.612380385086761	-1.50166431525901	1.69360381351624	2.87344803155512	0.43437550664677	1.84435733997194	0.411603473501306	1.08803956521413	2.81598282303962	0.0593530745584246	1.50613012531823	0.265234526517406	0.137570702390667	-1.77994608259938	2.28336883229953	-0.476495365406193	-0.268024969730594	2.50226337553574	1.30184555289639
"HSC:CAAGGGTT-ACCACGCT"	-3.06263876699161	-0.42932704784387	1.05275306026711	2.55829805529775	-1.05210996800495	3.315358410743	-0.588014339208969	-0.444657645097143	2.75475895952131	1.1874971180411	2.24039565113754	0.751813299378273	1.18576073634153	2.14483057588469	0.731222834272465	2.37622736182825	-2.62249936180444	-2.15497948704326	3.12707784310003	0.682118094804809	-0.16353306878017	0.607595198980523	-0.210370799852461	1.00731313381401	2.22664031051825	3.21028265660577	1.8421881386361	-1.31223808441027	-0.026270275561416	1.26487505792431	5.47131640755468	0.319642129003459	-2.64985757731304	2.89943237281649	-1.6170882758841	-3.95754301142972	-0.229653738870895	0.976239072614579	-1.69233541284042	0.339721549073269	-1.97643609922747	-0.739281650522356	1.74170371460741	1.28130845396617	4.38999408514747	-1.45291382256361	2.10577889304519	-0.0315870712115927	-1.11205524144027	3.31571664768964
"HSC:CAAGGAAT-TAGTGGAC"	-3.7583903946032	3.42891424726274	1.36520714046922	0.978973247072927	-2.58922500129687	-0.385095796609844	-3.22070471331985	0.079630119367807	1.92178548941659	-1.75398780266317	-0.435204411021359	1.00110486801625	-1.07790511073585	-1.78660055127906	-0.626375849405519	-2.51181377545003	-1.11695492042409	2.53029846139481	2.77684870968127	-0.63929072484935	-0.826989886730328	2.18763738673456	2.70378260190664	-2.78676809280793	2.10748860591392	-0.310536349664511	2.00134735455803	1.62722297341685	-0.17470851709592	0.417224910255298	0.46570561616603	2.72173439325279	2.3135662236325	-0.288240729867172	-0.455755649346691	2.13509011975558	0.43714396514591	0.644128014580656	4.58818462693988	1.97778861855419	0.683083860954099	2.05358548017463	-0.238955536111472	0.181931773672945	0.45156716787749	0.305752929667057	-0.182331288117151	1.93630117072568	0.291144167136592	0.167112564963717
"HSC:CTGTTAAA-AACACACG"	-3.6265368675095	3.74985422922729	6.55643052213378	-0.711190325846629	-1.1999481010516	1.88062993530187	3.12826759865753	-0.563898980230285	1.13524817816597	-1.74840671800658	2.86304538673318	3.89386746935715	0.796816396546745	2.76325540933497	-0.555601896999636	0.549973268342739	-2.17909104238426	0.531359029563792	-0.316280891795152	1.14371088889522	0.789387976251395	0.208207206003198	0.512703811451532	-0.0675461626099259	-2.14117532897941	0.447239983000748	0.752689130264142	0.474484157314195	1.40034121555103	0.0455790927233241	-1.00880178909213	0.858064669453213	1.28543207831208	2.41157903573603	3.74285194474036	1.0058266663676	-1.08764812469272	1.07775036374563	0.288257858740703	0.922457756589461	0.338293052687319	2.78835472643535	-0.979691716197332	-2.5779885067921	-0.529932565250793	-0.462075281425735	0.519835933120795	-0.657968961859588	-2.34117101895795	-0.338821987965088
"HSC:TCAAGGCG-TCCTTATT"	-4.40097568724842	4.03628728410326	1.22164433312737	-2.69082832504206	-0.137665407111795	-1.69401084575622	-0.398102745385094	0.541945487384419	2.10502699449749	2.30229275949532	1.34878017120809	2.48927173378554	0.643594539274568	2.27814164774195	-1.49788717411124	0.672585977263606	0.818870641922161	0.39734848436249	1.75231401786358	2.38086187265218	-2.88681306941889	-4.76415741899704	-2.18606998632326	3.12844195695216	0.0456037251474646	-2.85124534881702	-0.00839385320785052	-0.158128477659892	1.00972383303347	0.95436382167889	0.919298834179415	-2.92012711365867	-1.53585560665593	2.32479139830429	0.313020589336199	2.64418617393243	-0.549004011221851	0.152521171469529	-1.27245913927754	-0.459519771424521	-0.359703052279597	0.659328736245487	0.320483136578689	0.797172103292687	0.272208320582642	1.18093194905232	-0.808330879949219	-1.60542294582177	1.93681338982432	0.600087701411221
