"PC_1"	"PC_2"	"PC_3"	"PC_4"	"PC_5"	"PC_6"	"PC_7"	"PC_8"	"PC_9"	"PC_10"	"PC_11"	"PC_12"	"PC_13"	"PC_14"	"PC_15"	"PC_16"	"PC_17"	"PC_18"	"PC_19"	"PC_20"	"PC_21"	"PC_22"	"PC_23"	"PC_24"	"PC_25"	"PC_26"	"PC_27"	"PC_28"	"PC_29"	"PC_30"	"PC_31"	"PC_32"	"PC_33"	"PC_34"	"PC_35"	"PC_36"	"PC_37"	"PC_38"	"PC_39"	"PC_40"	"PC_41"	"PC_42"	"PC_43"	"PC_44"	"PC_45"	"PC_46"	"PC_47"	"PC_48"	"PC_49"	"PC_50"
"HSC.AACAAATG.GGTCCCTT"	-2.85211765112866	-2.06223907542158	1.76970509501118	-2.93042636476644	1.43477189322509	-4.27261032104614	-5.28311057092536	1.92399102508352	1.06309108708235	4.41403763527553	-0.81480725204571	0.0676294805744529	-0.887666802941652	-0.608223123963802	-1.42235772285569	1.89004085930325	-0.610205070606024	0.128237143615598	-1.57815892662538	-0.702814296849523	0.544286122135097	-0.404387319569591	-0.695694085388129	0.570878726903421	0.713900690890131	0.48516722626244	-0.134450687825507	0.441914232530744	-0.620287471293658	0.961439752492307	1.25621023524985	0.654042186430936	0.665814000867257	1.65114491941724	1.33686432539981	0.25027653559827	2.25588960789739	-0.090828139264451	-2.45621588308504	-0.910598548327528	0.872656100322928	0.132892999735993	0.586728900637257	-0.012974745726142	0.44623676338269	-1.09394779335623	-1.23486757479191	-1.18533338252517	0.375901753241631	-0.47162670223505
"HSC.AGCACGTA.CCATTACT"	3.45516442326414	-0.22007341438696	2.07677675471234	-0.14093927634485	0.07572214888061	0.568284359731276	-0.103780152597751	1.2069276480693	-0.282394283411829	0.456624333650051	-1.09202645142574	-2.6019005039712	-1.20670402153035	-0.70209717474445	-0.941119877631488	-0.78645816120904	-2.12257545044041	1.42562236761565	0.0745761290469157	-0.900169230196882	0.364318107349906	1.08241314468259	-0.494950628615224	0.0974798964835912	-1.07590892530589	0.154495919616513	0.0659401765354221	0.347558891466838	0.450347938461184	1.64991460896789	1.07028421534045	0.478430819950043	0.051873281784695	0.301190998985803	0.198294390611221	-0.082561555060858	-0.552202105757482	0.646633404647977	-0.269214158225398	-0.114645508320323	-0.20931273808782	0.0281721724333353	-0.926856371321202	-0.291804326144474	-0.866939804642551	-0.0557373228931101	0.678820327870218	-0.981492430240447	-0.977994024297633	0.0499475181616247
"HSC.AGCTTCGA.AACAATCC"	1.63997012376992	-1.15522579322683	-0.573259135604728	0.416452898030733	1.69818063087835	0.451176118771903	-1.89673699982687	-0.184460967716449	-1.657022938864	-1.36727652406971	2.20129927894101	-0.108572483881176	-0.931556598598488	-0.464937599329381	-1.76187327569697	-0.813208069566287	0.716961010040257	-0.664551977487223	0.565679674762113	1.31174146215182	-1.06199692230021	0.22258996177321	-1.98479156158976	-1.63365727831915	0.985017366420032	0.419449331122124	0.12797463590597	1.20639220105457	1.26205448395382	-1.19466814691205	0.50613982400555	0.0727210943368397	-0.16582960499897	-0.902623442432816	-1.77251665732538	-1.95920277170194	-0.223921932577848	0.31191337535004	-0.493368701587077	0.733562315901674	-0.0922640368616115	0.492216586063314	-0.0116366513658871	0.77327181871367	0.195822013284639	-0.669622836934372	-0.780630120689677	-0.765964435775328	1.15724188553707	-0.47587755210202
"HSC.GTCTTCCT.CCCTAACC"	3.32646312382159	0.507416987427909	1.37888385685481	-0.313393562009492	1.05549228490613	0.6500906289216	0.955393041932384	0.752364932417459	0.675308333010269	0.188685027587663	1.84202064555168	-0.220881247442199	-0.904359600491269	-0.176465861660606	0.060775938793925	0.0264773744879861	0.272359459776486	2.89735523235061	-0.720069955817889	-1.20608188243601	1.60503610070473	-2.06246403987171	-0.484600839487703	-0.612151065721639	-0.0677165578137338	1.18840864441842	1.36146045582808	0.433756548644615	0.710147952417106	0.736679008548821	-0.85667160374405	-0.628139310473977	1.96377572932851	1.80337307140344	-1.26198510532396	0.415398271690832	0.018453796262398	-0.290391810569849	-0.228565083734439	-1.7128446780762	-0.0300751585297968	-0.054057468944012	-2.17946548128359	-0.388781447393058	-0.354637022247163	0.304550253861827	0.304253961226276	0.0941248489931509	0.932070862979149	0.804709955783817
"HSC.ACCAAGGG.TGCCTCAC"	4.03133296820507	0.662293334756516	0.496257237132302	-1.84246030072027	-0.290218557448402	0.964387347910229	-0.398257839251211	-0.360305311786788	0.370790135616109	1.0655106141341	-0.369148524740164	-0.260882889760457	-1.76782432962693	1.12232656044565	1.20231418992479	-0.451678317907088	1.3688581749127	-0.822680650527701	1.51278736763209	-0.934132766625696	-0.203894161889793	-0.589642170705942	0.308215850469006	0.316755880660878	-0.87176463682253	-1.21180416219695	-0.366765624252385	0.220263993826093	-0.325263131514775	0.798017377607573	-1.05409579409608	0.128359918190755	0.340783774034684	0.968675085235369	0.076536001995313	2.0438359347919	-1.52402587734036	0.439983814663676	-1.75960165852893	-0.105495649097897	0.106983543335748	-0.510705999743972	-1.3890000396705	-0.372301932857858	0.147519498249154	0.850764471545166	-0.604119103315528	-0.476466121449129	0.00741965754339606	-0.112512360542162
"HSC.AGGCAATA.CGTAGAAG"	1.33315523817869	1.55154516157752	0.910594398174418	-1.06495031059984	0.017969369651401	-0.650432199955144	-0.317144518888727	-0.160570173281619	1.90477295313014	-0.339882610198613	-0.537485596821127	1.67602110101477	-0.21207168359785	-0.754441022634335	1.16557414228178	-0.136950015851383	-0.983513698812338	0.157625155518971	-0.698839918810174	-1.20510993529143	-0.108969532429139	0.952494524529947	-0.917661623086713	-0.0712510002359782	-0.814191131084234	0.134881028314318	-0.407491855942596	0.244265051985215	-0.392829521656862	0.195420797657395	2.32912770571356	0.242699360147418	1.74753439842009	0.0271187532293784	0.687849318006218	-2.13078859073689	-0.0261179031981232	-0.332900353013578	2.30798050099759	-2.05853387942616	-1.71880490756908	-0.187166578621135	-0.359143274851852	0.47929216533666	-0.355351632498664	0.219932763472489	-1.22506915127563	0.559709522926949	-0.979873128010691	-0.538826597266514
"HSC.TGAGCACA.ATACTCTT"	3.41801118499612	0.443051631768303	0.695621123096864	1.46180111006577	0.566039524085537	-0.137790225163654	0.0711572987609261	-0.947703978501217	0.378598873635812	-0.543727522819467	-0.87310093709041	-0.890024663651503	1.50751263883065	1.93302650447439	0.907465342442468	-0.303769469886501	1.44050434657759	0.0158773627434877	-0.404394274446994	-0.695914510720746	-0.600694964335418	0.467001644415614	1.06921108519288	-0.510816035392267	-0.377470007540161	-1.64996540287322	-0.769978988180362	-0.707663158925539	-0.249691700407654	-1.04566180083106	-0.416104465224887	-0.702867025102842	-0.990336821723009	0.86770317150242	-1.29577216990515	-0.943253150078525	0.287923229746083	0.110644810889389	0.871012356284664	-0.0106706693936147	-0.497446621508313	0.649213197080354	-0.663988123507026	1.50979202469002	1.52147243463328	0.318582205921622	-0.548992549693251	-0.464736002209572	0.00752716704191323	-0.0336555330092817
"HSC.ACTAGAGC.AACACACG"	0.69018093529155	0.26191198933508	0.929410265079249	-0.639994367045945	0.160566503004861	-0.804970053791334	0.152003683974212	0.429286479337714	0.296762408479074	0.250727531044739	0.0804008196417231	0.865047084366699	0.503881033159531	-0.287041883332759	-0.0593139785651347	0.914674331749817	-0.140628660938752	-0.717841865772381	-0.728457239177269	-0.254545335342444	0.441344619109297	-0.610288108979856	-0.177177264820518	0.492745910468782	-0.941531878651521	1.18951914906736	-1.12847687096037	0.182403711830362	0.331532311518793	0.958331028366534	1.0505744930831	-0.0132120657516566	-0.154108655587143	-0.430234764389996	-0.00185047571325026	-1.04256207616331	-1.10598111595981	1.53787236956686	1.55457692010565	-0.234618943215878	-0.521716870302404	1.10036881282237	-0.505218728376288	0.597678794475464	-0.523103476729386	-0.738620768288609	-0.248577789489406	-0.104978914311141	-0.707933018053587	-0.642060713439136
"HSC.AACAAATG.CACAACAG"	2.52370123608177	0.0645912725182142	1.97257289678633	-0.858957451056318	0.875507243716494	0.176797297546538	-0.921086407068412	-0.748200732404022	-1.39634078161041	0.0923676441149708	1.52884192875949	-0.0628096559690618	-1.23913955778655	-0.121076403344004	-0.425001632199038	-0.157803596617138	0.829776889410314	-0.797886767539486	0.947371374569283	-0.421729253147963	0.0304464889342057	0.617794965025502	0.901815559903089	-0.866232378932766	1.47701042175124	-1.96272844115143	0.663017864421592	2.21500326338804	-0.58352588983482	-0.0566428712522988	1.42647135250714	0.966179111058433	0.17607606770377	0.670833005209197	-0.116974391823279	0.657707957276233	-0.777602760260496	-1.97994575746123	-1.15135875030682	-1.87821113453744	-0.154176016234209	1.11592184901634	1.41763278570192	-1.11254769941316	-0.906322521972643	-2.13705535068263	-0.612879063850555	0.442396471360529	-0.318191137627699	0.491822020250719
"HSC.GGCTATAA.AAGCTTCT"	4.14760147425495	-1.2179920669702	1.48100945603959	-2.69908862680801	1.39627177925139	0.436567850394035	2.81562472258191	1.17566811287562	-0.752061828926057	1.22854102566506	-0.684812250435128	-0.222082737842998	0.00660733984251034	-0.220538386346315	-0.807421400161798	0.53841139339637	0.580934222908699	1.10234864699024	-0.310522743346778	-1.20208476160288	-0.163732621944161	0.328910166574411	-0.0135012669299963	1.15601960485514	2.44521097499609	1.2047758316651	0.811876907368844	0.172106685856873	0.00891037713194408	-0.624796684488093	1.53775158052113	1.12872122887859	0.582413262354747	-1.99819477675476	-0.258861575374824	1.00506106035387	0.097463391469699	-0.35332368934099	0.942575539732769	-0.596934703628477	1.19590957017399	-0.415721879712177	0.266405494366366	-0.738465339830907	0.280219312919709	-0.149562112349866	-0.401043255407919	-0.807138097871104	-0.358044543177223	-1.40859639927021
"HSC.ATTATTCG.CGAACGTA"	-4.07355502411291	-1.06077446000704	2.06006305858759	-0.447033107204032	-1.4462797271908	1.18839430677189	0.5680005967661	0.125690185988023	0.70143129359874	1.80731509723594	3.41761685340411	-3.98811669315834	0.661330330394909	-1.73798826291215	-0.0332173935689946	-1.28808069932963	1.22883944297539	0.108321306972754	-0.340338593506453	1.60426301757319	0.0304922360916722	1.06302232282619	2.32761943404144	0.0770787959095502	-0.877333805166856	-0.952100293276272	0.446439874242595	-0.0888089518541073	1.49977434832845	-1.66543548608489	-0.831892825490362	-0.193107928587238	-0.614669843078052	0.0209941989256434	2.05504281994983	-0.00542768323562655	0.305082837114684	-0.718809645335983	-1.07974805709806	-0.549940865198331	-1.16219596126866	-0.0455582193702791	0.99077959967118	-1.31470636038076	-0.24321055604246	-1.30312075353645	0.910523045547846	-1.98332490089711	-1.00805077896217	0.620368456479317
"HSC.AGGGACTG.GTTGTCAT"	1.81014568644756	-0.708356596443383	2.84760383165682	0.158751520765138	0.525534382857764	-0.953119411141343	-0.392844284156989	1.17182166583424	-1.15517083426303	1.75272491301142	1.70163260911688	-0.762346811445124	0.905806373074353	0.556876105689649	1.1477977144715	1.00502271803859	-0.465015928577946	1.478061345018	-1.08870863719301	-2.32474472911374	1.58536398717823	0.268130215829749	1.24908560174708	-0.121899662087756	-2.65560391704932	-0.195689461849294	1.57530052261682	0.144232693682646	0.63174514763365	-2.79133631934055	-0.310359009691082	-0.953115818327688	0.765069049926813	-1.08914070552706	-1.39940020604804	1.05468861037561	0.284890011739297	-2.13707026647368	-1.13662633107947	0.0613899701367487	0.669927720619699	-0.401568999311249	-1.75931237692112	0.749294108912846	2.24550022093254	0.722093452797285	-0.810812847619495	1.18780647351267	-0.550565180286679	0.138309694138064
"HSC.ATTTGTTG.AAACTCGA"	1.99187984824347	0.106104443712974	2.71840625118318	-0.501397773280474	1.42722912026795	0.137757667293118	-0.76298695633684	-2.08390001555553	0.190469563480138	-0.161228723939922	-1.22802797354602	-1.50490019564807	1.3448998049819	-0.0358637206238624	0.279554770671776	-1.69635255762681	-1.3730556656148	0.784283873681421	0.0964772070282219	1.15111613403892	-1.47320644364113	0.644800740199386	-0.414254042082323	-0.262575579247202	1.35519820637948	0.197185906758772	0.653405912156372	0.312859062772499	-0.992828209947315	-0.146477972866325	-0.318759127974794	0.180560570970931	-0.0456884821614345	0.334450518548387	0.277416440368883	-0.363582976613432	-0.0196279606571406	0.392315837025666	-0.287362390457334	1.18333131740594	-0.59070147493462	0.168058733720944	-1.03133346936298	0.649280478549486	0.727199254164409	-1.01235630874219	-1.26224940063501	-0.140265615429091	-0.545706260048701	-1.18591900770775
"HSC.GGCACTTC.AGAGGTGG"	4.06255931653521	0.960082432999386	1.37471234319801	-1.35164244257809	1.22406291503135	1.3705832430962	0.152380960676886	0.374138450474384	-0.155249445678025	-0.234484949782447	1.05852232622697	0.811375545987323	-2.21237015082565	-1.12279884776441	0.00844007454822428	0.850862255595899	0.648047509096552	-0.355526624877122	-1.64013153892069	-1.51036779497577	0.661610826035496	0.641936972355727	-0.600720045726848	0.319130309423799	-1.32711594445551	1.95339950210526	-0.876722623090067	1.8238242043994	0.570014333015977	0.0648657601893223	-0.421002044131984	1.09255029760866	-0.00127588331993893	-0.956832472135304	0.0564497300842827	-2.34274113661579	0.789894420820821	-0.188062968948771	-0.373435324993202	0.534018544378629	0.33365512932914	1.61036972245246	0.0832974307407417	0.936479891443591	-0.616382536566627	0.95426746152702	-0.237052185302126	0.450897209331695	-2.20305577364733	-0.660051061116322
"HSC.GTGGTGCT.ACTAGCCA"	-1.63491714888099	-1.19916600049448	3.65275343678953	1.04475690803963	0.797883700434063	-0.885513766042366	0.505416413413212	-0.486510513350947	-1.40498925497718	-0.582651581514734	-0.454921406251513	-1.47507829922678	-1.2889233880052	-1.33675408352307	-1.38226814825657	0.4125521491596	-0.537218822786318	0.769486433513887	0.315717705658571	0.256600473642674	0.000106628534881499	0.085263814799839	1.69168523576739	-1.25563332099936	-0.589751828524362	0.123906253392596	0.173614824816934	-1.08503435260395	-0.275982186754903	-0.903991974570419	-0.752190856584121	-0.53010907790631	0.365564925289318	-0.205318163145929	0.135864503516158	0.740704078799148	-0.980014228370149	0.0218446299374859	-0.310388087668108	-0.127315353784776	-0.543651525725469	0.774702234299583	0.718846851363479	0.738740648297437	-1.13879995676333	-0.354079926062027	1.00281551434638	0.420395112420777	-0.0749295760463788	-0.547294277281152
"HSC.CTGTTTCC.ACCCATAT"	2.44988434113162	-0.84538976744617	-0.360948428925359	1.99996063156289	1.55362238775832	0.455432498845025	-2.30264291491484	-1.57712607180406	0.990768382910803	0.37015870504341	-0.505167802664312	-1.02770355295032	-0.132034164984409	-1.14415031720624	-0.021947673703298	-0.93789786056804	0.11452664684165	-1.92700620606526	-0.973143394303458	-1.32407048404202	0.715454230030282	0.267054030039049	-0.520433778218451	0.208726917988334	-0.770511844565182	0.579652811027096	0.0589323553748701	-0.847546532374958	0.389807829122144	-0.186626897137789	-0.491040388881755	0.417389733695517	0.430255161315216	-0.861549673300547	-0.40537034704145	-0.330810128268788	1.29577774312151	-0.717319076080138	-0.55828087970431	-0.627457979991923	-0.346649672000309	0.625837276195272	-1.20118061331598	0.582119587725923	0.106871308099766	0.294009745767784	-0.62682183323962	0.60739323931301	1.521425527403	0.839992635601495
"HSC.CCCGTTCT.GGTGGGAT"	3.58534189400241	1.23839261261213	2.31380210137442	-0.789631906989326	1.2764132517589	-0.152935764107787	-1.30367017096969	-0.620221608210979	-0.600349172049852	-1.09920018220001	1.89636199967292	-0.289450620599801	1.36228201890969	1.66015903170713	0.374960767920716	-1.37794790173803	-1.82191380195941	0.184517167479918	0.229772329791244	0.0979491259250807	0.329118352973075	-0.959507000177464	-0.0789520294882329	0.854010472318406	-0.665831157353975	1.00972454939022	0.614864055516326	0.629375527035373	-0.325007497332036	-1.10203873189084	-1.12064694477271	1.62393010151522	-1.1863840475694	-1.63966129219134	-0.841342413018567	-0.768642758828735	1.57008718816106	-0.960297568484105	0.992950700257381	0.536016528732649	0.0118713298113226	-1.65934513149006	-1.53430448942245	-1.6035554839004	-1.01416755259788	0.627933922121873	0.403947570733278	-0.147784682319094	0.395136495238737	1.61522101836747
"HSC.AACTGCCT.GAGCCCAT"	-0.849341091914243	-1.78267889841526	-0.376556879720511	0.637001385787443	-0.0405081752040866	1.28886794316978	-0.607922010835952	1.08201662034357	1.05143711349785	-0.121641554587775	-0.730810996278796	-2.97725595127173	0.103611071171034	-0.234852796658238	-0.0851772822152452	-0.25540346979924	1.18171348407756	2.19431094110529	0.983136143129573	2.00323639870613	1.36492933705967	1.55958705445019	1.22588225188055	0.0143251137891657	-1.0649819428123	0.536911812048852	-1.01638349986088	-0.720777773057716	-0.167459999208063	-0.74794390417177	1.34978024581105	0.580974045638532	0.655781609607226	1.07114927443676	-0.0478212512753875	0.663343782532464	-0.562505810906295	0.191046255508326	-1.33103207266864	1.04359338178209	-0.786530206329091	-0.29463984137669	1.20399675353582	0.872545385537557	1.02400258632606	-0.654830654415332	1.40665576698868	-1.4891982084187	-0.66496050340631	0.610883397436046
"HSC.CAACGCAG.CCTGTTAT"	2.92389710969586	0.127588489491922	1.14967500425467	-0.282979653712111	0.146070195479068	0.0970771442339906	-0.344611619366624	0.415665184602458	-1.91916081901766	0.613225746315615	2.3377147679848	-1.38187255148391	0.415613349823406	-0.638612539628491	-1.3806822135458	-2.07222654617068	1.81708436251517	0.989247630462461	1.04313037761711	-0.488207135196855	-0.802061151229739	-0.196345304760739	-1.26275774144907	-0.449976692883494	0.0223467573774702	1.9351960135077	-0.0525551763674286	2.25931121265477	-0.662343827438014	-0.0917592123390714	0.294421767160407	0.987481037927057	-0.0880949905962941	-0.75024644570604	-2.13603487517317	1.13402177645054	0.0196576867047432	-1.88163551593315	-0.0465371552366197	-0.0734757336028704	0.388550483058867	-0.261653596183235	-0.702320975836215	1.30883565818998	1.59402757682212	2.00773384003387	2.48701570786408	-0.642524939769309	1.01653691710376	-0.0767417173083039
"HSC.ACCAGTTT.GTACACTC"	-5.48286734356653	-1.88438793895664	0.656910756090333	1.45932823989974	-1.16651169544089	1.90586702195121	-0.769910125356845	0.0714429363414248	1.87938430501146	0.257921649344604	3.11785405243366	-2.75769784895177	0.956246036417546	-0.235434145095072	0.398550236200178	-3.2829170051168	1.58613406811036	-0.94188950688827	0.159338252900957	0.113651125193229	0.417069605205089	0.853930189863176	-1.3088702158403	0.590968252892981	-1.46645972453429	-0.385387120940643	1.28582323071855	-1.37693009856733	1.48400740181352	-1.78197177326211	-0.0135212129562581	-0.0323032546730325	1.48197890076993	0.520208280723361	0.976139907978077	0.145292642836423	-0.523839551034459	-0.984377815809764	-0.359008739139401	-0.543141417048307	0.0749481078304739	-0.355223480238242	-0.44070886182601	-0.858118815789205	-0.362675869204087	-0.607896898147766	-1.26059923762466	0.0749261439197215	-0.46977370358881	0.300176468359832
"HSC.GTCCGTCA.GAGCGGTA"	2.66402144944965	1.59141395628325	1.34115223687194	0.215815676780999	0.588777947495802	-0.664103727419308	0.0834215124059805	0.135630484204234	1.16348078523469	-0.899450585346689	1.65428101103307	1.39622318965098	-0.931436701954973	-0.750057821709646	0.995566188493788	-0.0664994545210873	-0.402582282250616	-0.521754157538041	0.401065198857937	0.508056165307625	-0.384145677111725	-0.349111905504112	1.62969302341674	1.28168611982107	1.96813251322675	1.62073993082982	-0.784135295981447	-2.01183491369351	-0.0054994140341533	0.0381189797090686	0.327485550844785	0.923946415682441	1.13461578783495	-0.489425818419784	-0.533206830401433	0.944181422146619	1.53824152427994	0.415361755856223	0.642521083166645	1.06019313855961	-0.514871948832171	-0.0277903946745188	-1.23062970211524	-2.18787333046861	0.0236340059301392	-0.588578994888319	-0.191096295385376	0.0921324993287933	0.803601282582323	0.30385114440784
"HSC.AGAGAGAC.CAACAAAT"	-1.3480835459934	-1.43324869845424	2.10520644190229	-0.555670615445276	0.647548578283514	-0.642822577566013	-1.69889070923513	-1.79587054865129	-1.79163985952445	-0.18025890355124	1.02286200217463	-1.12219172007573	-0.628217155823774	-0.466733242834237	-0.750866956040741	-0.418751836175012	0.90381586840836	1.65804547417151	-0.223100437086985	-0.656621976544616	-0.625854238112608	-0.253454420938536	-0.335837501929693	1.10712433397626	-0.481649681082527	0.933523597775887	0.683475689034448	-0.0113829854428922	0.234639097082295	0.437411549137632	0.182937314605819	0.250952898047833	0.262607503058997	-0.465389238910152	0.0342271694774908	0.96274439218296	-0.363925183607584	-0.292296225632364	0.0732020438398372	0.800598853135326	1.02915754072276	1.08437084112518	1.53137638605406	-0.850191607335084	1.24412388688439	-0.603898265398929	-0.335307302415318	-0.42219574475678	0.314745407762497	0.204050339283924
"HSC.TCCGACAC.ATACTCTT"	2.77354693615199	1.39625095963982	3.3728338506604	-0.088464020529996	-0.207873946579897	-0.544109123336167	0.0452996487001324	-0.929494347662459	-0.488582315380498	-0.376824886259386	-1.32653892441375	-0.742021994105836	1.10976535824007	1.61487922660642	-1.01560528936935	-0.236654926792196	-0.0434697453219724	1.0547548572946	-0.0559799913999559	0.999117259328022	-0.887729478937082	-1.63489356084855	0.477004906925773	0.466860185666197	1.32063998213686	1.88806403201642	-0.231880557545457	1.06117487157592	0.126821971163372	0.712043511359772	1.11760315200343	0.893724494913401	-0.402825597413148	-0.382545965255413	-0.507267781988659	0.936380270058223	-1.21174587867129	0.750871175978303	0.321347772641862	1.29747841082532	-0.130398396412117	0.565604786280278	0.439997039711628	-1.49196135565165	-0.453361841679083	0.923720662018746	0.226255457383211	-1.17226747863701	-0.811417992861514	-0.691540202123325
"HSC.AAGTCCAA.CCCTAACC"	3.32638730794461	1.08953885814683	3.3364885192635	-3.6757144100103	0.398396094430417	0.761541814578091	2.83998211822745	0.910720145729974	-1.57650090535299	1.602266341741	0.914100592529193	-1.53184167945569	-0.923270609553626	0.529597300564704	-0.567977647195667	0.550837631791687	0.814445976561943	2.86968591989206	1.96587923238658	1.44995869082237	-0.30812960793914	1.44548758264747	0.0996807961271913	0.894011020655492	-0.013849463324646	0.883531293998581	0.496432820201748	-0.273987385423383	0.103290659239613	-0.236747163572479	-2.03603400235143	-0.71894496009675	-1.27159159339447	-1.64121700767351	0.967690029098101	1.47090123599346	0.658671278908596	0.331430607036317	-2.63254749466825	-0.818735549313804	-0.908243441526305	1.40509776418101	1.69666456654125	0.416979690504739	-0.144344910084734	-0.657613977494404	-0.355481821558799	0.838706401702821	-0.834571909377923	-0.779901950165987
"HSC.CTAGACTA.ATGACTTT"	0.942673193456595	-0.955920320130403	1.42859487228106	-0.0702391631308822	0.495005969147229	-0.892297982489998	-0.287381861676891	-1.26071324341773	1.05903534732804	-0.298837101358701	-0.147382086266422	0.632038118792415	0.811096874665718	1.66457091269417	0.0860760331692157	0.00804038827419998	-1.16613817960485	0.685708608414014	-0.129027718588869	-0.0736509173338953	-2.01239761854733	-0.117104477090355	-0.945348966154197	0.842248530153246	-0.407764265143658	0.990383319067778	-0.47922475282438	-1.21406128652804	0.207163668641433	-0.55048858905904	0.791756970366427	0.557412321624382	0.45689995954991	-0.601057742156704	-0.174050342675664	0.390058608770458	-1.11841944874683	-0.31425653393018	0.697715054943984	0.891605898312338	-0.747106579053527	-0.665795143083053	-0.65077064659311	-0.918574314473566	0.529731032305794	0.436684284756369	0.543070121262245	-0.619758389195728	-0.0183887370809846	0.16227164084085
"HSC.GGGTCTAG.TTAAACTG"	3.65462022158693	1.61656184281978	1.14388360923272	-0.322672415437008	0.18643426761276	-0.321987174029366	-0.716962196728029	-2.92812075143893	2.269469081872	-2.11836107392071	0.45925335451202	1.37852432256358	1.12468755367726	1.20284714821759	0.7772915235187	-0.539112673392498	-3.32512734978639	0.361316525829633	0.0111560195692794	-0.38457101239667	0.287245436427288	0.902858157723575	0.621042463929352	0.589455620144223	-0.491363147232049	-1.67037294002824	-0.764993783829457	-1.79238739667076	-0.519526310186679	-0.127282885367228	-1.46284209856207	-0.388188886993777	1.31240274703196	-0.0845365417424294	1.14281091536285	-1.01182379554002	-1.32945926754328	-0.420263837684086	1.09118812370581	1.83476538938971	1.09597840839016	0.0188244626948029	-0.0411075980532995	-0.0121412522419511	-0.278245323059011	0.0784402883173267	-0.194054191202356	-1.12161649371621	0.741901045936245	0.3018146208968
"HSC.CCTATTTA.CTGCGTTG"	2.18135102116184	-1.0517902096424	1.56007527471752	-0.788349158325898	1.08178596794502	0.287276077770203	0.895282388320477	-1.34494495284384	0.394026226300883	-0.0771684770179669	-0.291765952668377	0.394063919795941	1.41376061441028	0.657649950648786	0.00287015373987135	-1.31059179965206	-0.0858876814509833	-0.160697882101504	0.977595744108067	-0.368678120667196	0.490659232239246	-0.216561566440433	0.392097745249956	1.33566360980609	-1.19504203976438	0.302126405335385	0.197209022766363	-0.316825925817626	-0.718045451784007	1.21361478618506	-0.279592249431352	-0.869092820941524	0.539149405550519	0.863376003471985	-0.636067335020981	0.710280969278674	-1.28488878747243	-0.478693090610845	-0.717683970989824	0.568269226576157	-1.11740189878759	-0.100053875088991	-1.11792179941996	0.72657763656537	-1.07412732034869	-0.928735140197376	0.122159825490025	-1.16223046950819	0.774967099225694	-0.205692857385548
"HSC.GTCCTTGC.GTTTACGT"	3.13562656212046	0.888103296159308	0.779126676222388	-0.170550503273152	0.509209527696199	-0.0171709534094619	-1.9277061554146	-1.35028749449394	0.142491026911063	0.147221881098844	0.356511612761327	-0.544990130790573	0.790790461148153	2.86788205440859	1.55112233679779	-0.571541127205985	2.08027207415384	0.0376066296719045	0.65435282361837	-0.0409715133019833	-0.309579462461619	-0.92211945131912	-2.11381784464343	-1.59181447712256	0.680921247357426	0.174384147050781	0.00422734797795651	1.68386716985425	-0.0538658690130695	-0.776687805301619	-1.74957292340012	1.4832793125106	1.30043743970773	-1.08322642152117	1.13937836573409	0.435778561259129	0.387594067546358	-0.141552577791821	-0.677600177249639	0.0278442889660724	-0.364766083139253	1.3017699724763	0.478920458271375	-0.811672549175831	0.481695191693348	-0.764254731336545	1.54164254068691	0.120490942804872	-0.158978969731216	0.731469341399125
"HSC.AGTGCTTC.GAACGATT"	2.58675651489356	0.150054754912237	2.65583106297475	1.35249120521356	1.10951272934429	1.33966860126501	-0.70990371466483	-0.738085127962647	0.227526128146321	0.304842717982849	-0.541827747869058	0.244928654236041	0.745719404851525	1.7177786173372	0.946465609462259	1.33250034655459	-0.882546336244897	0.167801333186048	0.250166763918798	-1.10593403375463	0.543654819702043	-0.103799393170823	-1.18313329110493	0.395138924046052	-0.502631250348519	-0.385438625106961	0.506207979408413	0.593366348706353	-1.3987452093856	0.167298770149522	0.59078464930562	-0.591028159638315	0.306737801173442	0.182154707255679	-1.65728462960024	-0.800122896105713	-0.582480811917506	-0.0666308253632027	0.615981466155748	0.876623725035537	0.142460712713134	-0.0738140569357748	-0.0808645956037372	-1.81677711246772	0.37458552727587	0.01212288436064	-0.792536563963124	0.0451690441590671	0.314422955623745	-0.240362180735342
"HSC.AGAAGCTT.TAGTGTTT"	3.81450399418993	-0.187227410226103	-2.84504931679076	1.04933070195507	-0.503753381942	1.54108453246405	-0.188292394371857	-0.978056685879605	0.284375224564145	0.148056093820372	1.02317867931868	0.223212718380193	-1.08721863513944	-0.298832058511585	-0.144202117826555	-0.391418208702987	-0.467923293853997	0.36914815379148	0.771302822352639	2.6568630133436	-0.523490659353793	-0.280892315010491	1.06662218698231	0.828191366737338	0.579848251337112	0.556981514855684	-1.30455395031156	0.460514915529887	1.04166897235072	-0.657930223495379	0.127585516208063	0.937692055876728	1.50450370402054	-0.369655462932976	0.0644897739294355	0.129510247430728	-0.623481826955932	-0.76278566994612	0.246874427399278	0.600370103121116	0.112242805329079	-0.41520430590895	-1.11057941381275	-0.191442269053057	0.147375189716038	-0.941950339197322	-0.24839632281643	-1.27458356265806	-0.727136700387025	0.551784117344604
"HSC.AGGACACA.AGCAGAAC"	-6.21820236550832	-3.06907975961872	3.98420229557198	0.294920146263433	-1.3615119635607	1.76835262535885	1.41339267352129	-0.177341425647547	-0.127819650166459	-0.216042867843796	0.011668007271011	0.971588558183812	-1.19475301168104	-0.353536594964165	0.727648379414564	0.475630616517721	0.456472024153998	-0.414889319041506	0.390860405683727	-1.31533122974778	-2.66591632129546	-0.690827420542653	-0.736359478538597	-0.863531284847247	-0.986340681463593	-0.108916734551487	0.0873024320704004	0.120246647374566	0.955705020098666	-0.349395453451785	0.250776793041696	0.329567464316421	0.190854456673261	0.119086172262408	-0.541316031528884	0.32731695971583	0.850153097484924	0.907742565139979	-0.30334677501275	-0.611190244389511	-0.070329294864727	-0.535829338030006	-0.206487657799894	0.178088477240571	0.822400200191923	-0.15496400175365	0.148166453654484	-0.651879113821203	-1.49833783061943	-1.18371644466808
"HSC.GATTACTT.GACAGATA"	3.06865842554251	-0.3254090028716	1.8213363245791	0.0387376676501393	1.87838602585276	-1.30844290538087	-0.810798765634788	-0.856349304355259	0.466443421220774	0.791209449006188	-0.227588281756151	0.468492071896839	-0.201992856502383	0.362139678390696	0.712568763723576	-1.69161508242578	-0.453788546041324	0.258946023419823	-0.295114690359568	0.194701984879909	-1.92643578188049	-0.187665564688418	-1.36024844854228	-1.71054235809046	-1.56122118633273	-1.80335622126131	-1.23652956186476	-0.598219199867144	0.31626067445908	0.0751808526375839	1.86786190308644	-1.70404459998262	-0.575619257434722	-1.08068448118374	-0.362435403709697	0.519568960795942	-0.0376340093638975	1.11008570652013	0.275738837391391	-0.326224885843837	-0.0477240686018173	1.54626710066432	0.802962972671077	-0.892349426860093	-2.08788512926887	-1.49423470701853	0.640570208577633	0.226912268072701	-0.537276054175118	0.947259571742345
"HSC.CCCTTGCA.TGGCCTGT"	3.62318726003517	0.822848872069893	1.31547957662943	0.391129083499012	0.0321336860985117	0.463516803893277	2.84187849753886	0.38393680872049	0.943777306315563	-0.587315700191547	-0.177254945873865	1.58489502926567	0.48943165948069	-2.0549070873823	-1.3847043561903	-2.45270559536247	1.44857983032177	1.84114388783378	0.135030761976277	-1.67462103818833	-0.297878676723733	-1.9778143272339	0.0429249757946698	0.160250942167266	1.58235914758908	0.0376443914812956	1.64775296460051	0.0247892672709293	0.446171098180673	0.248178314580181	0.628569364280663	-0.187978393367365	-0.770815702845344	-1.6204259648537	0.567255531546499	0.975610832632923	1.30712880105827	-1.55929789587458	-1.22976071440579	0.330040142607491	0.438041638411934	0.0109324430918158	-0.942199743359497	-1.41405722884701	0.202984159004965	-1.36708182535196	0.454823593219764	0.347790274982664	-1.64350640043594	1.21992741957051
"HSC.CTTTCACT.CAATTAGT"	2.75487503180499	0.901165098635646	2.90528486659921	-1.11011904667298	0.744465059243082	-0.673425055280007	-0.789976994429427	-1.83987810788922	1.26210323229322	-1.07169288650377	-1.13457299269539	1.07374904207639	-0.176270389639385	-0.127730658157007	0.31898445812437	-0.204407408167609	0.13025136934579	2.38715982459657	-1.61241682107417	0.547085734953888	-0.147135369144393	-0.477305957923435	-1.07685437083362	-0.560798209774627	-0.338042975425455	-0.0156730286146168	1.23114787734746	-0.877182903778827	0.741167743851943	0.353614458514963	0.286513100105393	-0.245037586113786	-2.14217103656223	-0.608262061195929	-0.244851983606419	-1.12221482689369	1.18357490102812	-0.120233830842778	0.812497791058403	-0.558499050342338	1.46579101576041	1.08695311868778	-0.742861317191031	-0.197920934954191	0.5739601176011	0.147858041161623	-0.209563326478419	-0.733831948034233	-0.506339915622369	-0.350644486373303
"HSC.TCATACCA.CGCTAGTC"	2.34512853354509	-1.26814818617323	-0.0412340527678177	2.43460436560364	0.888187530826218	0.19419471007412	-1.23736981159586	-0.291814046104062	1.14389983879849	0.441030497026357	-1.79156806301169	-1.89382714968816	-0.510093632167458	-0.773295502746456	0.463833449506317	0.678890511407417	-0.709943677657412	0.254225531697127	1.16141190953646	1.5333830045253	-0.454045515339477	2.16544820567521	1.77914185640854	-0.634869459340104	-1.70798508479279	1.47087912448635	-0.257239300712892	0.0698796979578384	1.55251877778459	0.515854147967913	-0.324559763589399	0.169757306268391	-0.461516949109384	1.362898894255	0.97583844553022	0.868105745707606	0.378807105061362	-0.698696263179532	0.462441662351434	0.575399890723393	-0.563845840651425	1.40169062332536	-0.0632291907422412	0.139004816388548	-0.570409942118074	0.740407072966316	-0.842483720450697	-0.989486767833783	0.915825024913456	0.636259596912277
"HSC.GAGAAACC.ACACTAAG"	2.98149116354679	-0.00565042033250986	1.71172572450609	0.31260544035064	1.31315289386297	-0.193899924729275	-0.0904046547950038	0.796060426753721	1.86311431133296	1.55780225363967	1.07315591361863	-0.335726287533851	-0.12485664633281	0.223392019678476	0.209799382550155	2.60275598497643	-0.484273249356567	-0.656664592445217	1.20355904635846	-0.565247197614664	-0.0699194514509741	-0.283074334207966	0.310225940660605	-1.48246698532777	-1.94152684765148	-1.02060680145371	-1.73098697016198	0.390017270541819	-0.738023860945397	0.485401114635405	-0.240486920509671	1.06875129411049	0.279552302258717	1.4710430665274	0.0325601076104154	-1.35709034552543	-0.183066497327108	-1.70832343178274	0.906941657003404	1.70597069991646	0.659285370899258	-0.510674523717651	-0.0805032986572626	1.09047715213786	0.277413972261633	-1.71065967138595	0.272927528869298	1.26895135661785	0.0309349922658117	0.642765876895484
"HSC.AGACCTCA.CATTTGTT"	2.32703809777345	-0.714938877616975	-0.081054869249203	1.81916577857431	0.766522575266784	1.54146707113533	0.206353908626016	0.278081023780059	-0.639207047960018	1.44077894871923	-0.0321307487334932	-0.689663612568612	0.606131887799717	1.48902444807394	-0.428092705824264	0.198928266665202	-1.30143709036429	1.0291578328065	0.491494711239559	-1.62249245632951	-1.93391074343007	0.847011606340055	-0.643424653112735	0.359560783524175	0.280597944745951	-0.462841352247169	0.00814510749341825	-0.910041226996793	-1.5463748442036	0.182644119429231	1.15341645614269	2.28426214306958	-0.634833721052036	-1.02912350265558	-1.71893087649749	-1.17514813105557	1.3572567305225	-1.62817571732735	-1.37286396530841	-1.00877477336103	0.140508674055163	0.087557030104325	-1.42981340452878	-0.905089867865338	1.26037027163706	0.1267881953333	-0.870071311994252	0.861938589201181	0.226860824463169	0.578208611884097
"HSC.AACGGTAG.GCGCATTC"	-6.59001636847155	-4.49940414477392	3.06521450652079	0.948720983761923	0.398788052779305	0.710306896775608	-0.923296225164131	-0.894448749546644	-3.11346371441201	-0.823666696879702	-0.19870426253374	0.107968610682748	-1.27471269864315	-0.345253028295189	-0.721555229230775	0.703037633753908	0.253869993411817	-1.73229658512826	0.90244633569084	-0.306167764366039	-0.89205884594136	-0.365919580521644	0.357231911083992	0.350740445686039	-0.580976308089417	-0.696592971184202	-0.387844643452018	-0.404478922797828	-0.98376359339095	-0.825114290791364	0.334594234499023	-0.0763996841004067	1.40602587256292	-0.646007339443613	0.870664520463245	-0.331931540849527	0.113361203147401	0.765772571252122	-0.383830840808524	-0.0205293352541943	-0.326695641294883	-1.34369134276977	0.0669289220907662	-0.394295455900726	0.656252215194854	-0.372835627716484	0.926684305536453	1.45619645692845	1.04066362820183	1.60840643172977
"HSC.GACACAAA.GGACTTCC"	2.69471800514489	1.8622842753981	2.62641949678945	-1.99860891938889	0.752688056607263	-1.57219650246932	-2.13735752635174	-0.51972428586437	1.63517913655076	-0.717188607380608	-0.27366184644271	0.169087930878974	0.327710144260953	2.15219594012216	0.166389271861211	-0.0311813760401941	1.86694388326692	0.0656319481722818	0.850687425617201	0.147739426811048	-1.07402778472057	-0.843742885572121	0.646417189272006	0.124592104663724	-1.51944471897366	-0.573297007783533	-0.914118624762919	-0.680723627445631	-0.378566422133309	-1.44886530301849	-0.796376255107103	-1.68444465552173	0.768069989381184	-1.53465569267743	0.880480024262636	-0.378705946378818	0.591235339652754	-0.451524883940318	0.818504357644719	-1.10608057118107	0.758666264876775	0.29096231070663	-0.730737469950023	-2.36320214598496	0.203329485117761	0.912819555898016	1.8792456785196	-0.970141453677485	0.37260160399267	0.910210756988778
"HSC.GGGTCTAG.GCGTTGCT"	4.37675016785552	-0.727493976228129	0.598131579413096	-0.0735356689190458	1.04489100594027	1.04607639955052	0.0639550119519826	0.850876425341775	-0.0024832415788035	1.02611998880489	0.500093780032137	0.0692112492177774	0.253106539176381	0.312438609847352	-0.0141288951022785	-1.57081542170435	-0.612551236779996	1.32475990358892	1.88030514292241	-0.963832080897027	-0.246429181512521	-0.409078876866592	0.378877740851034	-0.524710861770548	-0.7674223756937	-1.17088617103087	-2.33044847535001	1.41076712455406	-0.30663419731464	-0.0672573634562537	-0.310057730273787	1.13063277549683	0.992465325302036	-0.544106926996884	-0.581406893125348	0.902818484445926	0.83293956653762	-0.0453412005785032	-1.67894118233221	1.64190677649446	1.77628380935103	-0.0585727908293858	0.603178707271199	-0.29409757666421	1.80337866276027	0.584453541948247	-0.726780346210103	-1.21585849701606	1.24971609133471	-1.15251609382992
"HSC.GTGCCCAT.CGTACCTA"	2.33182866102756	0.351159195705634	2.81019605626199	-1.0447554751611	0.914024827798032	0.191123520381711	-0.994613905015142	-2.12399887444066	-0.753605475170158	-1.99197927849078	1.11440391184105	-1.93661258707623	0.606663294244959	0.433422327646502	0.178117465303039	-0.380433506215883	0.71104004320336	0.233866334049007	0.62656276305528	1.81530457387734	0.107228042401593	0.227197483947171	0.438376767941348	1.09580410139706	1.50033262378379	0.223268765310154	0.910392792024909	0.19140811361586	-0.237906373730049	0.238246750069533	0.622449179283494	1.6753931032602	1.8163599840326	0.842880895201777	-1.53658929225892	1.12516639414388	0.576597483408351	0.273799914938893	-1.06505227236776	-1.93629366334083	1.85334381411806	0.557545669216168	-0.473910672756592	1.81918122815376	-0.390831919899672	-0.931253814290695	-0.687544019681668	-0.671893716661732	0.19791154983494	0.559339645288564
"HSC.AACGCCAA.TTCGTTCC"	1.99687909980459	-0.348558933277326	0.779245418558028	-0.914736883592616	0.152363480266618	-0.176457920841953	0.863829356283764	0.569742470799144	-0.108583788105857	-0.298892848922406	-0.445883663863937	0.138199495125076	1.35685253242463	-1.36668382255576	2.03041326618325	-0.645921425879212	0.264173642233631	1.42850858330878	0.923308755670273	0.530425426850529	-0.757662019281202	-0.587353035261203	0.85300051522786	0.608102680750665	-0.698907370443845	-0.258627076195601	-1.36697526771814	1.01415880592416	0.65342325089677	0.863825748453315	-1.82941138349887	1.44577777830065	0.783427402289898	-0.315283036562663	-0.5118586442664	-1.39698506601112	-1.36526596928045	-0.816921609340129	1.05194565142785	-0.176046625282046	0.750401781765835	0.342117979889347	1.01201690157189	-0.688508713693894	0.615694855032568	-0.556353105251878	-0.808933933175492	-0.676668000021035	-0.219061317560161	1.54182183240057
"HSC.TATTAGCG.TTGCATAT"	0.418002075681064	0.503099791284858	0.109381944097493	1.2484940802165	-0.790823122062588	0.205361430842098	-0.657317988219746	0.984167671004114	-0.399945510667286	-0.583922219487723	0.271273926254293	-0.797505231624245	-1.41012240431882	-0.953742298659063	-0.00482173289073366	0.384816024388576	0.969234108559557	1.35879879926723	0.0386818227195496	-1.64619700907505	0.0538443509504576	0.130961169281734	1.10616620993324	-0.742548213898051	-0.72870549971881	-0.330335035388504	-0.527836858028043	1.37409292154007	0.857254196698343	0.399815158320629	1.1673874666564	-0.271899887396184	1.16291582244252	1.25534554257516	0.522268338831636	-1.80387383626126	-1.11251345884308	-0.188132369219551	0.434505486535225	0.778918850361896	1.85327468120933	0.0356708830379072	-0.737580671485181	-0.0478371412392209	-0.357060876033877	-1.74065772605637	0.628861418565535	-0.0210394685170079	-1.64687592125741	1.33611339760517
"HSC.CAGACTCG.CTTCGATT"	1.84372045011635	0.205541038461545	0.969631049814722	1.9370892263966	0.45774486390004	-0.456302715514879	1.33056519916845	-0.501761983488736	-1.38826935647647	-0.885077941720245	0.28999145063407	-0.482966275670152	0.46553210138107	-0.0872020670491988	-1.75452972288944	-0.78923673358236	-0.367146206366865	-0.67441726886998	1.86531849939882	1.1440171591472	0.914011825860035	0.870449397810119	0.601169604263284	0.308265646774661	0.307343681925155	-0.0940189570525049	0.737993711869452	-0.162534948636866	0.952676116298819	-1.51663352539223	-0.390445796275483	-0.569716749913895	0.288746218539821	-0.776698213646615	0.235718663840321	-0.987779656878296	0.0372241229560385	-0.538500377125416	0.499198036990477	0.0871739359758222	0.247968597690115	0.0308320992871022	-0.201700799605094	-1.31602528998245	-1.58450193651088	-0.728896487857251	-1.37094089035059	-0.362177453837998	0.208193458244609	0.568428408435183
"HSC.GCGTATTC.GGAAACAG"	-7.97069272022137	-4.09195074856279	2.70647751452208	1.16712913566272	-1.55712327624441	1.43656957023844	1.52569296066567	0.0721628327983162	-0.901107326594938	-0.0918548318031692	-0.195550653913964	1.59865787227067	0.633054024146297	-0.535524374127687	-0.240080809593823	1.29281060080929	-1.78627043195046	0.39900143025441	0.403300315299249	-1.46707906825879	0.012069567801373	0.0281332046079893	0.686084360186337	0.0649837148400723	-0.831825607273483	0.741947352951345	-0.306042282097012	1.1620659544255	0.205505692982515	-0.44177573675048	0.303410093065781	-0.214436113925004	-0.0361667063806706	-0.0700299067345823	0.408471739191875	0.196941551787433	-0.475913803509342	-0.939075078950713	-0.384806385897526	0.730701266082639	1.60132635347647	-0.526690118832064	0.415328432288613	0.542063529187039	-0.56832320119015	-0.410946712551985	-0.885984061090022	-0.554136806866959	1.17778469339573	-0.298875812155531
"HSC.ATCGCGCT.GAATACGC"	3.45310083187723	0.697631097907182	1.00768537225114	0.137724983138052	-0.465554322093875	0.0341197380358405	0.170641312678663	1.44779742772363	-0.378435566575034	0.753478699934383	1.44952507029146	0.899430206319673	-1.33915115555358	-2.30291321860328	-0.528772256046092	-1.49580474085761	-0.209923140706472	0.8940062193536	-0.0261221814682247	-0.258302521022195	0.901342896929707	0.959892610159164	-0.858016557033707	-0.857860056984883	0.125896007634139	1.06170605494368	-0.527640178561311	-0.193146263854916	-0.824908485204977	0.0934876978601779	0.330081681149255	-0.529304594438184	0.020050447294489	0.0131499678664743	0.955592427191114	1.92853408950724	-0.0448501897656594	2.34382386292649	0.864504685058573	0.273947141798176	0.310188688983159	-0.00304677628215694	0.778482519081343	0.369544279342949	0.487774399858928	-1.56848085157158	-0.85980387593357	-0.0342226922491329	0.411058251322611	-0.109986829774966
"HSC.ACGGCAGT.CTCCGCAT"	-1.45629324536776	0.521125299565078	2.55361229674422	-0.0340581525634001	-1.06870471670488	0.775986105685844	1.40520006932953	1.20626982601058	-2.08766955566126	-0.763063104937426	2.48815151716863	0.368245360499966	-0.0921077268948061	-0.533394980907357	-0.27910442802756	-0.25891775642869	-2.07120108623263	0.96946485952971	-2.3971186512309	0.169486009984961	-0.359899915605741	-0.974266018670005	0.307322873394236	0.799410801519813	0.657692234449013	0.447034963622543	0.0503911810112527	-2.47904734952178	0.605939594173784	-1.40974791149329	0.35979297580244	0.535595839318618	-0.680370731865783	-2.93696149243759	-1.28568676325731	-0.634057277095269	1.32094032670351	0.142578073553682	0.872174493290123	-2.12349355883695	1.0222934296175	-0.897441382362704	1.41789391638971	0.42325444068758	0.381258735793893	-1.03316615895688	-2.24908742090217	-0.59636396630967	0.948199545167763	-0.958152888864052
"HSC.GATGTGGC.CTCGCGTA"	2.20655500735332	0.78398295615547	2.28826801107053	-1.23122089386028	0.284808087811964	-0.287849101362162	1.92456728720021	-0.950120815610779	-2.34892928949657	1.11154064358489	0.393762469851654	0.18521272759152	1.40828854550087	-1.590281444156	0.709221448999055	1.05900031336199	1.72637839775656	-0.0605279270509149	0.51690794887635	-0.565929698773069	0.628454437969973	-1.61017780841241	-1.21800436692384	0.361823982942581	-0.625926597632996	-0.426485946309236	1.05961865360517	-0.00105742434337498	1.32521724071886	0.837323953907192	-0.156421804832463	-1.43299633876442	-0.277942784992443	0.274711831812128	1.38579825317777	0.502320128720396	-0.845273023323025	0.0421599724721196	0.506324023907396	1.3481817179475	-1.10547770441425	-0.96397090111454	-0.823930847330543	2.48713634124049	-0.817996746960624	-0.175894693946345	-1.3155743896329	0.230508529327985	-0.0230507091617459	-0.0872827762725989
"HSC.AGCCATCT.GTCCAAAG"	2.92515959755716	0.901228392106943	2.65086092573169	-0.706698507484408	-0.193640635740783	0.73395175028933	-0.306741717528876	1.82740189190626	0.924551457105608	1.3778813071355	-0.172636746976391	1.06668165892003	-1.08941688389504	-1.91684059982263	1.13685137858662	0.616716629042584	0.0574357834716088	-1.24081134860752	-0.77175035746415	0.648729564155348	-1.47142820383674	2.82872892994606	0.802480313367933	0.528202857635568	1.31059284198026	0.688409556621958	-1.25476011624653	0.814352538733332	1.08525844599561	-0.124559262894555	0.456058958606833	-1.62686806365251	0.980476419663374	0.527533910982571	-0.67502458810993	0.999718350742304	0.913383927643515	-1.2685573210384	0.836707889618748	0.712847427135531	0.696497596661108	0.255471994455011	1.27629895081073	-0.538360622002253	-0.371698807140485	1.54362584912462	-0.0152037141201191	0.304191024089328	-0.514093406779585	-1.73214901091023
"HSC.TCATTTCA.TGAGGTCT"	2.08128018930243	-0.555003789712411	0.229582313359151	0.230840435202576	1.1333416358694	1.27309848253471	0.336254380019158	-1.32769605825822	-0.417146960727598	-0.272273293937225	0.586229683699914	-1.31268621143514	1.45589782448243	-0.510895102729207	0.658561365342269	-0.209462035260641	-0.486625869983828	-0.890856864613616	0.807594423541589	0.257438429460327	2.05622129809715	-1.10840766402442	-0.917560911448151	-0.808173839246914	-0.983889973355121	1.24842109854712	0.484886349505773	0.610534517775659	0.00169204009558842	-0.564607739991386	-1.03898884977809	0.692575119354279	0.981748797794977	0.273645642220974	-0.660808972645249	-0.318052868094614	0.462889670661582	0.234151060614041	0.443998675791573	1.88924467687251	0.404854475650913	0.669080723704576	0.4572142948766	0.508737944669519	0.662269880977848	0.49821097438294	1.86369652615941	-0.521438736136329	-0.394693044194016	-1.45574861378835
"HSC.GGGTCATT.TTGGACTT"	4.8881692647399	0.820091256878216	2.02609419047972	-1.31489880733235	1.81776968728732	0.16865378548985	-0.275030284600496	-0.700948083760054	-1.10793335558506	2.13774760342314	1.13635259421422	0.235345260462372	-1.37241768445457	-0.177318506873854	-1.84011933208472	-1.86851310136481	-0.401538939159279	1.12146610985965	-1.77715409315399	-1.03436036563669	1.01156673432294	0.921836798834827	1.40119766209054	-0.150714382148415	2.53009306408009	-1.46382954335861	-1.50056995899906	0.587002290519875	-0.0893247177408017	-1.94817954811547	-0.0757618219070059	0.0776569739522685	1.82344585118929	-0.805734823041179	0.0687368704963523	0.419851550168098	-1.65442524008325	-0.115730121672924	-0.994261601645467	-0.0139564754854433	-0.0492394912921692	-1.07670107738458	0.451752129788123	1.18940698450038	-0.274188169759183	-0.329407439493034	0.538958514068284	0.336597744469268	0.429454596505816	0.900384587958646
"HSC.TAGTCTCT.AGCGCCTT"	2.40812553162641	-0.315171287305217	3.01066630685482	-0.165345237392955	1.0373621426137	-1.06125240217382	0.621595156410628	-0.62972836083133	0.142114825505084	-1.07969773000185	-0.0433683174893844	-1.68198594601618	0.298884272864728	0.653068696823996	0.413582798310097	0.923435996002507	-0.946445560168449	-0.627520099586908	0.395152885284095	1.04820115859957	0.10657261402263	-0.913242975440404	-0.519298520353799	-0.587216676107004	0.208712630081464	-0.976112634780405	0.12119996288079	-0.29325333252684	1.26087564975738	0.475465863556201	0.0743457768312833	-0.15385412874421	-1.91039499680373	-0.921391838805246	1.55858028384262	-0.606414547369167	-0.208855078224284	-0.479144555798519	0.106531160654759	-0.441780355606535	0.954149282065811	0.11839300222956	-0.879098167149257	-1.07786953619686	1.39629133050046	-0.216856296281723	-0.398784783107385	0.887854836049289	1.37613632964236	-0.780982308855659
"HSC.TGCGACTA.CGTATTTC"	-0.100558789535	-1.14172926603629	-1.19587087934133	0.582536423008034	0.414572183243227	-0.283437974104152	-1.98685768771925	-1.96414160975171	0.775605469748949	-1.76272618423326	-0.302092316372768	1.39820727586433	1.45834781566674	0.858287945096266	-1.53767118420101	-0.883978238595715	-1.59691636324066	0.661698605208438	0.965923309038105	-0.722051092271396	0.701740711670431	-0.708168667528288	-0.732374250645836	1.55757834330267	-0.46651923649296	-2.8735366047503	0.439969709263054	0.513052485463839	-0.357914255556108	1.318874205183	-0.628207795928155	0.406647258923323	1.35691792187637	-0.749084167481647	-0.441192600287294	-0.296439356929006	0.353220913757044	-2.58817762394341	1.53406234750406	-0.906136370178948	0.46569028812045	0.0216971960888203	-0.37108153972949	0.617168349619913	-0.421545197888575	1.30841120518112	-1.77292926345155	-0.503544814371604	0.293704337700241	1.7233476143598
"HSC.AAGGCGCT.GGAAACAG"	-3.66206068521861	0.611421886276413	1.80391448278632	-0.547223622529397	1.54792052220532	-2.31773845446722	-2.10632147696032	1.46538892873621	1.73770511383479	1.36462941234603	0.589114565592858	1.40116187003895	-0.870305805663522	0.726125256854928	-0.38312405311046	1.42466393699586	0.809716058099907	-0.454830565898676	0.448409705981761	-0.279864421749877	1.2907363304407	0.857904773904161	0.265390333178505	0.492474031305955	0.564756501650052	1.36858818378379	0.152088028806327	0.822728938126944	0.278483496065849	1.75077300623774	-0.0176212122659478	0.4439625375268	1.0157764324092	0.0846905841133627	-0.36831242886932	0.659840215326867	1.51315272564266	1.0397897717367	0.702588038390241	0.0314544250626102	0.589738524847017	0.597153766982496	0.422123656841273	-0.595963720671755	0.554140460864772	-1.22583499018094	-0.374631715510038	-1.39822638835452	-1.92932746162788	-0.547023932135059
"HSC.CTGTTTCC.TGGAGGAG"	2.1368339129676	-0.142651512709055	1.45968225189759	0.278504818754252	0.362556561278914	-0.893012942939804	0.0539789511945919	0.0629640832293951	0.154998969648483	0.968871238330289	1.56160525034881	2.69787777506706	-0.499832144697032	1.47463255903013	0.824799221246039	1.96341310319844	0.294685195071916	-0.145546239455826	1.26465539509484	-0.181240814501662	-1.11163570042473	-0.38843754882143	1.49972081791441	-0.488587872034595	-0.85231256035424	1.33667689803762	-0.000591541802680086	-1.34101006305179	0.390670541724761	0.0773997410067448	0.14289864237732	-0.120440511996845	0.327043292727167	0.760734003872891	1.7642943597516	-0.893788069706533	-2.89250406721389	-0.441279025567335	-0.525998614622226	0.0604199835321882	1.34663087335737	1.24070689286805	1.13564988619959	0.130110983802379	-0.723422812672345	-0.427052742990633	0.630322313214341	0.0600979914195659	0.653830721656354	-0.411261403598593
"HSC.GGTAAATC.AGTGATGC"	2.44074533105184	-0.804583487225291	-1.89385905311553	2.64269239513129	-0.129396039557684	-0.0427686095639353	-0.908205948834953	-0.39276404689458	-1.05177759469019	2.20684966566238	1.74950998111936	-0.520386558343548	1.01459344100641	-0.629930636480075	0.679404643061335	-0.500353870930606	0.799743082791225	2.05799610341673	0.408217415405003	1.62770578452621	1.19159459819467	0.2384827135858	0.448446195737663	-1.31592904031458	0.369940731376165	-0.81487015878111	-1.59330204375583	0.367698015945558	-1.73268233388502	2.69960506758516	1.10802167917311	-0.954083604520472	-1.54005601867978	2.3797102694234	-1.21987518255442	0.978902613682337	-0.849064670858159	1.41075794950924	1.06916366545909	1.91469193001509	-1.4661862880372	-0.949234274628527	-1.42159975319947	-1.80376288313717	-1.50216347961318	-0.319113091170481	1.04358441899632	0.264119347909011	0.201203943974248	-0.102793193287849
"HSC.TACGTTCG.TCTGCATC"	3.78742295597017	0.704178745609142	1.41767640755827	-0.0807979493585028	0.488151035331275	0.171890995439087	-0.240179504646367	-0.0577955538941306	-1.64980671913597	1.19336666489755	1.72355987106137	-1.07847025620151	0.530780360377909	-0.941585243687502	0.469809224276805	-0.244742234974529	1.04674782841231	0.276683205180846	-1.3887155375886	-1.98834894322448	0.456853728894147	1.55824122827131	-2.56204351985127	0.760238833648766	0.164685344436902	0.686871552264658	-0.296389140865471	-0.490109187902395	-0.6289776392622	-0.393934947501299	0.251160585338513	0.801450444216126	-0.0917462927877336	1.07042092680063	-0.0213641259344567	-1.14877512791277	-0.340573978897051	0.293679148416577	-0.895212523658059	-0.598830294238514	-0.845736376801853	0.124237169344272	-0.733434668404947	-0.527489483930553	-1.0408409327148	-0.267075613084376	0.429661131828188	-0.0982352672854361	0.0357712272055659	-0.618925018736995
"HSC.CCGTCTTA.CATCTCCC"	4.2515139600271	0.703016489454862	0.592119376555223	0.350546994988029	0.458382085652474	0.809465547502888	-1.82688408981586	-0.338654787135102	0.176905392784085	-0.808062751401775	-0.666207535547948	-2.08108070794994	-0.934350051554729	0.862610232258319	1.98203563532261	0.841771841144622	-1.32240862219918	-0.736922297393064	-2.69074219001247	-0.546971697787996	0.201525259180142	-0.838215419647946	1.0704898648299	-2.30151143398735	0.190891400210599	-0.0355462870843575	0.496941710421099	0.848888650530441	0.862466479258819	0.347415125001235	-2.23122100216095	1.14809717903828	0.0507721312593706	-0.159331587754762	0.463566802501825	-0.959695228804264	-0.294598914720553	-0.212726646512259	0.480358276358929	-0.629242683954194	-0.0679592193640003	1.34694310284042	0.476608121260651	-0.784968410693584	-2.31151067572139	0.563400015450428	-1.27995104887486	0.497437021776721	2.18243950291944	-1.04064378749806
"HSC.GGGTCATT.ACGCAGAG"	1.14077491094556	-0.519294680122585	-2.36582123522883	2.01036805206154	-0.047188023350653	0.664164875747657	0.501327125696677	0.187703716002284	-0.464400461582845	-0.590704739721775	-0.188209498925713	-0.291060579049538	-0.847287093491601	1.64954794572716	-0.324069151571334	-0.871206876737115	-0.161274355308948	-1.01344573130226	-0.00970355713295738	0.316893093435387	-0.577941738537865	-0.412696390926668	0.456245853237739	1.48642342314641	0.439241422653917	-0.0122014254666833	0.566151540180149	-0.562742665012908	-0.0781222302662625	1.7360972871851	-0.10178475341511	1.15471025223149	-1.3160425597497	1.07475682869921	-0.159376255993567	0.026455722163294	0.189548365472355	0.113953849631131	0.11256614021699	-0.162989469133068	-1.98711231549366	-0.572977065016155	-0.143450306923206	-0.252378676986962	-0.0353635887866658	-0.0726532546983699	-1.70629214640854	-0.993971640652678	-0.884483890234991	0.282895044813761
"HSC.CTGTTGTG.TAGCCTCG"	0.656620252652976	-1.01374955680927	0.418254158905893	0.0426394196691246	1.21969417423856	0.434450854797838	-0.0304769515356944	-0.949016005881493	-0.907190364396275	0.0753759476275731	1.01819235256857	0.17164304368226	-0.286279983440303	0.412111778812699	-1.79574351107531	1.16320456267878	1.01529042449645	-1.41015316505633	0.382708950867968	0.100981209061138	0.412424586181494	-0.796587174574719	-2.02795710397786	0.891781466302376	-0.4039400740699	-0.713126965177673	-0.247087403552618	-0.0105037028452548	-0.641992243414153	0.919388220159587	0.991809664634261	0.168914011019328	0.205199819615839	1.04596793215574	0.291588422884868	0.381519994691207	-0.117931096194986	-0.754348202800814	1.41067944529799	1.0936120586264	1.42701559669515	1.973928193427	1.54565391891893	0.953073295929768	1.1700638699315	-1.75506585330281	0.45120641397421	0.665511167619437	-0.475127679756837	-0.818897083771551
"HSC.AATGGCGT.CTGAGTGC"	1.9131390354751	-0.411758907796619	1.09750341083118	-0.165113386658134	0.71651147964544	-0.410732711737671	-0.172959464667826	-0.376390946259804	0.307559615741725	-1.12656220805341	0.113592713646936	-1.12123062987298	-0.918820604002306	1.30037525802832	-0.99950911107268	0.321995300639578	0.650285099096338	0.346231037631164	0.943277673569813	0.661431190004874	0.649447944563358	-0.609993080213554	-0.931416986735082	0.117682114703876	-0.409143385554982	0.703747404732284	1.64512112226045	0.419944781577461	0.96301675138754	-0.642329825128746	-0.0673284392649434	0.81754638132804	0.652525691903906	-0.348015070357531	0.264922813858252	0.17208742246584	-1.04249922641575	-0.0541154757531176	0.936971770419385	0.255986803095389	-0.575016566516504	-0.233912894608977	0.234348416427184	-0.0182611566518238	-0.0481605227567372	0.286382509295384	-0.2935141738027	-0.650187049863059	0.994831568385492	-0.00364022741341093
"HSC.CATTCGGG.CCATTTGA"	1.10457385195798	0.616969459149784	1.86124975828241	-0.511145419877433	0.133501257767891	0.0912832912309698	-0.749076325626169	0.698418379928523	-0.245716292258508	0.650565155385352	-0.0782926655992741	-2.56846486673485	-0.45838974806517	0.309408483908532	0.993311385561675	1.26001210831316	-1.73808069760141	-0.493671385514297	-0.988726966985817	-1.4710623651228	-0.406618485102887	1.07787063498062	0.300797824062832	-0.409253946076564	-0.959507567988837	-0.114988660246621	0.451838115467556	0.854239568803847	1.62468187250023	-0.799142595766201	-0.474020319399864	0.472311978232722	-0.36489185395621	0.372901376652426	0.0051959529918276	-0.441878111819279	0.541812510393542	-0.16141756555982	0.758105198282145	0.207297512519787	0.258838222505688	-0.130393320532857	0.639651477273309	-0.381121082894603	0.533068338973058	0.0432305338212274	0.969436819486538	0.0641872240542045	-0.568903491297201	0.819211332986952
"HSC.TGACGTCG.CTCAGAAT"	3.4740319324166	0.248889917726661	0.428884194044368	0.467538344562622	0.909219903135555	2.38671054192184	0.106426597730671	0.410124102903661	-1.50679154567901	0.466807186826912	2.48036743184626	0.635475539850896	0.0389492753297045	-0.410622702817643	0.0849693781027434	-1.05094509487417	-0.17195030988492	-0.0146566567203132	0.927091358009752	-3.5750922391457	-0.0411692745393071	-0.302892526425412	0.217814469808935	-1.33807503311581	1.85284821704195	-0.130945150912609	-0.660389496631457	0.680767397983795	0.780406448590908	0.379384748780865	-2.2476196693936	0.815693175615043	1.02151163692677	-1.77475825785454	-0.952048849703455	-0.165307486614067	0.939038057727336	-1.7072037436074	-0.372680939592489	1.71668711776493	-0.992578221500744	-0.154719052398141	0.835163667572832	1.50282659586658	-0.125460496006446	-1.1043709442891	-0.142857664933168	-0.0160763212852279	0.384481708317862	-0.403779060179052
"HSC.AGGCGTTT.TAGAAATG"	3.34300938294581	1.3050297165795	3.10059464839694	-0.823941190475253	0.933002761596118	-0.610064727084336	-0.83502727843826	-0.759339909761328	0.566581752364329	0.111417469067863	0.197954705540344	-0.330890798649452	1.80591894719467	-0.452726331917975	-0.0469674175156396	0.91053984151934	0.898641874726049	0.286152847821255	-1.94144283142419	0.846078663087633	1.91630116517953	0.212224075740012	0.690954770787814	-0.108099670667608	-0.574980909008739	0.681790512509338	0.216641216222294	1.20276217001977	-1.32309713842993	-1.96065476075539	0.0979807017277574	1.57770636002916	-0.259386013119965	-0.186848155096443	0.5646884506794	-1.76544047439413	0.432446056550436	-0.059569818794098	0.586510128632433	1.10227446532028	0.213033466752353	0.155942659076388	-1.89506751475333	-1.32937071294048	0.703303288948624	0.518035272653418	-1.52269073558726	-0.723436139346658	0.666475595069895	-1.03575770384198
"HSC.ACCTGAAG.CACAACAG"	1.9083579168674	1.4600341876823	1.69324414879545	-1.08465184395535	-1.47134515944106	-1.77149500337949	1.41529998832287	0.439983616713331	-1.03279372904099	-0.345069688562239	-0.234150954557359	2.96885821858156	1.53193325068769	1.79708982444748	-0.734157202926025	-0.243550595767724	-0.451470494775979	1.09532362487911	-1.27302333891281	-0.720028706542967	1.27150865192512	0.394338347447925	1.61100217601127	0.749798796489065	0.854424386985865	-0.466858359731549	-0.0127952334550911	0.644901420477718	0.0465112585551386	-0.0882264099929146	1.5830095277308	0.807207447836009	0.794175555903281	1.2667176923242	1.1721614125218	2.05501099465328	-0.284073281480317	0.952737760391796	-0.850785599292831	0.131742449985545	1.60696109407846	0.562403798500839	0.483875730286405	0.0598408526251312	0.743896945182427	-0.900818759278843	-1.50148809636886	-0.744539579881925	0.576913133758278	0.810606807908252
"HSC.TATCTGTC.TCGGTACG"	0.0464098029342518	-0.700737988314199	2.25801184116436	-0.299488336052351	0.880296470926452	-1.10949415589536	0.555925326269174	-1.04362766352078	-1.91486886281791	-1.11185941795046	0.446044161013985	-0.0253381003109854	0.740470323390915	1.05282330495157	-0.392402277013316	-1.33234142000321	0.544374113623448	1.24809020247333	0.488250378800975	1.26129055885347	-1.37506846669569	0.536952223843015	-0.912979164711373	-0.144550533108175	-1.27572109043041	-1.06594143795715	0.0874757349758511	0.294106245985231	-0.77140611857071	-0.473192768993072	0.510524736390557	-0.295634678520744	-0.657352925858009	-0.116596607402842	1.61164466998521	-0.415343668117586	-0.171155456100349	-0.876527297144133	0.5050798121006	-0.0931124067383584	0.692869379984268	1.5021888141351	-1.59884094230117	0.36893959465061	-1.91921387212674	-0.379900175920073	-0.589062860302517	0.43353798200696	-0.68155271838627	0.0534549706092966
"HSC.TACCTCCC.TCCTTATT"	2.27612657089957	0.097050396093673	1.54486885148744	0.0256381205031167	0.880251895633993	0.727710300452106	-1.54085155721374	-0.695302145006774	1.563636065748	-0.285759667221966	-0.245418309397458	-0.368717444053741	-1.43051289494378	0.577126701334233	-0.131632039847351	0.551166225426455	-0.666093303704703	0.183064975655052	0.233920661099146	0.603779614893909	-0.238050753054657	-0.328345276088979	-0.480308222913967	-1.81133420122798	-0.474438779636022	-1.35757102725661	0.106535134873775	-1.84824731030733	1.71727306572777	0.480478115360354	0.468538555495026	-0.607532830591378	0.371340410491796	1.31172867557979	-1.2190332964085	-0.557247193160452	2.08532807442455	0.346822247695483	0.455609042065939	-0.57483662612872	0.726317771837783	0.0616538510793297	-0.562603448829447	-0.527096291478329	-0.224716056242979	0.51265141310441	-0.70665858979181	-0.523296712588311	0.219142375944913	0.211575079803531
"HSC.CATTCATT.TACAAACT"	-4.1875439066827	-2.24422827312911	1.52713583359843	3.04604781838719	-0.290703324489164	0.069173387713979	-0.988061487517121	-1.07854043068381	-2.27971704351608	-0.478008015527803	1.30528128683058	0.873599363669234	-0.146727267530911	-0.795775519738482	-0.386448828056862	-0.683992761427777	-0.027409454170252	0.339208187475787	0.2753250407253	-0.874964745710591	-1.07504753483749	-0.963281073592101	-0.10544490852628	0.779430238643213	0.168044056026409	0.827575867506134	-0.764717075140516	-0.81071414212813	0.486165264266769	0.761665797979796	0.80358238085389	1.13743274552917	0.372085070467775	1.34001345989061	-0.247790730265249	-0.355784051343083	0.477978526038643	-0.949576526923574	0.206033031874075	-0.0356246101425674	-0.906477751065911	-0.42067448959434	-0.415988673809535	0.56822631968221	-1.2400619201691	0.492531112872042	-1.14702911055288	-0.151725302245792	0.885990105654733	0.435366742672909
"HSC.CTCCTCCA.GATCTCGG"	2.92479869831076	0.852654189025342	2.09175261747746	0.413389451838569	1.25306029229407	-0.322830573483199	-0.757724984454269	0.291716460464788	0.991820078754175	-0.338917156779262	1.79179124873542	1.21140478339868	1.3132365383929	-1.31097094865192	-1.57407034315184	-1.06018126680698	-0.555812329793292	1.19046719078907	-0.686829960660111	-2.14332400965897	0.240625907241752	-0.498905069587385	-0.862929525686853	-0.0299232704883103	1.81729735647188	0.980302895952665	-1.29821368569494	0.24800712781179	-1.17282171302006	-1.10555293178548	2.38334954845123	-0.0457981627710567	0.0084917807751746	-0.235499947285845	-2.40948735947245	-1.74505565422148	-0.0697827292191562	-0.884979008335684	1.53775352386719	-1.24154672782598	-0.416476756732256	0.320661164648404	-0.0664480646421734	0.38001735209798	-1.24131886664951	0.0175343412299248	0.156745116786224	0.102979697268818	0.440938759030569	0.593652307737995
"HSC.GTAAACAA.CTGAGTGC"	4.09254423275789	0.640192104952619	0.641665740272892	-0.707044203417525	0.123698661881668	1.60413103341637	-0.355751508119209	1.12618348744428	-0.918761881407795	2.10606988880538	1.20939078421045	-0.451806744982198	-2.68966183373325	-2.36103946104787	0.37069685582602	-1.27026350876071	0.673645093000614	1.35843084324334	-1.75894748677647	0.304894440669176	2.39189906053805	0.000558260742831257	-0.110630657986187	-0.199963628724853	-1.20225520092025	-1.49740513972641	-1.55319734206099	-0.302071796923631	0.532421964717768	0.516801480597363	-2.38292952460079	-0.289142549966569	1.14733226779433	-0.321491828912011	-1.22433606048309	0.1529073700472	-0.462815718122476	1.54375381595472	0.232705367553224	-1.23086943551976	1.00896260606624	-0.084516928019365	0.668021108827029	0.439575643221083	0.181654309783947	0.0391033763280949	-0.218103227458997	0.0131951623063283	-0.371839607857443	-0.314561718317305
"HSC.GTAAGCCG.AGTGAAAG"	3.26149133113515	-0.154424624881741	-0.288287517091762	2.08164752748789	0.0968246109925952	-0.661197421921415	-0.231240528617391	-1.38675639412723	0.394841815923113	0.783037251331576	-1.2420862361303	1.17864415744763	1.09551489808604	0.348196109944706	0.230330334250696	-0.93599836875078	-1.08285256474927	0.414303728426496	0.674988737145326	1.59171980467502	-1.33631909079195	-1.36605720668373	-0.0847462069770683	-1.69376082302055	-0.570403295680951	0.663535247735517	0.90877633264556	0.614307355917638	1.79198629100121	-0.90609158879219	-0.112857592802675	-0.377952297878591	0.357915814835427	-1.30699367040077	2.15979706308219	-0.484519878605782	1.07603707189616	1.71917639095643	1.08698942170096	-0.36024196423315	-0.706351174606278	0.625200262061243	-0.650661008255976	-0.516083195013242	0.486787356518936	-0.305807288689706	0.761837584112356	-1.03966881124515	-1.09001964565209	-0.115256663036124
"HSC.GCCAAAGC.CTGTTCTT"	3.20892895494864	0.990409687571814	0.546605637748385	0.885623906104899	-0.115662365774609	-0.032311973284479	0.370367983593119	1.33133791561108	0.577557985495286	-1.46815702235463	0.472379030715154	1.44761889976334	-0.0793340580660265	-0.693355778610802	0.0900059692891118	1.45896964901695	-0.559087272730153	2.40868169283357	0.133557876814107	-1.21213232239357	-0.496760100462569	-0.343261359684011	-0.09553078398019	-1.47225938241884	0.269338438887059	0.675281934840772	-1.2740666786962	-2.57850915314292	1.36630726047684	0.143159945348305	-2.00691749861104	-0.482481260812666	0.969231943151699	1.32065448152444	0.670779619155689	-1.73624569707862	-0.233019871477289	-0.183835159730554	0.0396588071007008	0.00522291397835767	0.322606460751674	-0.392380130102493	-0.169970039856942	-0.558861508816491	0.42463315397149	0.256295256696948	0.044591911442593	-1.57454552097573	-0.464241448763043	-0.207295211341183
"HSC.TGCACCAG.GATCTCGG"	-6.2565427992198	-4.54187149468336	2.39711919409507	1.04088485906733	0.193927291085285	0.306277964072553	0.915332921730947	-0.450005557261479	-1.793485595407	-1.19872012078685	-0.824262089745224	0.648312223459522	0.115712236328751	-1.93802167336513	-0.586339256213622	0.230763014576773	-1.29082176182829	1.62135870213008	-0.339171123120635	-0.926840676555026	0.281211627112523	0.366939099326836	0.756703470785395	0.415573046122748	-0.168788114792991	-0.0292344170677853	-1.57751717003362	0.598752216020968	-0.481625813527805	0.272881684622257	0.0750477983504006	-0.921863701264658	-0.0657025494811937	0.183111736693515	0.109925509351171	0.0946729951304701	1.97198615185336	1.25328696309073	-0.249359734977221	-1.67278355503213	0.412773302421647	0.0161203954210425	0.820368931722217	-0.561152252077402	1.01935499734872	1.08879033936464	-0.750053880553545	0.378972829830008	0.638758532446476	0.941148596877546
"HSC.AAGGGACC.GGTGACAC"	1.97965397790833	-0.240135658884857	0.0220746984938357	0.509354434926956	0.386481483263734	-0.823589344082997	-0.809152932521217	0.581740980255685	-0.408162313734366	-0.200715288497055	1.65292955255872	0.892254217023329	0.413683932196045	0.42470316656234	-0.906624009790928	-1.73725037808246	2.36039847941435	1.0598047238237	2.46028956587124	0.90291109543247	0.198086495707829	-1.57276878474528	0.244192801754221	2.2414326547679	1.20459370813182	-0.121704891570342	0.529914135947986	0.168925987834425	0.41167213050599	0.997267540293601	0.0305768905833848	0.642102398740193	0.664484527275178	0.0861767907546497	0.410043362414315	0.546607124283838	-0.0673589980389043	0.0156198472118542	0.742870378314916	1.19414656796795	0.0689044596651342	-0.346371025391478	0.433015012371215	0.352632041467988	0.716375357187043	-1.17281167330425	-1.30661048636088	-1.20615927813236	1.0635550678484	0.40568125787527
"HSC.TCGGTCAT.GTCATATT"	-6.0008828337148	-3.07831118546752	5.0755446621021	-0.208105584726405	-1.87548527476073	4.89798722862438	0.67553433106969	-1.51216086005162	2.8934303865979	-0.608061946488726	0.135205001064408	-0.130405898370845	-1.28870490460552	0.195516419051919	0.398739722417611	0.256509783422964	-0.322009144274157	1.20055214768205	0.992221571224608	-0.489967329880608	0.471790220529793	0.33034639777413	-0.0965255799291064	0.0432141724057474	0.0525803508823443	-1.09781211642004	1.56520898560688	0.0134479923729042	0.349399697359863	0.619065891477624	0.0646525500770245	1.11195230534232	0.029305369664609	-0.515726479195362	-0.0660699447104023	-0.693516980406901	1.69085447917274	-0.358647830653863	0.12947162307451	0.460067852870252	-1.3354624300297	0.413800631892099	-1.01580058338905	0.200965376437464	-0.260085072643178	-0.296992588928706	-0.751825509983602	0.286452671126041	0.287707805533803	1.81502708803863
"HSC.TCATACCA.GATTGCGA"	3.87840250997858	0.506260549937498	-0.0674533130517216	2.42210400324914	0.214007391853381	2.2736733598104	-1.37288784068129	-1.78835675360539	0.126005838662071	0.00439518495191349	1.23867979623272	0.955402936885255	-0.91388825466316	0.522124329740288	2.3577595422129	-0.591748034583785	-0.242798649259135	0.246795117125537	0.337613788578605	-1.30024834208443	0.214744362006487	0.605995769606713	0.462411145653629	0.55026708655373	-0.895073485858951	-0.0728981363618415	0.749249457121008	-0.356315237407305	-0.852102711342805	-0.0132152718288717	-0.259676387420624	-1.87541551634794	0.408390727123531	1.02589453560642	-1.32654358696549	0.565833236136664	0.647539486033411	0.136611376239492	-1.25664292850565	-1.86526050373385	0.1053762859517	-0.936645069486764	-0.580340729849804	-1.09048299358054	0.0354910444486911	-0.949425504637511	-0.372624312970145	-1.36480748330566	1.16988087635598	0.48498845016153
"HSC.CCGACTTT.TTGAGGGT"	2.15751922008629	0.612271775379439	0.344596375449164	0.550592098253119	-0.371884572982179	0.373289665590838	0.952747590172433	-0.804619188714256	-1.19184790649397	-0.208514804044494	0.146157123538166	-0.273889632295614	-0.755751889587262	0.253886941042187	-0.441111087306949	1.28813256180455	-0.469180011419844	0.171871767146113	-1.10804928913868	-1.48968557314871	1.14294109262682	-0.359076233689392	0.164224489570702	1.05226837884645	0.208546774240786	0.15958594005801	0.567011666154746	-1.07964454105216	-0.698494103337773	-0.306432533311377	0.0142510740983609	0.670022784325136	0.809795329785318	-0.718152535320154	0.625140995829005	-1.25150245002199	1.32104611342853	1.54793722887194	1.01404430134628	0.314403511279719	-0.416574230434221	-0.947062431974182	-0.0113831103561292	-0.275565170548061	0.262256248779078	-1.29901584144272	0.0572284189048822	-0.18068689069248	-0.216856844304313	0.743073171862714
"HSC.CCGGAAAT.TGAGGTCT"	4.39931540526499	1.61413070617555	2.95420792116425	-2.09125662945547	1.07752336450284	0.21363370040068	0.291511160975416	-1.20068042611411	-1.64744696553478	-0.3871009050708	1.87825832978231	-0.592488183825053	-0.342964239032108	0.529490017595962	-0.864407036514725	0.920720144828362	0.143552551211491	-2.17880548959623	-0.8736503379672	2.09205136211529	-1.61905491891619	0.748161948155368	0.287366587259354	0.473764040399996	1.37048449200071	-0.977492794491995	-2.05807228760481	-0.152241486457802	1.57848579791554	-0.767178259734742	-0.0480640068551501	0.635722836660578	-0.350511749964964	0.216779537377331	0.603950770695714	-1.08733266110838	1.6204724387011	1.94551133166662	-1.54828080156647	-1.68715937901767	-0.784686681588586	1.55253763508038	-1.28041242176383	0.503141125180598	-0.4896462796998	0.464277347244839	0.096810112358779	1.14735299348067	-0.452656703879757	-1.10203277644108
"HSC.GAGGGTCA.GGAGAAGC"	3.40731497240069	-1.43867639130559	-1.92116431287598	1.5562689647909	-0.926802953280098	1.79259318338184	1.72622798645819	-0.0725891933697875	-2.05307122398695	2.06470886040366	1.07495066261065	0.786625805131519	0.788594113754222	0.931232641240191	0.388244883326242	0.00495508004096322	0.383424188033117	0.355659664207843	0.423572390777479	0.077901393607057	0.635089597076053	-1.11067258429717	-1.18163375446785	0.764289058205502	-0.0852064077423731	2.07241485625678	0.36741108007349	0.481520551615418	-0.091258198764757	1.02716663273205	1.63743365792926	1.13809250250628	1.29598021169957	1.445710867137	-0.417289277971785	-0.825793687799232	-0.653257011119281	-1.38985960956737	0.543173623944552	-0.450311183465924	0.237477419210286	-0.798538020868249	-0.767252543899437	-1.50420843623122	0.091330858080507	-1.09188062456327	0.991993107811282	-0.430995009102061	-0.727229120472006	-0.61113485093961
"HSC.CAGGTTGC.TTCCGAGT"	3.71231973774049	-0.355304571077183	2.84504088304459	-1.26927177256297	1.47033158514453	0.750550031009406	1.9668342555984	-0.0456913573966349	-0.440901867901983	0.927705913033299	0.149629899264905	-2.75528084638614	1.01507735855403	-1.33589404034555	0.16944972616378	-0.705731105477868	-1.81161605829505	1.62075969906774	0.223302944518803	0.882940359234986	0.0599494020684407	-0.694399518202812	0.59368449313474	1.52225773030373	-1.60080041587003	-0.115967710879989	-1.43825650524561	-0.0237192841437678	-0.709785198380097	-0.511413347247938	-1.44166521921068	-1.07030841490069	0.56796084717533	-0.512718237530217	0.54652522138691	0.573657328909579	1.20330994900316	-1.40828702214791	0.179656353485079	0.55239946048465	-0.441697769261652	-0.387539603982091	-0.367759076106261	0.405742613811912	-1.10341581567385	1.1206350745503	0.0185833035248009	-0.932943872087476	-0.622793772946015	0.178937890815503
"HSC.CCAGCGAA.GGGAGGTA"	2.1970114252131	0.359692227776795	-0.219806974153643	0.711760526467476	1.7166804895443	1.21270867692355	-1.43637087104849	-0.230208562123387	-0.510248584096866	-0.0769521211241171	0.0290103198539641	0.982691944766772	-1.26841847289333	-0.185869211847546	-1.08748355049665	-1.23542310808645	0.655738676672382	-0.862758014450627	0.5427457996019	0.329927372665883	1.20832140673638	2.23091732306479	0.300232942724177	0.633462938147378	0.506979068493554	0.353832011120165	0.124607749428031	0.171101822589571	1.63718835914884	-0.691102188339632	2.70376404684208	0.153950346805067	0.723160065984363	-0.352891784144276	0.156962653944356	-1.53470627291115	0.824134935621258	0.216806921434138	-1.22331773412153	-1.11839873506862	-1.26346986936852	1.14791768172787	1.11454228147802	-0.909794670240947	-0.477842413945205	-0.702836052704585	0.0436129420443017	0.360804435057949	-0.0154256908340098	-0.208691150577774
"HSC.TAATCCAT.CTACGAGC"	2.26650075681996	-0.261912560802921	2.15893703038197	-0.683450662412628	0.815800335446627	-0.41838961358902	-0.346783825277845	-0.544540720115614	-0.382232238887224	1.26817753107737	-0.826349657222797	-2.23033026037226	0.312364508585082	0.211706511278947	0.960231768695331	0.267268997539374	0.281721887198166	-0.617045206857598	0.0465177287155068	-0.0196843523113658	1.55239802034933	2.09059587184476	1.55685811333862	0.422466518864195	-1.09678558957732	0.214337413659156	-0.164141496526148	0.9016343607159	0.507087393049786	0.49013931628887	-0.436152940733502	0.865320839945113	-1.05549853545574	0.164839062473965	2.27283029158631	-0.246201823579885	-1.16690246996173	-1.2373329073426	0.159873204924775	0.363942042390794	-0.635338394466912	0.140609048074442	0.645120811616864	-0.631106442710058	-0.373618578632058	0.730125950280608	1.63783045345366	-1.38793995883448	0.714234630030857	0.0169040297914294
"HSC.AGTTTGTA.CGGACAAC"	2.66306435831117	1.43963499711858	3.89332369343148	0.787806723329187	-0.0529859883189708	-0.534094673845255	-0.875667820272341	-1.81131502569962	1.98444199941974	-1.95202782752023	-0.783754793984595	0.662144295462193	-0.114433074668769	0.434683141200802	0.918701849381087	1.58325856522489	0.834160440279402	0.512598457046974	-1.7546286174911	0.245426061144409	0.108221392805173	1.39141938565279	-0.585468156054292	-2.31480888827392	0.0838393531275436	-1.14399514483506	0.965703988503252	-1.3610097977082	-1.44182819160032	-0.37633348595164	1.26164656965004	0.372983972674974	-2.02172540600092	0.0378105275520069	1.08380002156934	-0.650451591967295	1.27361708046535	1.45083671590746	-0.711020852107872	-0.189049120463753	0.0982012233692587	0.00268498810906223	-1.37558713058373	-1.229691230708	0.157097978754551	-1.73500547443828	-0.435987628739135	-0.665323219351092	0.465490933545358	-0.217806133710628
"HSC.TGAATAGG.AAGGTAAT"	1.29785101141726	0.313360316633387	3.20346889934218	-2.05954160506412	1.09587890302034	-0.683274830029994	-1.20013667324433	-1.37991842542314	0.683558143207035	0.645140360090611	-1.17266316685513	-0.536943790076622	-0.052929537672521	-1.74681345907635	1.52169509168468	-0.330812018288082	0.509939856121088	0.930343338135167	0.807611463475397	-0.275701586126659	-0.3021976061842	0.315618885433563	-0.84465922278316	-0.0782777966875145	0.026752097450876	0.0553730962776677	-1.06153772488839	0.812544653272834	1.21945308551334	0.662524244778272	-0.819176788982548	0.76137553092388	-0.351231735255415	-0.369632861081652	0.899201868138977	-0.564620860831858	-0.0430334003041229	-1.70963884653146	0.531767762945563	0.661439124095794	0.106013781843448	-0.241725748587555	0.0537190639596319	-0.217884760098081	-0.40864242935537	-0.156222415001736	0.670606335253785	-1.17451630970191	0.49232203887239	0.97081437533878
"HSC.GTCCGTCA.TCATCCTT"	2.32201798919475	-1.0512911041733	-1.29151767515758	0.883497874292261	-0.525020605006399	1.16100562100429	-0.185407223570942	-2.65431745638935	-0.495988898106049	0.756782263231925	1.7239664975693	1.34966613344462	0.462210387693669	-1.89909091787444	1.55981782118666	0.240384983924352	-0.105967621390754	1.12132085038365	-0.204990741189131	-1.11778267963143	-1.06159108348919	-0.597279056364248	-1.27563868760237	1.02670424712736	0.247473186961054	-0.0889737489418949	-0.61980567964177	0.320741694355792	1.60743023420698	0.641887907183255	0.0885996533689193	0.857507323095091	2.0757878353666	1.16916829896162	-0.147319917702552	-0.668866804637242	-1.23556961539329	0.942627954997987	0.33343729437473	-0.897287635246457	0.152327886553533	0.605176202903812	1.78517476737565	0.433146927784473	0.533370795543523	-1.72164621599199	-0.284650556690782	0.578217378565795	-0.858760691867607	0.572249922522362
"HSC.ACCTGAAG.CTTCTGGA"	3.69337862418486	0.43648582236552	0.363665127510626	-1.21057205726033	1.81827538838652	0.306256321970948	-0.926812463858729	1.50468094255467	0.724689802389696	-0.534614509922009	0.282184139073844	1.97229074442739	-1.87196659142704	-0.993918422849453	-1.32275584054131	0.485897782217139	1.0681636168406	0.670792316508204	-1.73328944321763	1.30411321734279	1.28419965511982	-0.115684293214381	-1.05083181005727	0.401628689291338	-1.57952880254748	-0.198020748458582	-0.434973579527871	-0.320938719040504	1.03384599032817	0.327297607098815	-0.885708775553914	-2.08636301458777	1.38267209106809	-0.0188389263172549	-1.51680167171542	0.322352286957297	-0.135147442942427	0.362520910750895	0.329665265752821	-0.816735221636234	-0.731947486339554	0.815215137490738	0.35328774213096	0.0275183392235868	0.0414077697228923	-0.472805181956851	0.611068807506086	-0.922435274363698	0.000504892327424402	0.684246266492763
"HSC.AAACAAAC.TTGCACGC"	1.91020185699407	1.45968337396167	1.01926869939468	0.537403285188889	0.0229677631324203	-1.40259432429248	-1.23393494738882	0.390610390666108	0.939262026303928	-0.780326720892648	-0.272089129603594	1.91114723337243	-0.0779975379701874	0.332436053402169	-0.233093073260164	-0.663096353812466	-0.856847413035609	-0.309526328631262	-0.782742486317548	-1.15903891977624	0.158465587572188	1.8793003762741	-1.51903126072135	0.276775400775726	-1.28711272276075	0.705213234786327	-1.05264708554471	0.77378083249957	-0.761200795942263	0.0543857421766649	-1.59892896310171	0.605831835534468	-0.796759281400433	-0.175805327751608	-1.9029723995183	-0.594922894189605	0.946665622750244	0.760939178384569	1.57015872853938	0.15754583192788	-0.955003058737959	0.1052928631018	-1.24365251688108	0.485456237617375	1.12144062402587	-1.30898353883777	-0.0794761599654816	0.154192611984495	-0.0646391638851251	0.00115362876882509
"HSC.CCTCATGA.TGATAACA"	1.84164414262499	-1.11167310589772	-0.804439320159171	2.5131616039294	-0.485511834389503	1.63903182022351	-0.459164619506083	-1.36335400788258	-0.833848647806321	0.789425425736308	-0.503886139615518	-0.670461788544326	0.628507361969716	1.20613707530985	0.732567591715881	0.0070049304518452	-1.94797296020657	0.925539011094934	-0.729787431364751	0.0711109759684952	0.188995569870817	1.64737017970974	-1.7536902779066	0.118476173478398	1.2520439111752	-1.53814895851896	2.35504716107778	-1.4505628771774	0.534785082386176	1.45745300195824	0.301899502976515	-0.553797528007572	-1.59529398382417	0.377414146485304	0.410366124893336	-0.0494304934478257	0.47692263683205	0.274764201580065	-0.151877353420714	-0.916307788371564	1.59555949192981	-0.1972762523495	-0.430956492176839	0.253108626436407	-0.543761972919364	0.341213459854625	-0.222599546971876	-0.569507059269338	0.730023046546982	1.26895315902508
"HSC.ACAAAGAT.GTTAACCA"	2.91382904748881	1.1564453505396	2.57965573969691	-2.2737541830312	0.538298390202449	0.0624228295938683	0.539744390863667	-1.83242580216733	0.769271658324398	0.662620182300943	0.222328559711586	0.703177208029965	-0.431934311084506	-1.1659846457975	-0.259043311858419	-1.69630518200083	-1.46651668128972	0.969675127027397	-0.874654708751077	0.315716473862102	0.492529566538068	-0.920750142211638	-1.61198598147018	-0.144721046181241	0.302150182261333	-1.50746496804281	-0.919066514870143	-0.0885338128822904	-0.963810413488438	-1.52871574236368	1.06531433790159	1.52307580535761	0.107551868849484	1.24371645027235	0.0600995894467336	-0.454620140700523	-1.07722521167909	0.302641935234507	-0.391615096888787	-0.13800109872971	0.44904348105006	-0.733996954541949	0.681890592685659	-0.950026139599228	0.656070364087993	0.984186891298808	0.85239845453461	0.96043360666731	-0.53984773593803	0.23640630079191
"HSC.GGTTACAC.TCCCAATC"	4.1162348515888	-0.208891623885463	-0.456403989767601	0.821871385246655	-0.1214523582764	0.819973132063466	-0.638691545209674	-1.16903469799067	-0.704923538826693	0.881615209082722	1.551981432367	-0.982971713543062	-0.550532778439803	-0.497004079741865	0.445583321771855	1.00901509194697	-0.969871703883792	0.238450897220667	0.118144853219015	-0.45919924276526	-1.33242786540646	2.58728123302267	0.782470050162674	0.778617704252443	-1.67219178779693	0.511659904498181	0.805975329119964	0.600734156299759	0.17668909881386	-1.59493348227579	0.815849153410575	0.146745382866829	0.183110235782245	-0.95743703318778	1.68358968939881	-0.004569002492429	0.00895202999695268	-0.0172098623905665	1.02772140249057	0.319694445121922	-0.882998073846865	-1.0190543910978	-0.46328508170165	1.60692212474162	-1.01802167883591	-1.23790535917087	0.339104998418115	-0.493807254840282	-0.866613358854677	-0.561497013220807
"HSC.TAATGTGG.CGAGATGT"	-5.87410475436699	-1.77247862115078	3.06634201833395	2.72167695796193	-0.837452195765884	-0.203143812053735	-0.185499539636954	-0.00736184086174356	-0.813467891572655	-0.547739188422252	-1.77957141001954	-0.71001815608602	-0.27685084990537	1.48611379399219	-1.4026161783885	2.4828874843282	-0.128244709815422	-0.719191807876445	-0.457365109838256	0.128947680208075	-0.302323995578339	0.536574130173408	-0.523725890385555	-0.754930881461512	-1.49069541064204	-1.61252738196206	-1.77894870906778	-0.0857229448994861	0.544389936953211	-0.664824284363902	0.187208161828538	-0.765953567163658	0.399582984756181	0.213187665945434	-0.142714777639821	0.772014225127773	0.115070604882033	-0.0100673221464238	0.27672918619868	-1.31880911726421	0.939305520875014	0.0480602538638448	-0.981798023218663	-0.97187849063903	-0.26477683587834	-0.523880567010454	-0.563361843473531	0.259460732661919	0.198501205568824	1.43536640337739
"HSC.ATCGCGCT.GGTCTGAC"	1.34105366771333	-2.30961916324781	-1.15817119411472	-2.00838112120577	-0.160657096408928	0.489916379142615	0.358734959485267	0.959919645916648	0.135087701414882	-1.39009647145557	-1.97356231256895	-0.561568599228827	0.0534056523657525	-0.70126954486821	0.035043767847705	1.10681008740009	0.92924012866274	1.66267842958995	1.59283268576567	-0.611969240189264	-0.610571755312527	0.834398248386898	1.31491533065657	-1.16903273091724	-1.66574183692088	0.258179234162814	0.135975013679252	1.06745034798132	-0.0326088210857064	0.542401977781222	1.62277809500091	-0.349539760317709	0.751917967234207	-1.72492414725646	0.718678840302826	-1.47169210684272	-1.47096461192928	-1.40813426937203	0.728764917030625	0.235518844646467	1.43648425092886	-0.0279745557264698	-0.763944200570875	0.943792510646601	-0.0346455840466159	-0.481530944227669	0.0498035189257474	0.400472691462273	0.0619331067606781	1.0709740560217
"HSC.GAGTGTAC.GGGTGTAT"	-7.38147624922246	-2.59951401551232	5.09525553272069	1.37279451659229	0.298971732377037	0.437678604651448	0.410937625905916	-0.614869537202991	-0.986493421922344	-0.883142550577201	-0.484940223625416	1.30668397730446	-1.37643850368431	0.529934595720489	0.269780574060202	0.119216768395579	0.648863531125468	0.544069282458826	-1.08172607448415	-0.862066361105469	-1.16596775827264	0.883397724425555	0.0526744253424165	-0.0783596366594453	1.79067300861852	0.747820280572441	-1.24588105651445	0.768868348439583	0.00133699107616068	-0.624896472586567	0.886253437573889	-0.0691044670390278	-0.346309662707065	0.783292855412529	-0.229423157726875	0.42639150288486	-0.410131418414946	1.85232078604635	0.021868700365579	0.944490789572556	0.472520687746542	0.0191578489305665	-2.2499248330487	0.663089714870853	1.13984892770553	0.986586886886939	0.312757391841595	2.70075713245631	0.0835985722726292	0.533636752346483
"HSC.ATTGGCCC.GAGTTTCG"	1.53617172148297	-0.414087835038734	0.136083135889359	0.671319948063612	-1.653794769755	1.43222500648771	1.50055408106943	0.826269418384718	1.09887916026057	-1.219213852599	-1.3571474627807	-1.71220290643311	2.19736660194958	-1.3223999161392	0.921800143724018	0.6371803201417	1.09808090408926	0.276098475983134	-1.01183679294355	0.787610985422584	-1.2453864849389	0.227691127522941	0.639266510440145	-0.753532318218053	-0.369834558926395	1.21286124856553	-1.8512520300232	-1.81064693496236	-0.317545430171717	-1.13929406483189	-0.901569710678985	0.406060431722914	0.274591943311509	-0.749747081849561	-0.273757042469829	-0.343441203790942	0.6258841593273	-0.107534189501317	0.70689692135014	-1.39679205246039	-0.518332562464184	1.1327793503279	-0.0894037210441433	-0.830688418395427	-0.563940929875622	-0.685989289736837	-1.37495196787796	-0.782585765002125	0.554220692949143	0.59120501343389
"HSC.GCTATGGG.AAACTGGT"	1.12859080971463	1.67716329014452	1.38414283277376	-0.217160055344997	-0.420977223049634	-0.69532731553273	-0.950668840765048	-0.893867301070251	0.313456456268853	-0.768520519409121	-0.493951572854948	-0.0940543532340831	0.728146146087141	-1.5801077501287	-0.530040062417909	0.813577309826226	0.707205999320486	-0.718027540393477	0.0110384527697073	-0.791911325175962	0.244865089731684	1.64030568177825	-0.0206439834608826	0.243971947854174	0.372131982779025	0.438699588501488	-0.278528537004832	-1.04839413191161	0.0990594318021594	1.40072123533699	-1.10433640354953	0.534618467063166	0.244055016659956	-0.3581621271793	0.923699084789597	-0.509331392600901	0.482230567441003	0.194854336342616	-0.585301157625819	-0.336211146470361	-0.172634465391129	-0.636786951682071	-0.195479263291152	0.69926950253329	-0.125102880919131	1.2702118460743	0.222735964133987	-0.163946505629455	-0.251284359713865	-0.273125548843941
"HSC.AACAGAAC.TCATATGG"	1.49108506753309	0.411065148386537	-0.455966538583766	1.01953379965776	0.216898197387737	1.19219801824581	0.0178439934596501	-0.367137527474474	1.2936431832163	0.401067296142326	-0.440431000616122	-1.16538997374575	0.330014056587474	0.473776890330041	-0.835696634158893	0.770463618558792	-0.734557775601888	-1.90414973910581	-0.375142999874684	-2.8521452078147	0.38382747731516	0.39622886084314	-0.59165471279249	-0.026948545827517	-0.182157764150245	1.50194312488249	-0.41421595883087	-1.12507491274733	-0.619580733963377	-1.38910033344513	-0.42333937363812	-0.393429665255069	-0.326739781621249	0.556450007265735	0.0153608887717984	-1.15876047180946	-1.00848820753097	0.196511323023975	0.154802957527821	-0.114704870816814	0.365501867827046	0.155886510443528	0.0874180867217247	-0.41267223104239	-0.132760439337743	-0.221541737165378	-1.34860705576394	0.057011279123424	-1.95611817678313	0.0322265553675081
"HSC.CAGGTTGC.CTTTAATC"	2.30137623692946	-0.52418440237122	-0.66923737854438	3.13166788037702	0.774827227814336	2.83017387664696	0.744545807558571	-2.32945094955877	-0.543672536453387	-0.235871534850787	-0.897940637526106	0.216447640774751	1.67909206677615	-2.12227636357712	1.30330679508615	1.67093454597448	0.523335278000407	-0.203184111966603	1.95736156906333	1.95179074500463	1.14884377124948	-0.447190632614874	-0.464660571159496	-1.47435022643698	0.339471492671834	1.04529417140065	-1.89402199270806	-0.909489550661528	-0.398553543677336	0.0212199419666225	-0.071810776546878	1.34341121094043	-0.961183025797436	-1.59551033821861	1.60363792992601	-0.191361813991569	0.467925027268186	-1.19330556332265	-0.462490589506161	0.711937677460103	1.71854711337673	-1.4090507725587	1.35621851182593	-1.58647207151854	0.788033890875707	-0.250046603645633	-0.0237123052574251	0.94311698740971	-0.491623605378017	0.13386858996789
"HSC.TGGGAATT.ATGGGCAC"	2.63645260474334	-0.889295454999312	2.20999769962776	0.515886401524383	1.25064571121701	0.866335149108093	-0.295307746191777	-2.28691544598492	0.536755809017872	1.24896231174961	-1.21019679032571	1.47204293913994	-1.10420161522401	0.25379425393383	0.870355546996752	0.507478435798422	-0.685191153135946	-2.17727676758006	1.265405037252	1.09432559647008	-0.214006976764535	0.336746613481323	0.939926711113782	-0.487164493018338	-0.709813779714219	0.413215344319311	0.920027015632836	-1.60835052776046	-0.638214409950178	-0.342054603884257	0.747382996012867	0.11511546967353	0.144956824772316	0.0102076242385932	-0.12077854207815	1.31851985102273	-0.237723156591703	-0.605095253366087	-1.43951842301299	-0.624170059945493	-1.25679902927916	2.48752117506901	1.0782076458779	1.55956449494026	0.446042049017576	0.602044600998726	1.68213449849168	-0.214082156569239	-0.534048207719173	0.446341570650639
"HSC.GCTTCTCC.CAGTCCCT"	2.14017993335513	0.341437117812794	3.4402118137481	-1.08932462045147	1.43877964451541	-3.05172274692047	0.844581752801072	-0.00129236872896076	0.904992810114699	0.33736229889844	-1.89933154894361	-1.03703085085597	-0.763095527470772	0.583982178261329	0.482873977843119	-0.82068988949654	1.46572916553344	0.75175744801311	-0.926197855276171	-0.645758762011932	-2.23982690677207	0.797396046910966	0.564027482773722	0.634757902107147	-0.131724675245013	-0.125695690344671	1.36278669665598	-0.252733640298128	2.21793323058059	0.334505302479123	-1.22268009409769	0.316969662766	0.204278758822042	0.161119576823312	-1.40124376172601	0.730339130402549	-0.782916275556411	-1.31488872220362	-0.535601118007675	0.948966431824256	1.84594927172267	1.63994515266604	-0.661310693576716	-1.57679634473555	-0.513019248367436	0.15359557437526	2.65849341159729	-0.68934971589938	0.365925368559433	0.596229751255708
"HSC.AACTCAGT.AACCTGAC"	1.9486539329602	-0.356267508908334	0.359557871779146	-1.3573772494339	1.94015229466992	-0.60942467938471	0.0411226232577513	0.429243601740858	-0.101818299325151	0.689671127317914	0.783722564844495	0.296616788605949	0.534504989765946	-0.64930196237208	-0.563829009825912	-1.39708621020242	1.44983350521488	-0.275814428953921	1.6216763975851	-1.24498765471835	-0.190389212582889	0.185892291275355	2.03327234555898	1.67411407791688	0.629886225155713	-1.01633263358357	-0.12978215542096	-0.340604464987583	-1.45354571900586	1.29844564312682	-0.0581343991388373	0.47764741336396	0.36409486381864	1.13572667342726	-0.450314438077007	-1.43014472573695	0.726646942652283	-0.916504705530884	0.523183914411697	0.927389773959323	-1.05046794745311	-1.16847132622253	-0.0275305205455949	-1.11163141331893	0.448469687694051	-0.329450301910558	0.487960913587553	-0.083852737184379	-0.0472577143226186	0.972193191660996
"HSC.AATACATC.TTGCATAT"	3.11104320739237	0.809151038569183	0.169753320654062	0.739309764037193	0.146418239372665	-0.711918714966889	1.05464805232773	0.106851666669391	0.170177948875186	-0.05302679263072	1.17060239632838	0.257864413921683	-0.115336314772913	1.32455946354695	0.274468137334419	-1.11321209759659	2.44380957203925	0.319500461504006	0.648762287045376	0.407100844753579	-0.892273768890676	0.661989129700369	2.32692175822777	-0.414701126957798	1.12196120561157	1.63610043542623	-0.547107308765557	-0.253198402431234	-0.224653703945938	-0.601276645790003	1.2836670114257	-0.362146133091708	1.12592025681623	0.642654467857208	-0.636316369214424	-0.550695510313332	1.22184358486648	-0.477938114894693	-0.655494410746192	-0.531534399799227	0.385257040781722	-0.727337783607567	-0.909262206829512	-0.193797277014238	1.4328837263509	0.561820504672357	0.217822417200362	1.08242452507387	0.264885470796273	0.507613945446379
"HSC.AGCATGCC.GGCTACTA"	-3.02205097130256	-2.1723104569036	3.4466249343432	0.762087130096887	0.459908205533401	-1.41173436204445	0.585179954426224	-0.0204082894364449	-1.44776112786652	-1.53334707062972	-0.98745060430024	-1.02704753350849	0.0120308265045765	-1.68731535551237	-0.525564134098923	0.482863553877238	-0.660733587561164	0.40465551539154	-0.0685351788075102	-2.29776052402768	-0.191352644804165	0.387647864620976	1.06739105052122	1.26088310557468	0.267308600127682	0.376200202957277	-0.552567397728161	0.836999904296899	-0.520508502806937	0.487249978831895	-0.461851067586396	0.820142258067059	-1.09003278967503	1.2392422965952	-0.626097121079861	0.927814462885555	0.0916707406807901	0.670073899018132	0.97560815374249	0.351549058527703	-0.108849884800762	-0.644499710476237	0.733736448348716	0.116234182837938	-0.641866711250953	0.435039985988834	0.400562708207	0.35403841128708	0.0385196318415032	1.84812957353345
"HSC.AACGTTAC.AAACCTCC"	3.60298811335104	1.61463769532667	2.62843058692189	-1.79475389072778	0.548349961756858	-0.758542199307108	0.419669940844018	-0.104893105474309	1.00261550618665	0.333274583761665	1.66243893864672	2.28666141421106	0.0128300211963611	-1.16732577064561	-0.0104209546725885	-1.84758206061995	-0.536994831428365	1.15102511386898	-0.131108129654114	-1.98035096209848	-0.865041132708713	-1.36234183360417	0.16989708732003	-0.102746248374598	-0.456412008118257	1.47516827117767	-0.985189864357615	-0.169807120363663	-0.482427435019411	-0.231919386118632	-0.867383637371659	0.555600314997006	0.0676774488847216	-1.2395884827767	0.79496811023349	0.423933785137238	-0.0435603376884642	1.78611945946192	0.655253938524071	-0.0941758540795273	-1.02572068894976	-2.07711632097004	0.996207243604312	-0.129962693951461	0.831528087853167	0.316731803125708	1.19993125706325	-0.953838415243786	-0.0989559561157161	0.312202252608926
"HSC.TATCTGTC.CAGATTAC"	-3.7989352095107	-4.36802605587915	-0.00252153892280482	0.445464135738689	-1.39469504962853	3.34771590773985	0.426492582294572	-1.85437568008184	-2.84131974245891	-0.227716769662911	-2.97037475889561	-0.171371287368467	1.37092902950306	-1.42521599068647	-0.947641453651765	0.218464565984264	0.443644067507545	-4.34743348251579	0.181777594024855	-0.760578594699206	0.749257006195735	-0.284394513171074	2.3197709926094	0.0568828162220791	2.87816472329651	-0.788121701977101	0.786267521713751	1.031929049269	-2.0409717022923	0.868755893819376	-1.23629800802296	1.01685821058563	-2.11752622791552	1.29045245651749	-1.62993645758059	-2.13775539294048	1.66361176234545	1.04783403289543	0.253698655870612	0.272526159708548	1.15222387119085	0.21255040320134	-1.18838127656501	-1.36033038189808	-0.189917673839635	0.464329970677187	0.311547994026094	-0.779048583463516	-1.40740732662989	-0.177692263421974
"HSC.CAAGGGTT.ACCACGCT"	1.7924604555269	-0.700401777882497	0.15055284478595	1.63499483388642	1.26392702493636	0.410534233607987	-2.49541296716497	-0.635832454977009	0.458606966724351	2.40992039706327	1.49159526433883	-0.0819172602541525	1.04095027565319	0.541562194478795	-0.0533921200738435	-0.323005422311638	0.667701074327102	1.73956422624723	-0.812625438532616	-0.162042919181348	-0.725325512123493	0.641436538810262	2.12916304509243	1.63154440057589	2.25202626310536	-0.631987273584914	0.318572796619402	0.628180249938689	0.873297069970797	1.04732759467413	0.901178883876017	0.771105245032238	-0.516634199413121	-0.26883722890527	0.917942618688713	-0.563198188775016	0.253417623416216	-1.25288536674559	-1.31434740371038	0.114720177209493	0.987474788979161	0.758480091621499	-0.0469585940090294	1.10410257985915	-1.10528751271175	0.97652813031709	0.927922653996288	0.242489032688174	-0.344766324316502	0.132109726415677
"HSC.CAAGGAAT.TAGTGGAC"	1.50775726149464	-0.436409376282173	2.06684626041106	1.94179905258197	0.547860011672457	-0.141293442690003	-0.704561304147325	-1.5690811172074	-1.26231027953781	1.13418020646267	0.642685450105224	0.131593110915881	1.44637907455004	2.39445648637272	-0.192562540127121	1.75712752120677	1.7530667898767	-0.621043276210398	0.596933769971997	-0.348634156922736	-0.16026883003131	-0.128482985519779	-1.95373023850443	1.40690813274952	-2.44137459212126	1.2784068437093	-0.64597627764918	2.75921396098295	-1.69874683020644	0.828783085954522	-0.457076125853358	-0.680390340967507	-0.646816858401649	-0.830340963360643	0.598909842275531	1.53495310393987	0.366656986837818	-0.980777364662369	-1.07582460487143	1.00432392783927	0.669797225700397	1.21789627212184	-0.168002419759192	0.978240606161004	-0.228911147664873	-0.073363798208535	1.07160291390761	0.295732055866175	0.0622400366730827	1.17909833240063
"HSC.CTGTTAAA.AACACACG"	3.00528438759035	1.26449332961381	4.12476215876718	-0.460463493866145	1.32313795116735	-0.815761316264681	-1.47523676325752	-0.761907336633591	-0.156263403142838	1.31807484753869	1.3094720827724	-0.350839827049837	0.337112643555666	-0.383538111305212	0.598035574003283	0.119906277429549	-0.250251811764564	1.82822703627928	-1.66205973437321	1.29094578539109	-0.773151808814523	0.656376861808544	-0.409512811759745	-0.238261931145317	0.444910471647105	0.658948057217064	1.36306427779505	-0.687139133014608	1.52909692543767	0.408683544157222	-0.503741039017736	-0.680222409213802	-1.40468835774984	1.18646861881922	-0.239563094472327	0.0585745288485715	0.313423816639616	0.293643738719307	0.737509165186967	0.472215317261071	0.941097022956969	-0.276226303292133	-0.360334261361525	-0.829518986435276	-1.41614470802369	0.19589304643747	0.312676428112961	0.0211438728052718	-1.66194917660564	1.88226509265225
